{"levels":[{"inputs":[0.763117253780365,0.8082679808139801,0.8279280513525009,0.8323196917772293,0.8233407139778137,0.7969673871994019,0.737806648015976,0.5853115618228912,0.0,0.0,0.671969085931778,0.7207568287849426,0.6503676474094391,0.0,0.0,0.0,0.19545727968215942,0.024699687957763672,0.7961046248674393,0.7485455572605133,0.668209582567215,0.505998969078064,0.016382992267608643,0.0,0.0,0.0,0.7375438809394836,0.8010919988155365,0.8370252400636673,0.7102329134941101,0.0,0.7707855701446533],"outputs":[0.6705681841760327,0.26356039379340607,-0.8837337449668052,0.25322078225834016,0.8340019341903095,-0.8719744123885457,0.8162482974253102,0.6932171032996363,0.10114021472443466,0.9229482396673293,-0.0038387924425749074,0.6507294039430104,0.7073460854902219,-0.24501007642141304,0.1036649363483336,-0.9547069002563698,-0.9614209938421552,0.9860229959184412,-0.6410828662336295,-0.9952158335323004,0.9986902956355546,0.6459433281577341,-0.7665437155915873,-0.7056359669202347,-0.31606684943236385,-0.7134151923600377,-0.7767427558199211,-0.7981191438524018,-0.8772921903432395,-0.899915649160792,0.4837397530475029,0.8068947294188318,-0.15026789686191672,-0.8052608332336346,-0.9296938533378744,-0.06635046969379589,-0.5999519477939547,0.6170410277251729,-0.17897110247634507,-0.5681327997704169,0.929053875169569,-0.3691006701785472,-0.9024598947501751,0.9071781388620656,-0.4976726412843611,0.7202680243439424,0.5978907542718624,0.5216467878257829,-0.7331105271160834,0.790058301733858,-0.2862938259539766,0.21825966020012022,0.7537733298208754,-0.029796619355993013,-0.6452819165589299,-0.9051794323573821,0.002699512528127087,0.8650451283011014,0.27920867545746847,-0.2618312192335147,-0.9902223614166599,-0.41641371412604417,-0.9749144977287442,-0.19004199216809847],"biases":[0.6024545449699965,-0.12891339405488278,-0.15191059945605945,0.3338670271627727,0.36607535969404825,-0.4329646877121851,0.1371323116094812,0.11668935647442824,0.288142033342623,0.40256061372989915,-0.4461567818509747,-0.2538375191904736,0.24640989003224545,0.06716258665166475,0.29558598499966127,-0.6027007261779981,-0.549692735496123,0.22522867464925994,0.16226609131161088,0.14422317271761464,0.06552219805000215,-0.24956884739460328,-0.5553352216621508,-0.5443521434968726,0.18034283684735408,0.3026181951018889,-0.42571878664829454,0.059778825616882886,0.024547415078370216,-0.3482295946331405,-0.25107813113049976,0.09818784493246213,-0.29057804089618783,-0.43590074985758265,-0.04242383255181555,0.3171093576885895,-0.294215532051332,-0.015222788696918954,0.07833361747950451,-0.03260410393537716,0.06115536819198664,0.20006487690545716,-0.06617093632814491,0.15495167759460315,-0.24222044506262475,-0.03792056765021523,-0.4089830015642512,0.1274796391353917,-0.093836777159239,0.11065922961933927,0.26365147987082116,0.031273505607876506,0.40983096132014796,0.11366529628264688,-0.32296531153553776,-0.2637144528468217,0.3089294716626729,-0.4779718389740668,-0.6100444677404466,-0.09865548850920425,-0.677585971108843,-0.15065272635264015,-0.4827791171845266,0.29571308635262694],"weights":[[-0.25770053989585606,-0.10612477360828976,-0.019237256464031516,0.327444154416226,0.10705913785408427,0.2026304539578242,-0.29494994026865284,-0.2569893328548807,0.5729202132734537,-0.1783830337379585,0.6375067758971826,0.2816778992936403,-0.4921682717656468,0.5872783350397788,0.30862998610345005,-0.3372075879643829,-0.20755239713647045,-0.11761040371224218,-0.19051259433871182,-0.3479128536114467,0.3202900003795408,-0.5043309379349532,-0.29288168974622786,0.0204923710547081,-0.3189161267678873,-0.09703429023264365,0.2785553251962849,0.3200311378634062,0.20701036253143512,-0.22034124970651583,0.15302312418197794,0.08454003141527426],[-0.16024857101186496,-0.08934609957578277,0.03383791019473237,0.4549195289086285,0.40678675062749114,-0.1406448782616254,-0.33120095544694195,0.3159955431092868,-0.32633988990226515,-0.08627620559022792,-0.3850562512648078,0.2798705132231103,0.15710436257808735,-0.08583531593068322,0.07314300828050735,0.16252625088341965,-0.12254661402119249,-0.4776517855938206,-0.2428779791189145,0.005536116719259687,0.4684577000303862,-0.038043792663834175,-0.07042654874920495,-0.5601030754720686,0.4731932455079376,-0.40612385340751256,-0.22733096312221207,0.17176729287875192,-0.06817480731754194,0.2536890698513934,-0.13550847003192157,-0.23689162372717287],[0.18272214897761896,0.282794768040597,0.31110812395494125,-0.2173310962959445,-0.4058203752987316,0.33228127112036454,-0.34067290159241226,-0.7039743732475138,0.3018797339496231,0.18800202304307853,0.5461075453821622,-0.12850883068851038,-0.18320635862193213,0.5399254969330762,0.3628658112692461,-0.4113695519688735,0.2772392977017628,0.2738808556433463,-0.4754450680463425,0.2697661699101969,-0.23122838308822258,-0.19274553454631782,0.09623890050677253,0.13406965234959667,0.5428135752347836,0.0733662717724341,-0.14867925478221566,-0.4930388734108706,-0.5174280486023841,0.14924149640861828,-0.2652837012058811,0.11672869554545251],[-0.18653543785138596,0.26696971799073943,-0.2189807321909311,-0.3838836399518183,0.11585489839778151,-0.40406094099474044,0.43422711925182417,-0.4438746487582943,0.009439557173981261,0.2684111120526128,0.33393198211536895,-0.4049600472254492,-0.025655426551491056,0.07249268193454217,-0.1278268592780838,-0.03375614956183848,-0.10785980996495018,0.3102629089424639,0.18546030674276592,-0.011960684003335248,0.46079012314421786,-0.21507406771899673,-0.011585510253529718,0.07172565290696986,-0.39102501429607356,0.19499428758133078,0.2288966271494382,0.15194878075589602,0.21487261370381883,-0.14195872446880053,-0.35319412375111603,-0.11824049851060758],[0.08789128391996548,-0.04657135446678584,0.29929731008259686,0.007070928424500966,0.4437514428947788,0.21284635008273312,-0.6707646093985042,0.6514788449246933,-0.2979335306109003,-0.056104426237774715,0.10943896388188756,-0.008499544147491225,-0.31548925535249694,0.20785098293550103,-0.13898094479775858,-0.4037934258247694,0.05604521186535505,0.3147483771411429,0.15951853313669617,-0.7922257207552043,-0.12166384236323147,-0.21041329608310455,-0.06343038380405569,0.13641339736666624,-0.5113920745016242,0.04454859926443361,-0.5022722847998364,0.3525109374802732,0.5773431332855297,0.21820251619342046,0.08810451831394184,0.45958156931554517],[-0.28870204663586185,-0.1953211479403446,0.28681779285271464,-0.772577877052741,-0.04052418853045198,0.1282844574961194,0.3500433206944407,-0.395126937138333,0.23295856683067218,0.682012343575386,0.4887720985346251,0.6975932192933828,-0.17097148259628048,-0.19059766361327263,0.15022264855105882,-0.30065110100924225,0.048630776645519985,-0.3300654406558784,-0.2028717257968873,0.10744893697405644,-0.7034759397138267,0.022865885400533026,-0.6316010856681925,-0.3698167627264697,-0.16557107245642705,0.03862461493933189,-0.1823306586794693,0.21072461241283097,0.07800179534829421,-0.37374458945695094,-0.6296637632609048,-0.29327716752207195],[0.45979267725218026,-0.6492557848688605,0.26590529390543005,-0.4261021762102667,0.6480865973534684,0.42982243550357824,0.07688298207329824,0.0028446473196289124,0.08703269392191482,0.2992881719724131,-0.06112635763356272,0.21922516680645748,0.18078560507661662,0.44150663541087215,0.022002687272766108,0.22129633801959486,0.1441682738102661,0.26727440724026763,0.4624680851569846,-0.48759454999547747,0.5804978288610856,-0.03243375053377168,-0.17371430043879954,-0.13870946643234172,0.44826755481592007,0.11490179827843144,0.26866760993216565,-0.43936527478332366,0.277896746162294,-0.4469155212937315,0.2890645947112024,-0.02632329543968433],[0.0652238474124402,-0.06002786861957432,0.015197115979005305,0.31752267535417766,-0.17407356034615817,0.257541424349932,-0.2328037933870235,0.2896401781486888,-0.2520010039750826,-0.15832532109919092,-0.4059892393020554,0.3183149293125428,0.42590236506504625,-0.37160285412299304,-0.47892815414127515,-0.3413671494802921,-0.6914613587443287,-0.07138468094469841,-0.08914860098736682,0.22884944061304524,-0.28570927216518643,0.09325525953241498,0.6441664430739958,0.38518058235195196,-0.0059195195065011585,0.6503211828287665,0.4874034590952458,-0.5089536248494687,-0.0950987552932806,0.10255594994432049,-0.3751400780757763,0.5069700595165897],[0.7888696161660251,-0.36998861978791164,-0.3236196036353613,0.18667504416665415,-0.6012441856787581,-0.5537499723975561,0.48807795725295766,0.6982277862335141,0.4552528667939874,0.08097974764087429,0.29820155821161376,-0.26953518895775497,-0.05228967549890268,-0.10222431747269334,-0.6045687843508105,-0.35014090717946217,0.25837122651156086,-0.0051112118211437685,-0.32861468781791037,0.3444748702613145,0.03931940760387998,-0.10218691432041616,0.6237115962924809,0.1837034393864381,0.06826491592540895,0.4416007936361082,-0.641121729362108,0.6497609837556814,-0.1561290853408941,-0.15766756718588237,0.005391716144237918,-0.023339422417361866],[0.018700655373834307,-0.2173134505266749,0.03958643987406718,-0.0578163566985157,0.17199234306780065,0.36970058121485994,-0.5995908989250254,0.22603924282873766,-0.5402717049987082,-0.15276461762024784,-0.3409344605995269,-0.3939756679355121,0.09793281933212139,-0.004168981357933477,0.4977765642600982,0.15744696125521124,-0.18489144731205215,0.3538407031564808,-0.08702121767619207,0.43971361793170805,0.3766589254438997,0.45835449986793975,0.1863147072648193,0.4302006848607465,0.05683959785452153,-0.17244192941187286,0.49132379712039614,0.48389278000340985,-0.010656899118313135,-0.04174185248994566,0.31922425868869164,0.35722549024539313],[0.3406835920766558,-0.06743543308260447,0.5227367570056216,-0.12974800801964365,-0.4839882233405862,-0.3571363529315274,0.15406702338294867,0.11469176605702486,-0.6410133076104855,0.5306025538380227,0.09786948610432726,-0.13894939653433913,0.2924938750283007,0.4623151574656967,-0.47418390994573034,0.35404702803432486,-0.2132448788021168,0.2460078753500501,0.41493449417167894,0.05080850897200434,0.0344389450722582,0.4436434019401091,0.22349081676947014,-0.5130695281040216,-0.4092011266797908,-0.26744308667506156,-0.030704489444761673,-0.10856317874771376,-0.06994273261772199,-0.03775129025429058,-0.08667788228383322,-0.1692221073897645],[-0.3596940140919732,0.35437432244395634,-0.18771989905673847,0.3768833866850914,-0.04122503959996893,0.23068583230676443,0.11222638904712157,-0.17268142356552607,-0.1523958735779769,-0.13259832583904352,-0.16362257241406475,-0.11248281656151204,-0.5354376740071356,-0.29219462606963487,-0.016512128191676925,0.0780031090992177,0.21086050980729687,-0.61772203086048,0.28257381889118593,-0.0002588401601142376,0.04705410872463822,0.11170082177636265,-0.43772771799712973,-0.04089456236820288,0.03213864605197281,0.31551225151536155,0.23296837301806989,0.45430979350684103,0.39656341256192285,0.2995992540800133,-0.14492856999313808,-0.1870705891285812],[-0.08830672414334582,0.3937381018068211,-0.581117211962194,-0.020357794883765545,0.4882792878245402,0.6022687140108411,-0.2182797789136693,-0.2710759212791988,-0.5226146754003855,0.07711301559532102,-0.20542470106905175,-0.1323490541479207,0.12085271803252681,0.5201471513610973,0.11503935058992024,-0.07001159439019844,0.5103876170653592,0.1322615924568788,-0.25660173454597457,-0.4192690765424469,0.37938931724340696,-0.24143767613136474,0.020636378407528355,0.47050068138455914,0.10617740669486742,0.1434652304061893,-0.2690289126150277,0.7545521461391822,0.2748992549530538,-0.09863870463101643,-0.03403452286280306,0.24976725222216184],[-0.490673005989067,0.1760662358119625,-0.5019589176605137,0.2492768849971571,0.023990313971619645,-0.5123931444568574,0.20445166745039878,-0.11764011609341013,-0.17377116569948758,-0.23012523023588033,0.1904658036665018,0.42382095007708576,0.4865381584518149,-0.5090137583199814,0.3487207381537634,-0.37454651952117834,-0.0011422384935498853,-0.27185310055830925,-0.1547872620957178,-0.05775998538337737,0.28544920800990514,0.03568019686668772,-0.09670750898627034,0.5672527504958178,0.08793513458631744,0.20806348875410735,-0.44200527981275883,0.11005178295100526,-0.2417189842596785,-0.13696869180371718,0.12070202441703977,0.23786608995743108],[0.2726451506169607,-0.26198487572141244,-0.2670482406256678,0.3283040675635385,-0.13346566316200614,0.1824811789467129,-0.4530142526289008,-0.3395679205663341,0.2819190361471938,0.045292681639730215,0.6745542657896693,-0.11932661957218005,-0.3918367354449736,-0.11579878834241675,-0.25835019438642376,-0.5846717335427298,0.15405369386918083,-0.6350015875794248,-0.25364565831966734,-0.09278904245689365,0.25729226918161086,-0.03369044793676344,0.1578672229306003,0.7417445888426443,0.6090219218426884,-0.5809281483333572,-0.10897394653945619,0.34496136593164717,0.3196967100205188,-0.38229349409248436,0.14766207423079195,0.06803998156578628],[-0.25184702363896116,-0.44534167242629574,-0.1956173581895012,0.07269288232807691,0.12734828375455232,-0.08482860914049206,0.32773286569978954,0.2674151501865343,-0.09601485144453292,0.5545750180657614,-0.07774203868224594,0.18455611001242977,-0.20869474160006507,0.24577459754276432,0.11104793869542731,-0.27732317692598335,0.2220011169212719,-0.48433360824441474,-0.23265809485258826,0.047042565164901795,-0.15485258639922428,-0.21517316992449276,0.7619973514754972,-0.17322025680282538,0.036824549729666395,-0.4621592006329074,0.2084541597221795,0.12180600931636709,-0.3998977923475028,-0.6534507461901408,-0.3840722698249336,-0.18266219246784893],[0.5114372653915047,-0.6065565919845933,-0.32896557473014365,0.20195046078748494,0.1166802501730142,-0.16746992833589108,-0.48657399509336763,-0.3055334398476756,0.06857257881764889,0.15189517110134187,-0.23737427035422737,0.151428087084771,-0.12707397890550065,-0.34253418335268415,-0.30390328048405896,0.16195925777182407,-0.18255162798389934,-0.29364148786696975,-0.36770582484105346,0.09939153106633003,-0.14020363277287884,0.13243096367713314,-0.1425103265568399,0.17705860897238568,0.2631480285868008,-0.02128027821955264,-0.309986084581219,-0.7982514400279299,0.3683069562916307,0.42167370656342285,-0.04424379983179805,0.06283320789828173],[0.4743097360806093,0.4366106231913638,-0.13295925296011035,-0.4004163165725316,0.2870655574514376,-0.11048282569918189,-0.10669576440383938,-0.02832425513197151,-0.5478435982264613,-0.06035480367510099,0.7654052699076411,0.19705550610667283,0.23553604742379863,-0.21491134171407317,-0.7865598998720547,-0.37248055207765945,-0.2674848019437297,-0.3102125949176988,-0.2192460753359195,-0.3180840417075964,0.4050899165066443,0.23597462032864086,-0.35291376795903473,0.34037425274894884,-0.4670175329862107,0.015733727978778755,0.3631450206290546,-0.17173715668813366,0.39352182852499196,0.5798807460032745,-0.0033306380310818007,0.43559712965214153],[-0.025545746067103553,-0.24551426576053198,0.5482522651977789,-0.3518525134539887,-0.3851124540479003,0.2503358920655091,0.30008061509198014,-0.1634986545044247,0.3302886234099455,0.4285042047606165,-0.469258129347652,0.4782971939195859,-0.28091372883156296,-0.36123478730933634,0.15359961544391987,-0.14287566874413837,-0.11710452908423874,-0.25189943867550835,-0.3413404099851929,0.015267757272143911,-0.2992216963658245,0.1466809551859755,0.40148551001659005,0.12024098098258817,-0.03069904130429163,0.4968513077951764,-0.3287767395831224,-0.030942300761188868,0.08593546962260146,-0.025740964434139313,-0.019315481566451354,-0.1272078047975181],[-0.5172114576527288,-0.3374463664733333,-0.6033926155015112,-0.11193188930453579,0.005358964414132084,-0.5533723437734258,-0.2505720536575293,-0.6583044122121466,0.05113549986924176,0.1706329395188865,0.0612723247877624,0.3446530771260429,-0.6486449780791581,0.051448820093323966,0.03564339922578749,0.10753353503968027,-0.278359463152292,0.30142912003374267,0.13362094752106707,-0.4156003341668719,-0.6827576498163209,0.3651812199619598,0.04738574673665358,-0.3072128327456424,-0.1302443564385164,-0.07294856933913063,-0.31138428219016684,-0.28755850653100556,0.18856547181297584,0.6027281296147861,0.07142537388066555,-0.47370632167477766],[-0.20868387575776753,0.3813893069199664,0.1684300541202104,0.2500906152126853,0.11331090762213658,0.3643080032340219,0.2805228539795116,0.4468555729219353,0.0037318562751628703,0.3778790207521904,-0.18017343348315323,0.5936489400202474,-0.2242900184953469,0.14801909637371446,-0.3280188166595279,0.16216412293019478,0.09566081047491637,0.2438521125493253,0.200299726677845,0.0991492349611321,0.10685842894081421,0.23184215606886188,0.02530890793260282,-0.2759797088415974,-0.2358010109678893,-0.20802317332255327,0.13187655636217185,0.7037179702332843,0.3746258181562586,0.4561494194009707,-0.05170852369561996,0.4461843884880866],[0.1991535327873606,-0.34854802852176014,0.2156002621865718,-0.22464289644906077,-0.12431511624483305,-0.04477869733868034,-0.5953698874799638,0.274430406698132,0.3807734888387315,-0.02240749237966566,-0.030150238918468242,0.21779058536890894,0.4713479310740769,0.13061953420999872,0.4454622981103462,0.2940671667296156,0.2717586391142759,0.367882029175461,-0.00895515918064635,0.07240400146848922,0.3645896467809111,-0.3708099595165524,0.2509741134869534,0.10163273776066184,-0.024350904893054887,0.32975326942161554,0.3320376918383645,0.10064382022781468,0.4096890700265622,0.2614963149774923,-0.600992951475001,0.13748470162752513],[0.6204333314295007,-0.4445702328875139,0.3230579925247068,-0.49001289258720787,-0.05880177243844087,0.5671324848423815,0.4048289253294221,-0.1765901033803311,0.2702755026141294,0.3945067162088387,-0.19908076804579378,-0.11594360991480643,0.44819854932414616,0.38615157729699695,0.08172024892430885,0.35135546741253243,-0.04548663308808454,-0.3358119142717002,-0.11725072462560981,-0.2634236813973837,-0.17548392416335123,-0.3824330719641965,0.6662504905316633,0.10070169881501045,-0.14744681790533898,0.538316797301283,0.010523950198320309,-0.4724702729183838,0.4508035925975904,-0.691221485456936,0.026314948225921286,-0.014873921215000085],[-0.46929702574365695,-0.14429806644067866,-0.04307983175505181,-0.3419727034337381,0.145891334331409,0.4962167430739823,0.02880037398392088,-0.2067735091443812,0.10746922211158316,-0.11686237858041244,0.1860040944533563,0.6104330083612702,0.2143992731143941,0.0924698342730686,-0.5516874509341767,0.2588282125353809,0.08165851943935232,0.2101762866257315,0.06662053196558276,-0.3988545151754548,0.6022405779749906,-0.1116267716292092,-0.5881973417507249,-0.44982574649162477,0.06739313676526926,-0.15473427318966446,0.03640459294844692,0.2716579756317998,-0.6410215308119339,-0.2310732528909587,-0.4885804792717696,-0.40864268818711097],[-0.07534724523717196,-0.21915842209785424,-0.010796991258343908,0.10589850561587799,-0.06253746196931287,-0.4352990812049048,0.4501555755825013,-0.31634258174146723,0.28479144832553915,-0.21277457035718733,-0.48248338840299987,-0.08142278548463877,-0.057241789375709146,0.36838766044434434,-0.535173649399693,0.001994133106623164,0.022666727610621606,-0.10937374371878095,0.05124195874864135,0.5005954373432626,0.4419218002175611,-0.22338711155807767,-0.5105546941354916,-0.004430158126939254,0.5557644257815575,-0.2280767073802379,-0.527126922904525,-0.051468896010720355,-0.16044762703024362,0.5886967347328887,-0.07851710454359229,-0.16288963067589957],[-0.05995877666408689,0.18033262691406482,-0.2897219855156612,-0.42373517185604626,0.14468894002324495,0.2744368235579929,0.1470829841418697,0.5550202080539373,-0.5171575848110987,-0.2847881942800179,-0.46064990777185477,-0.11879962362862827,0.44508251304143565,0.24553923537874767,0.2142522304551842,0.5034006099514459,0.4155702443468765,-0.2011668426511477,-0.13667837951297615,-0.0892317655901872,0.09381467220755418,-0.7118802343102155,0.6592608993363479,-0.11178120604413266,-0.0396264034560333,0.3413988336080762,-0.16505155065200472,-0.6690107630411758,-0.06484347445499888,-0.27674291501197446,0.13771718129741606,-0.0974680719402955],[-0.14654296575400472,0.02420377183090877,0.24647028449453331,0.4772470068450153,-0.028314065382428477,-0.17961136521211774,0.6720049971559099,0.0041646308011411,0.48120342374421265,-0.1776228296590982,-0.40691181194974396,0.1792048691323018,0.07767369095681134,0.08849063882913699,-0.49386905555422994,-0.015907850318145234,-0.543188653965941,0.1483539032088319,-0.1558959477180757,-0.2850751811722775,-0.1857605356132438,-0.3534053844597368,-0.014563865251538077,-0.3650341246686553,-0.1461490859112129,-0.28287968818243425,-0.15448242389411548,0.09683008818102579,-0.46107487301252437,-0.11940856716630122,0.14681349488271256,-0.14029670000108763],[-0.3480843338682051,-0.5910275347157583,-0.496579812850362,0.47514801551356145,0.3818717747465231,0.24040542093492862,-0.017859140352584513,-0.6923209879333834,-0.3648523002782175,0.09839840473612482,-0.573696491460098,-0.1195217647060558,-0.7962646450826522,0.019324377651263602,-0.10432171272983193,-0.6428813093641952,-0.13621322229546673,0.07091317278459625,0.2873833908230379,0.0836750341675235,-0.30395570021391816,0.2068809601436583,-0.021722128372289998,-0.19059319876894265,-0.15252553340434533,0.10907315766538939,-0.42188194406475465,-0.05790318763214304,0.051003108918535586,0.4213479390413316,0.20166493381257206,0.46127667310746384],[-0.40374072775691694,-0.05950721446409757,-0.610402030289505,-0.34488802306449057,0.44534942285603324,0.4916606110817928,-0.04170283716902953,0.27264867076207755,0.4712703549539036,0.25447231374395746,-0.5366702197732913,-0.0033874972252714852,-0.6691380798325718,-0.22451548974668278,-0.4692878677867307,-0.007287099049677392,-0.012659582719209028,-0.006350800140689478,0.0642510363580594,-0.26406817706621455,-0.2526146785437464,0.7831779531491331,0.0796297319788607,-0.26459979776258385,-0.37032289321326317,-0.30945373947749855,-0.3186485778729251,-0.06388627474283759,-0.08626620199757457,0.5420483125901397,0.38410719021005346,-0.5644998246565478],[-0.26040741929241185,-0.12452282407549882,-0.08919742666911357,0.44501795393466,-0.2693008766707523,-0.35682180434594746,0.059364970279538465,0.08717785572901471,-0.34614914612297965,0.04379219081676326,-0.27820244091424723,-0.3349875918137102,-0.3093353634412662,-0.0836343913737346,-0.28532036754032397,0.22071117615921654,0.2607427997133762,0.2780056863029515,0.22098736514206027,-0.1691079227053669,0.037920638593773204,-0.6166356978222679,0.0070617680999871535,-0.25459185950965013,-0.20426486076320893,-0.25556797241853757,-0.2551679234829405,0.15751743720133643,0.18909356224015872,-0.3311384692222694,0.20560525921984557,0.309332263667369],[-0.08577132605811355,-0.10236708481460356,-0.16742134426351085,-0.38342813668086745,-0.719317345224595,0.5049677988542008,0.16807589735323503,0.5129465403614424,0.38025740073238035,-0.027413097944879283,0.3302911693970636,0.5767250342443382,0.5101917181745621,-0.6116407940448274,-0.041271884536199344,-0.23974123662877572,0.5438649939134235,-0.019228206626296318,-0.252342712801961,0.651417082617912,0.42687039589019393,-0.22722996760292666,0.0972442634449322,0.28890457443078177,-0.39239308806837503,-0.293815869171151,-0.1277665839093789,-0.5311219584087035,0.10226659520554049,-0.12782775562099857,-0.22586115692869752,0.18356704135728252],[0.5558504455955733,0.6407750019356668,0.40174610044283277,0.0901706227104464,-0.09644862875673721,-0.5351890576298839,-0.31600480448681384,0.010666575320893767,0.037674582460465844,0.003460943638256664,-0.02983410193506275,0.25477372566465517,-0.16118314533061273,0.5090882872762604,0.5094078575829161,-0.028392711535193738,-0.2751322097138351,0.43263405373992936,-0.3892800456763186,-0.04676491060258442,0.5865479530237406,0.10559897956574532,0.19560576441431649,0.3031847397389654,-0.5701760041427416,-0.06804454320772318,-0.31676663975156216,0.6408325474078618,0.019962205184747006,0.3326831485238384,-0.03083580477182002,-0.32316992455555216],[-0.5762677714698495,0.6703452348310651,-0.35451686188418774,-0.00856045886100535,-0.5316693197221349,0.20457318717655992,0.3850975741109096,0.3035305322249127,0.6024869188578539,-0.5735984204670279,0.25823497721179456,0.05416894383428472,-0.3215850204420012,-0.12686003437834736,0.1184190885636639,-0.00045997369765299334,-0.29754122990477205,0.5254346109940522,-0.02603587969531862,0.24736167161107928,0.09164022499161095,-0.5295728243865009,0.6195825174849674,0.05372084451916492,-0.3437519534311071,-0.4384653748835019,0.4729844033684911,-0.2591014145728448,0.3232709101863055,-0.3120519322076093,0.3113049686638345,0.044534707911823346],[-0.4242247122920919,0.1834258209525712,0.5422324883447094,0.38169979599809867,-0.15427616340226022,-0.20285235601325402,-0.697683585570154,-0.6233114367141501,-0.2055340714061229,-0.12049907817668698,-0.13432840782283811,-0.28558830958430254,-0.3487352819703702,0.09246799460831012,-0.20975976457457318,0.11377295281229072,-0.04103004167556601,-0.2693927090333871,0.17637733735684358,0.13701494354725963,-0.29120137804465496,0.08250362440817896,0.17151328158922807,-0.0072137632864178736,0.8198437692467748,-0.1182146912891453,0.5114185568067171,-0.04523649965268628,-0.12983335887278125,-0.02101498275046554,-0.5716743594954934,0.16464406854740543],[-0.5010173622269309,-0.0186871605990383,0.129362156216903,-0.22604859758074047,-0.48762047041413337,-0.6067214859514884,-0.2321969811321739,0.1666077925325523,0.35398174006076766,0.037726019660665355,-0.31974676974180527,-0.25282334846296867,0.06935233133100391,0.25725352005934154,-0.3262427006886133,-0.01901188123226516,-0.27035834639935186,0.4650777009924149,0.21701937886760558,-0.24811317413440592,-0.5241580199799436,0.31193863418919965,0.25199082508902415,-0.22410242892495486,0.10136565664858596,0.7511246436040676,0.15037262722583034,-0.33826019780580907,0.09166078664475197,0.3297730019302439,-0.11686653616715889,0.3467783455733975],[0.5139139603034967,0.31857811038497535,-0.3977445473609371,0.18097932111344825,0.33422818089821493,-0.4584740919880738,-0.5339248485811494,0.0311394905666581,0.37032457779860056,0.8364009198312875,-0.5825343387471215,0.517079027100199,-0.49774086375274873,0.09708865918529053,0.4608293023506066,-0.31087197723815246,0.11167581767294212,0.10123287169870528,0.3620743908146253,0.481884780412978,-0.12569966517214093,-0.08909853257475822,-0.1071807069058552,-0.12017028222526588,0.6530929664688732,-0.2821843554259784,-0.0222281076846923,-0.3250805285845138,-0.2739006312288589,0.05549399314417092,0.2868544932807841,-0.15824203725524738],[-0.028601215024629645,0.17154649787219317,-0.07343656614920588,-0.06820466904703759,0.4481833998025284,0.03811414545442954,-0.3860876325864495,0.3367342635053078,0.43603941374128485,0.287104136866532,-0.7684599890271417,-0.7208535413269219,-0.43578349946311934,0.17251473450934027,-0.4532022765998648,-0.15626438699589895,-0.5280646057415164,-0.07671033998648458,0.30194318968361744,0.029352637381159008,0.15077020854422254,0.44374315810168485,-0.02403433347982975,0.5907602973402035,-0.24503303582731428,-0.24104403444815942,-0.11442126921591611,-0.15955450543417649,0.363201711352234,0.07842570357901701,0.28531662201711877,-0.02595385406061368],[-0.35712326228921804,-0.10291896833864489,0.06259726676221944,0.7257916935047013,0.07926934813183095,0.08680034347018006,-0.22092816348615707,0.2948751520124874,-0.560646890211166,-0.363014148467408,0.36514682062720694,0.039192706728167534,-0.34666615678017054,-0.18577711408474684,0.3110964815212136,-0.2744920665019799,0.04336744603266536,-0.06998583949105155,-0.5522283619778655,0.16433887120645618,-0.25928544502697937,-0.23450014180774154,-0.26471024043913105,0.628445078116043,-0.30689526395242106,-0.029124367579711485,0.2969634735511274,0.0074690214149053386,0.2982570698078719,0.2541640024175911,0.30986426352118174,0.25167827899487305],[0.31824467103990706,-0.4210240623228283,0.11878905389581768,-0.43433459552023296,0.41736970859641076,0.2161729742160634,0.022784436729222063,0.1252708793972127,0.7583610221644058,0.1707383316739503,-0.42751928631557967,-0.018121009755754938,0.2320668633864631,-0.1581831016153677,-0.27051665831166793,0.2280461434906466,-0.09765252061454638,0.036195637621903254,-0.28730153077921405,-0.17328107323683412,0.47635051009428553,0.09472595515503007,0.05670205995796962,-0.48596205342900867,-0.4955390760167691,0.506520776257567,-0.37066477847251045,0.6680326849408921,0.1218518820251452,-0.5450229718244364,0.09211113222733924,-0.4184150754535748],[0.1462501984367669,-0.04627876101304207,0.6684683897576842,-0.2504303981205149,-0.6450377071688378,0.32639418144270554,0.7564016221608503,0.02649571070316159,0.6496763056679309,0.13427219544445845,-0.3497391184189882,0.15702288404960849,0.1152201800029227,0.05896905631647509,0.09196026841095067,0.2966902497726646,-0.04276867160034892,0.2908737028970868,0.038562637186082216,-0.093659833858042,0.39045034605456286,0.13919822846461277,-0.024586827757946204,0.37608778454713127,-0.12862770774986032,0.5538800390137751,-0.376259368618552,-0.21989820282437555,-0.3557602375087746,-0.4678539554393818,0.09449017669916782,-0.6405212301526217],[0.5629745780903788,0.3500033987091933,0.10053697093902658,0.0905844713243471,0.10125907438061477,0.14714028872394114,0.030989932608105897,-0.15378150544118613,0.159062095761194,0.34475217630719013,-0.1911308263049143,-0.08032175322010494,0.33879041371715163,0.3028984958220452,0.11366559619571404,0.4701092796638986,-0.7467566180564429,0.3983485105243228,0.19070751988457402,0.24168338663951572,-0.17606095421926116,0.3463707233608675,-0.33525682203350243,-0.609927913025476,-0.015009125309785043,0.18531837225815206,0.5084683434354422,0.11740431751738478,-0.19099296273528532,0.03774545964975062,0.16437663528996654,-0.042971727003334036],[0.47404117000092305,0.019857585936637,0.11244455236060957,-0.34130155329053136,0.3754575407470142,0.23327700905718252,-0.23866565505806348,0.3397528143431773,0.5400152112317885,0.45144199223646014,-0.18032342558530723,-0.2122214120265481,-0.04025118558692109,0.1832964537129047,0.07169862061124088,-0.6397977675451922,-0.1858860858807425,-0.21042644739890928,-0.29872776807475226,0.2959080854987354,-0.38955699851753367,0.054138658282826435,0.028144363131614614,0.04991882726248053,-0.36443926281243777,0.37817163178087954,-0.21211290682385409,-0.22299840116926362,-0.5782683624283211,0.17196440220633324,-0.1567347970674185,-0.005840356480004083],[-0.015319643412955553,-0.4125128530810076,-0.2252619770134271,0.5738421606819324,-0.10595410330228094,-0.6674707782402912,-0.6926522869044792,0.19420275841140144,0.0835998600145198,-0.34007232000600207,0.08076583741737486,-0.008622348068878873,-0.6982462958545813,-0.11786624000753687,-0.1409790172285153,0.06875390317715913,-0.0942535151206868,0.09445128989224635,-0.2148658890887032,0.280865681363075,-0.22443469776653835,0.6042199968034241,0.2601013463393349,-0.07796763040238142,0.23553282106017043,0.2816696692158698,-0.1068216378620318,-0.2865525157141573,0.11166958140146444,-0.3601690801083688,-0.4929556173780857,0.4476188407204621],[-0.11610967212644951,0.42138909112045414,0.21069237584943967,0.29903301079103317,0.030540833672635284,0.22615279204879835,0.5211848259469384,-0.5043694698846083,0.17958343771356833,-0.3354330969478949,-0.13447932943790347,0.4617918666738865,0.1784878388530603,-0.31640169735849066,-0.04512362122956981,0.2845652091595403,0.22628407341522283,0.09612952354895477,0.11010859150156482,-0.18947111289859908,0.2074360652592691,0.02049898168584563,0.48560291571384917,-0.2768091988564116,-0.43723603711934755,0.17282952338717583,-0.45339524943477066,-0.05820931556313025,-0.1713421752511749,0.0741477668606908,0.11100601947023148,0.4543838552565999],[0.35102395771049894,0.33146750539269443,-0.3190155041757643,0.06178361840602009,-0.1093796204306951,-0.16964683315477236,-0.21770111787202345,-0.11399247886842118,-0.6953307245779511,0.05294449634031162,-0.18513061264488873,0.18488025839744215,-0.5103161134368943,-0.6115839262137588,-0.03467663256522169,0.36110180517924245,0.46833059524676723,-0.24909292214206463,0.010167476139894438,0.043536729141920194,0.42666147569648316,0.03787708073330753,0.29375474239415333,0.31023440825282345,-0.001766609705640021,0.2267161732418932,-0.4404002431734436,-0.17585891821238886,0.43453075953468695,-0.6313842501456761,0.34624922061041696,0.3422876314863109],[-0.09471655160954702,0.2301869012115768,0.0036221332626747704,-0.3825176905947485,0.0020563937451029135,-0.318340078181133,-0.3200442077228679,0.07432316956538487,-0.24727735630980874,-0.06335321911253779,0.449248277608292,0.6637457262971165,0.1793017223351232,0.4526330235469353,0.4651921307074487,0.0831139740446527,0.6222794664524144,0.03444263433890493,-0.08781818641736391,0.05293423564356786,0.1569031811846608,0.18786062786493896,0.20619110963315257,0.017880032254797527,-0.39643671327738295,-0.3839666585713434,0.34190344274371043,0.1875918326650452,-0.43999095755074935,0.07248016865625517,-0.3705676628647996,0.40785079733358565],[0.011134222429843632,0.04723603143070737,0.3504761963902757,-0.07348488873288117,0.18072581073903607,0.16462015542411113,-0.09347172899753944,0.270981128474139,0.4753545053454367,0.26988381467395506,0.25296050615620974,-0.19277809161338427,-0.3872830638719069,-0.08394501740857199,0.12564902576481107,-0.3474555616939009,-0.01839375224130757,-0.09653918934253891,0.05487079474467438,0.2970357627169036,-0.1858542065537993,0.32978998324442926,-0.21100146724981983,-0.4739055103078562,-0.3322416229569274,0.3186751355075922,0.36827668199310937,-0.2150224250843774,0.678489866764866,-0.3154518742720644,-0.10269364179049345,-0.08841870080294101],[-0.2698800954677335,-0.3035335997338746,-0.04504829274045019,0.44289106379053567,0.39354531386987873,-0.28746435649749713,-0.19953744320304223,0.16266086473061842,0.19592070454254962,-0.3592369825643844,0.008860369796204748,0.44719847695245074,-0.06602425772795067,0.05244977587593763,0.09604625770176056,0.4908522113050999,-0.04113554837158817,0.24588894695324826,0.5549617114777907,0.18102432532991475,-0.11277020819354266,-0.16230335266916496,0.3371196990569698,0.18124748422828396,0.13270320854799594,-0.030279588544945946,0.5869078170586377,-0.4524953562614773,-0.22292126028232367,0.11508854253239686,-0.37741775859458804,-0.18952915392219943],[0.19087524621562346,-0.04202611091420838,0.07306451738240488,-0.40372216399650135,-0.4551794186564161,-0.313777632450963,0.46227386208900223,0.4336015164236933,0.34535311991938805,0.1297696596076166,0.20011458534772347,0.022197144359647925,-0.2728630718834454,-0.2684126206179032,-0.2507898861966663,0.5812605385026712,0.2244762184540689,0.31872691067915837,-0.12865270924689493,0.4003163655499254,0.11385679708920793,-0.5846406488063547,0.3032570895709732,0.17819140945046513,0.45189328844890214,-0.17291709253592358,0.48092574009798317,-0.5489240957456296,-0.24551790814363184,-0.26286268753885933,-0.09129906304107788,-0.2305969543629741],[-0.20813627716145988,-0.3265153245783614,-0.26433017673455594,0.365051905552444,-0.3380736646999811,0.07023544187495456,-0.002867386750973644,0.3820483361986473,-0.27023594979701077,0.337984462611761,0.2953546808062828,0.09366390529556955,0.30664466875269003,-0.1773458415489011,-0.4394378427726479,0.0704344029010825,0.4980951560477318,0.14435341010713854,0.11869095280539821,0.1379110201268925,-0.14344499549154333,0.2716023664568952,0.5737213041191231,-0.5210180087208149,0.5064264325985819,-0.03380625857040831,0.05596898291202279,0.36215948290453426,-0.17831221627270322,0.16888500093740144,-0.249350191718859,0.23666669775026317],[-0.0028021546089407046,-0.5496633089921318,0.32763482467103955,-0.6365054830979491,-0.21268907334892606,-0.2247488228096764,0.40314506610217127,-0.16118225095043248,-0.27176939090898766,0.4562483842325499,0.5242918242896171,0.3179632631417139,0.14817248733251498,-0.08363307383847346,0.12192982869162838,-0.059734633049438976,-0.24660558536784877,0.622615024977567,-0.4667963996757025,-0.46465877013845985,-0.6393893354624893,0.22525924949687448,-0.632421473557484,-0.05374749034415105,0.4027938637305891,0.2542174580188641,-0.1686683980023986,-0.13011485039664294,0.24145429004717428,0.4143136114543555,0.25577957635815324,0.5555320906106439],[-0.6358182614847413,-0.2446892854178742,0.30836122362988005,0.739224270414693,0.2731022431303788,-0.3224939042219237,0.48396895255662425,0.7182078304509114,0.35695355104093585,0.18689487383684245,-0.2309363208908774,-0.22591746562698045,0.21091120339332423,-0.7474890022135415,0.4266815977897468,-0.25586112613385525,-0.1860818607102991,0.024898962662436075,0.4881652358888615,-0.33038457452071535,-0.0756214157520941,-0.3925017952047174,-0.6148474992159736,-0.000736179899233913,0.3564465453190454,-0.5299937705598989,-0.12275251137015358,0.08590817624057878,-0.3593961432227002,-0.47454696256347,-0.2300261421178877,0.32659578227988784],[-0.004878354252663364,-0.31188506801352894,0.15715585871460042,-0.02949845474381585,-0.42451916061023826,-0.09386355736095166,0.353873337880368,0.5568445103820997,0.1337211211526661,-0.006277851404169477,-0.14520335115201166,0.1567606659615297,-0.08405584375341268,0.5381879067839422,0.5259436043100039,0.39385898216039084,0.3548764588649921,-0.21812650457387428,0.32692127900750084,0.336709675189072,-0.3597758873266239,-0.485028461299464,-0.1203470091197692,0.09980924611372766,0.2913208060583701,0.3313494493229545,0.25338831952051233,-0.19021067876445963,0.1418441993641223,0.26041264568628486,0.17318286522182652,0.22308241054099398],[0.2601019960803973,0.17079543421543875,-0.09431398634896593,0.1870883714936026,0.2681142602851432,0.24670849895266964,-0.08630585863669504,-0.5873565658185304,0.09306444621865151,-0.24666623298318324,-0.2103965589698774,-0.21771158728279993,-0.17123929390525905,0.022786259174225443,-0.2526979391167352,0.09084154914341305,-0.23909786796298638,0.20146199271817467,0.2673696979414999,0.35898961118424255,0.3935829236287611,-0.2958815856800093,-0.26944553713560093,-0.16686049757448418,0.5923135979579335,-0.36635239711772977,0.2959719285442529,-0.6509707003868062,-0.6102965955854678,-0.16844579037129415,-0.022547857914501868,0.29463877485945744],[-0.1866488988840258,-0.639185259277299,-0.09243905329440216,-0.04776817386653298,-0.4707507431350366,0.16703579900003573,0.37500850904876226,0.4568011857785962,-0.0766839396199891,-0.26205787769486016,-0.01918044875084246,0.3171562898028957,-0.3294081857966157,0.6120546950374228,-0.36934023075125333,-0.17208435817843698,0.022682693211632854,-0.34648571172496023,0.44092534041593745,-0.010895587198776202,-0.18210182832118477,-0.21269443143747813,-0.18853574678518797,-0.7278313021912821,-0.17399459665413874,-0.3744531860524284,0.30918270243154355,0.5295061875646749,-0.24606290092864064,-0.4179779290591443,-0.6736026315957815,-0.2797768270666148],[0.1523681111937072,-0.15751565137379814,-0.549274049236196,0.4458887402105902,0.08825756792937883,-0.41368696748004075,0.11809486347213984,0.00463617566489094,-0.3548233240204227,-0.17755239382184046,-0.5357225563972796,-0.24751203725290188,-0.25423421111164257,0.5846665103926456,-0.7162441998208884,-0.1712031595596596,0.5669123035010531,0.47404754519979336,0.4735557071056822,-0.32960065414253303,-0.38145214126261495,0.14595455167649551,-0.371981257378933,-0.060193655065984675,0.5041825830383404,-0.10657400945794804,-0.09739435208666636,-0.1915226589450233,-0.021054262781072586,0.10908755777375895,-0.24921517712779517,-0.2220123224366754],[0.0908487538727406,-0.33925949805764755,-0.1516807484289291,-0.2837226010810936,-0.5039245115824966,0.08181436090131944,0.106472636363462,0.5461600523975054,0.2475336396627894,-0.14467824439263272,0.02477454105873178,-0.3247274691942301,0.6074732097364656,-0.3794690119094105,-0.3004596197994191,-0.7345787480569016,0.4504568089268157,0.2831002031464198,-0.14234564398859845,0.37688200293502405,-0.19008690280904394,0.08416132846603447,0.28866947800598974,-0.40802304210515683,-0.6148120149433569,-0.12021187091504817,0.026943099889074396,-0.4610487990674008,-0.04636678117674464,0.31339918577095494,-0.6190704384664902,0.020421823852532828],[-0.14287687988904985,0.0564140541661563,0.29178482695077707,0.25905451513051386,-0.23803319285236657,-0.4314114023670039,-0.09416104194695049,0.2450159283931005,0.48011457314291217,0.5637025589250244,0.5342485592534656,0.03160315663569879,0.5310139616168249,-0.6180639553307113,0.5232212322308173,-0.6101643405023863,0.2397142812194205,0.1218720710912779,0.4204393401679658,0.2124337722106752,0.2859534957545078,0.6700445413790115,-0.03403199701249049,0.3043001942530642,0.12851530687239032,0.5658421745022157,0.49983915666683676,0.1324274053066472,0.02334277908119542,-0.28409650671935827,0.24890145178737155,-0.2979580436884035],[0.38478210777434163,0.0550280594117738,0.48254790006719533,0.037699754707750915,-0.43255646128086045,0.11651700815688465,0.16891647557325418,0.011738012166278566,-0.10895725735268771,-0.12565989814892498,-0.1785647498368933,-0.2418792630504685,0.17333376518068122,0.06156668804262763,-0.4855765802092026,-0.19698033126753065,0.09444028987150943,0.43044465284759625,0.3715508567477195,-0.47815863896033345,0.12948897666111603,-0.7324085538711971,0.10736316310128871,-0.2415060997818681,-0.25258285859578816,-0.06373613816149037,0.39573200001350406,0.25747842470712484,0.2587013709095115,0.2726944840696882,0.5426869217945809,-0.19688377523848494],[-0.30144267554024334,0.20879889509463867,-0.7850244674815257,-0.48001833446346076,0.046280467840246864,-0.18084091406639669,0.6950745226688965,0.39657861835401076,-0.06004238305380172,-0.20257907756536575,0.27795315016952,-0.28657420920396215,0.33997863153960806,0.006916725021945069,-0.2147002657462772,0.2938812004757717,-0.3977365542325937,0.5293966332474892,0.15601989138347194,0.259956754723751,0.056128047258886093,0.12314360213422171,0.26495142970234997,0.2684596309187741,0.25097754958599783,-0.7541165497718836,-0.06040383514852288,-0.15503158478340384,0.06654988887289459,-0.0930462603758283,-0.02511413893849579,-0.10133607961778823],[-0.21994028114620007,0.017798892552513768,-0.4329135554959815,0.22680794098180834,-0.34484151253071604,-0.263298671676708,0.04001715258917393,0.06992511872358609,-0.2718424025858535,0.5666599783418532,-0.18414088659777728,-0.18480695431426986,0.08247624745913673,0.12968434304414767,0.06080305983325174,-0.5905459626451237,-0.11126461740343463,-0.7277721864273017,-0.11592538958819087,-0.013138271021304437,0.06751434043110505,-0.5838700753534399,-0.4195664596580648,0.4952845895294324,0.2099497442585176,-0.0543034031500258,0.03360949633937771,-0.380097853261846,0.08920872112148687,-0.03831455479015864,0.2680570537830911,-0.518131577147176],[0.11813202964890146,0.46348070983083095,0.1803299020674214,0.20030917053268793,0.2044277325540529,0.017524056807640465,-0.3535346450498031,-0.0025160463521678167,0.07723689600605488,-0.3813985104928588,0.3281511040514973,0.1253110055029067,-0.04249294312971885,0.04837334014281339,0.03924221403005168,0.13872426726753984,-0.07462608386722869,0.16489118257624935,0.053270842473771174,0.22987031993641838,0.3892109666330378,-0.7990827095572125,0.20509524682415942,0.456158856178536,0.22032090982158936,0.025599005611008863,0.15244862715260438,-0.6676712544107694,-0.384746815517223,-0.15091087523351931,0.05960748362627816,-0.6331812170572231],[-0.3782440901492985,-0.6323586019494958,0.07854336973827475,0.16907103528011602,-0.2680603969444443,-0.44503799019523577,-0.3262575655261566,-0.06568909075398166,-0.1633843757137261,0.3534814358692273,0.11863071252989654,-0.3886952727855602,-0.06659848945349472,0.2435573652474637,-0.0034880109456815744,-0.20427470523953106,-0.21668284248623704,0.2615328658964974,-0.059256239328609794,0.7356509855213706,0.11174920047334824,0.15583925034874002,-0.10519442086828423,-0.1891040181565109,-0.3752787704682855,-0.6529808488436379,0.48866204331808344,-0.265064284698344,-0.6647860620121069,-0.4261931175124053,-0.6687120102325652,0.10867027373474214],[0.33828792833127436,-0.32638677456466225,-0.6888402875853508,0.27261819621183786,0.6990874740144395,-0.8236681660421271,-0.05018262616114966,0.7502993462651183,0.40224862531142813,-0.15851653009016947,-0.591890675795515,-0.17357328070673306,-0.3065825367119235,0.04091694447963399,0.3415377063561451,-0.6488161779656182,0.3717587243105156,-0.4293777723314648,-0.6592263632042258,-0.1095746515788435,-0.4809490516702444,-0.4640085126120532,0.11144755752722768,0.37612639814320337,-0.4232867088550012,0.09194679401411321,0.41420824972468695,0.36676959937356035,0.18016140444352785,0.3141453673508743,-0.8568972499565564,0.5031152991488561]]},{"inputs":[0.6705681841760327,0.26356039379340607,-0.8837337449668052,0.25322078225834016,0.8340019341903095,-0.8719744123885457,0.8162482974253102,0.6932171032996363,0.10114021472443466,0.9229482396673293,-0.0038387924425749074,0.6507294039430104,0.7073460854902219,-0.24501007642141304,0.1036649363483336,-0.9547069002563698,-0.9614209938421552,0.9860229959184412,-0.6410828662336295,-0.9952158335323004,0.9986902956355546,0.6459433281577341,-0.7665437155915873,-0.7056359669202347,-0.31606684943236385,-0.7134151923600377,-0.7767427558199211,-0.7981191438524018,-0.8772921903432395,-0.899915649160792,0.4837397530475029,0.8068947294188318,-0.15026789686191672,-0.8052608332336346,-0.9296938533378744,-0.06635046969379589,-0.5999519477939547,0.6170410277251729,-0.17897110247634507,-0.5681327997704169,0.929053875169569,-0.3691006701785472,-0.9024598947501751,0.9071781388620656,-0.4976726412843611,0.7202680243439424,0.5978907542718624,0.5216467878257829,-0.7331105271160834,0.790058301733858,-0.2862938259539766,0.21825966020012022,0.7537733298208754,-0.029796619355993013,-0.6452819165589299,-0.9051794323573821,0.002699512528127087,0.8650451283011014,0.27920867545746847,-0.2618312192335147,-0.9902223614166599,-0.41641371412604417,-0.9749144977287442,-0.19004199216809847],"outputs":[0.9997463778548743,0.8900554593147351,0.9910978493824556,0.25234154516821306,-0.856398057629279,0.2855683451627698,0.30928926156614667,0.28355019336772413,0.9896149543414189,0.9892797752163315,0.9577836794271747,-0.8389506467771897,-0.07717927449163761,0.5956875066346808,0.03950324793210944,0.3870935494946527,-0.848909274037233,-0.9386288752299426,0.9475020101276448,-0.9934484170803675,0.9990240622241848,0.3037411741827798,-0.3479369186107537,0.35821291334479366,-0.9999549072042312,-0.7905680898980609,-0.8170359972506831,-0.8171639690267015,-0.23749227683285026,-0.018458787063886727,-0.902399138517231,0.31236319220427833,0.8450885940215189,0.4425533320108696,0.5463577959468128,0.8465300521998472,-0.2991805980040759,0.8842752954275305,0.9953417420714344,0.26164263710235397,-0.9788598078068091,-0.6823123734514603,0.6003881450923622,-0.051825303871406714,0.5411247470885356,-0.8675457954386359,-0.9331906877320296,-0.27447831117106963,-0.9392449398447138,-0.4163595250268844,0.5206055463689477,-0.7790544618608705,-0.813151115616484,0.5331515136362484,-0.9451704017963232,0.6681701622462052,-0.6635666166012851,-0.9876259890172177,-0.7181808439754395,-0.9050761439381003,-0.9664426469409713,-0.9991831700033391,0.9985012154117352,0.9998014295675502,-0.834484349922408,-0.6106982322363194,-0.9128915456682525,0.9994089423639589,0.3329972451650664,0.9906246943683039,0.5904034608838479,0.41993879551158436,0.9940667409716192,-0.9998408761677207,-0.9965230866046996,0.9256168981012287,0.8861557512341702,0.9406861554161537,-0.6685951743104624,-0.7252920182008817,-0.9995727844713509,0.9562458044132706,-0.9667530235140245,-0.96842191097811,0.9643235932319147,0.39378220166305034,-0.39880657902261274,-0.10935031859877185,-0.9972122668428953,0.08951159473880815,0.996983573951907,0.9697579478091807,0.9827351667145962,0.7559752550384156,-0.7929997927060779,0.9523699347591488,-0.8134035297990116,0.9997391084504194,-0.7208868573339813,-0.999451336167559,-0.9217413459794801,0.5648644022420591,-0.9140606949342175,0.7035988870661568,0.7955403409005815,-0.6524499396410316,-0.7924878127039663,0.9948810277461398,-0.8295332553948386,-0.3462684922857954,0.7580027548318283,0.07010634762544503,0.9756650833760494,-0.9844412523795206,0.6334744388234138,0.7970012843757599,-0.5686882097109185,0.06279818546915959,0.925270875476935,0.4234053069803877,0.06031582888024771,-0.9806312773891562,-0.9177452985227785,-0.7419245637197439,0.9558216022190286,0.9716568245022363,0.9881427636960026,-0.7555005788963763],"biases":[-0.32907248134242306,-0.16380823102137576,0.5311100262256856,0.053094064362331994,-0.667082214072839,-0.0028830673818900504,0.5534473474300199,-0.4624512697033276,-0.09504492418035226,0.40720924171170114,0.3752837641991775,0.15845881528199876,0.2262675824556527,-0.13237443786066097,0.1663399978263128,0.046103823742510514,-0.5240684932968367,0.19756329143093243,0.4038829255960197,-0.021521136010818398,0.45649475942018003,0.3676344983997135,-0.6433303513779327,-0.06493178728587973,-0.31542748133624066,-0.5198859808868899,0.3122066860516516,-0.2565631010005436,0.2919125394900597,-0.1595468501110583,-0.18854579305452734,-0.2166824721979051,-0.09850631714389635,0.042910817971457016,-0.6661177519964632,-0.4604055350579699,0.5665370114327827,-0.12812496251073902,-0.1192666131896124,-0.11367801476857653,-0.5193103539365005,-0.27846325434607144,0.41758195842490353,0.1529221158786358,0.1933657900127086,-0.12795365300429662,-0.020087349836483637,0.5455574820783469,0.04524741435055096,0.032869843360094075,-0.0615541974294328,0.1970711206876043,0.13943932008562843,-0.8111169779548316,0.19590533667257626,-0.24769482466316495,-0.29878599957694063,-0.2742480695673817,-0.40592524636311234,-0.3323429593063946,-0.007633909476313372,-0.11402481095818784,-0.39961943784788967,0.367979712109444,0.13709805394040234,-0.10457327422929452,0.27573533250063487,0.383071013486871,0.41278422870053916,0.07818060626364864,0.3092519412976925,-0.2726969531638236,0.3421542980953518,-0.125546975513665,0.16490695175422432,-0.23290630916086058,0.201837806879552,0.7688392122340304,0.039720105993424654,0.16678410650293563,-0.5421509336544788,0.04540411519488102,0.3391984365335377,0.28480386565552646,0.3772084702153982,-0.50684393155316,0.06642839797638436,0.1489419655994116,0.30198494232356554,0.557163100834562,-0.08880656339980625,0.36720754929744853,0.47448075314416954,0.13375260571028302,0.3034166250374992,0.3337126997685832,-0.24457175613432303,0.5122575923581878,0.33421409265207325,0.23649882299539604,0.07201348567867139,0.4240500374469319,-0.09929188748683584,-0.13709784750393345,-0.023760467092071025,0.13078731143493838,0.07452799293950929,0.17276017980141234,-0.2235801963157259,0.44137166172561193,-0.15205423380132232,0.5366005778458315,-0.3416160435923997,-0.20828668308277976,-0.5806012886126652,0.01675371959522126,-0.018976225353601772,-0.626404153395441,0.48217393436951195,0.15462691790432065,0.23500202781039503,0.05395750510651198,-0.4618699018712339,-0.31071450004126716,-0.07504859329025904,-0.10116812376804551,0.16541051011720265,-0.19477234704508495],"weights":[[0.2302350724419856,0.09690989951747109,0.0018866504998811817,0.10512723234029253,-0.0693166361380061,0.19112105740534513,0.07301007200929621,0.2651549888167584,0.13598241980964193,-0.35689192483269583,-0.18615659777933313,0.3221541919356842,-0.38721475484723,0.5864840739256412,0.49307572703325653,-0.2955154638727704,0.4698950683949804,0.727031115350926,-0.1069325802492462,-0.3831760939755168,0.7103276749203826,0.4200247590243977,-0.29107089899203636,0.18602360883522273,-0.28778324819108975,-0.07481939063357612,-0.3169697487416239,-0.0790884081845854,0.4544684936904433,-0.5808959488369374,0.37116872123546074,0.26719999179731524,0.2696306593208357,-0.16437578869317354,-0.03135620714521367,-0.6891310294715147,-0.30492033837696936,0.03626087055396546,-0.03359248925692093,0.5750720531746111,0.5180572099261583,0.4790168283834554,-0.22630677150532663,-0.02189061569518791,-0.38549272405857615,0.016236988280369735,-0.02632534835937575,-0.22771379256096758,-0.0885304406946148,-0.32648293979836407,0.09469525565629067,-0.09386727699723413,0.31547256299462056,-0.41303408282330295,0.11877449209243784,0.10428470393063927,0.3196627369995324,0.8268610585678162,0.31810467226824185,-0.02897301624893671,-0.33991397164777903,0.272173744376897,-0.5147925579197314,-0.18667316153738012],[0.13812203665392656,0.4475550454352497,0.36689268648844986,0.15427257434978836,0.7396674972516382,0.18562677657525747,-0.30005082168418606,0.5933470669136833,0.254569314877076,-0.2009701180794311,-0.503224865725301,-0.3528480100532394,0.5292944963875064,-0.30631984342400725,0.07536121933954884,0.26542302792741534,-0.5323796436921584,0.4039359037355719,0.40084819746177847,0.08481649038670447,0.2648736936472956,-0.012826679375820493,-0.6598340942244095,0.04836747091991728,0.11942727124345665,-0.3527863255916227,0.6594095651809981,-0.038666575589969665,0.04461153347976865,-0.03468167467620359,0.138344174276205,-0.4755428170864457,-0.6513324635782964,-0.3948574902250039,-0.3192128012450773,-0.46241601423237794,0.03339174403454912,-0.13213275192628648,-0.40972195854196614,-0.20761790521317325,-0.06811697930436295,-0.3619916062676234,0.21732538347825966,0.10216119274944091,0.14039397656944758,-0.4188191843682285,0.11347824485908753,0.6391660922138416,-0.2837289418610901,-0.05599542853344852,0.5552219213398312,0.13404603128568482,-0.26320904278386514,-0.6547644747072875,-0.6064304044452846,0.3375986207616968,-0.31066833781128644,0.0869050974562523,0.27481841126126993,0.47999290821217344,0.43942585099074627,-0.11013591421644225,-0.09472454532118656,-0.10098723031761825],[0.3716397844484153,-0.07628115169617172,0.24374985641330532,0.2013577619379895,-0.04093888118368638,-0.3445700020342637,0.1841583187580451,-0.072923711705825,-0.15176605575526925,-0.22418661583624777,0.0327783012337271,0.09916283194059777,0.03347444816659262,-0.47795395381843464,-0.6534912943024602,0.32118053378708744,0.29869272172193484,-0.2511447527786617,-0.17292783750592933,-0.04062380231180618,-0.16661180210543614,0.09280387873866815,-0.22897380006049417,0.08706530997875414,-0.2849003668889497,0.02959372480005562,-0.2842461492427022,0.17892757741565313,-0.4273531206412039,0.10769815205807876,0.04703730997157607,-0.012885690608367723,0.4133477602657112,0.012851114682411402,-0.1791020975381123,-0.43129275670525585,-0.14648887139959293,0.43052826368820396,0.5836754557063011,0.15644986069272504,0.1559995319993086,0.05555639692745676,-0.3341894549135326,0.4689909417571414,-0.23637354626126877,0.6942881866710215,0.31236256741679436,-0.42140702423478715,-0.2255005638107419,0.28231654856134425,0.024426174864682737,0.22023057345124553,-0.2054542391084483,-0.27335647887407655,-0.04132402207808039,-0.41360503907031976,-0.14699470538524534,0.26808169617909966,-0.3175429133306795,0.538543171003066,0.31530073085529786,-0.5596491361839652,0.16396965008835174,0.4856241506803903],[0.5630973221032429,0.392468839712867,0.2897040606361222,0.15410419949027243,-0.6853611489936059,-0.18364248791263904,0.33253845372632007,-0.16201255639077028,-0.06298805110662585,0.0703826421382826,0.01928332337349037,-0.048341118734613886,0.121620453787604,0.2570676891627105,-0.23238628336433598,-0.3157370020630449,-0.1345938373832728,-0.5127522811261439,-0.36637623675669195,0.143265237892606,0.1461604416525074,0.6015612968582829,0.14505022220209696,0.6575330392803883,0.44475296949520193,0.49872282156971387,-0.31522790930764294,-0.0693362746691557,-0.20997690183521894,-0.25843107225192524,-0.40028010401214553,0.21516451792393232,0.15569810439929466,-0.5832321790710111,-0.007290253449857009,0.40436259915627654,-0.23128031779089786,-0.08950301476369013,-0.5373875813899927,0.5118578324785679,0.34938173131314165,0.48816743492112136,0.017583790605803618,0.31685310359865515,-0.22149520535833117,0.34211667427731796,-0.508261620994021,0.3492576033213265,0.38595921382179466,-0.4092719074523012,-0.3079481600404029,-0.023607710943648635,-0.27514528289775186,-0.18223060133801616,0.48298168623410465,-0.09426601365841014,-0.49342941036052823,-0.4205942965763851,0.6136284709514865,0.13182980140479367,-0.547061138587716,0.2292090357107242,0.330633026560472,-0.41866576056799687],[-0.10247643692877595,-0.27152471668672196,0.26168558632541583,0.6615108423632293,-0.3757543028222827,0.4021241974612953,0.3883294554257816,-0.18495773941670224,0.10165693208923976,0.5960213621063497,-0.06570986854217777,-0.11729228933896985,0.07302197718983339,0.10021159129196033,0.624573171620237,-0.16289696371202345,-0.1717703730029959,-0.2879705109118189,0.49993021437302076,-0.471284443408401,0.2965110331416958,0.29247329931736554,-0.23829728208890427,0.6028600191175644,-0.22138096472894975,-0.16581999107433043,0.029659746954668914,0.4491514520602824,-0.2944225222728688,-0.06681977780478691,-0.0550374237778207,-0.17167367715420773,0.3076824841576828,-0.3328675184661726,0.018723817650939334,0.1317991628531986,-0.11761784161067823,0.0789291712215318,-0.16952730025578955,-0.2515947068121759,0.40119672797474715,0.2846360909139009,0.27284037569287145,0.29885839068832754,-0.02253694421234348,-0.0811438422204924,-0.48089468452679723,-0.6475638473762295,0.4776571022895977,-0.21844708012731895,0.038601435267268086,0.6072904377678232,-0.39746809359133817,0.42497918171768945,0.24019898149486074,0.14640876237548528,-0.09117945417788359,0.007629468391980643,0.23230812389295163,-0.31592336404818433,0.1517850831401404,0.16843095965062022,-0.031264595809501694,-0.16741617909394818],[-0.08167621046200646,-0.43958696191864255,0.4495329732578474,0.5860318954511181,0.358834409902815,0.19797713536269268,-0.01922528192375128,-0.4952511081819841,-0.13129854596104024,0.10142319692653878,0.2990896442174003,0.38397054648491835,0.7717688020048528,-0.29027045318880274,-0.5152746678813075,-0.3759914478947144,0.04631435428312536,0.47605007532371557,0.39222083905386207,0.17382469269638834,0.06888253519276799,-0.017851706838100556,-0.692318085067724,0.28062907053884206,0.41905145197739946,0.2285683573874906,0.37166047519525913,-0.5458825773103698,0.16798858686410645,0.08518689427335246,0.2164538538478872,0.4919816199314867,0.30920193357249615,-0.4017386597106394,0.23972757579992165,-0.24695159688265228,-0.5570892576924256,-0.47703029607341607,0.022102612158557355,0.2912567492453338,-0.12531966760303592,0.23670215523452276,-0.1884233204517024,-0.5520036132521731,0.31666669950696447,-0.24587001885247872,-0.43499120278362213,-0.12522189504747386,0.20628050850539942,0.059315590012389924,-0.6326466464531418,0.16835562548182792,-0.31026150784902706,0.3553646709512588,-0.0966760993466701,-0.5694354205495975,0.32736433041450874,-0.08915722412343485,-0.5895437225564588,0.17428991993442267,-0.2846709108044565,-0.2650158437427792,0.10491337816098639,0.10193628448185654],[-0.29084606253185696,0.4299047039720858,-0.3290929925106557,0.1975476176027137,-0.07711912794214437,-0.12859682439861164,-0.13614224751947424,0.5409378993704984,-0.16072268097785536,-0.12260600810421607,0.4825012509071956,0.26833929577521487,-0.5972524581554534,0.38277889127506226,0.5188056978001081,0.21614945158886423,0.6874248672860509,-0.2750387392049324,0.663182450080078,-0.5346812714877154,-0.14225100428548054,-0.2035557667936167,-0.3244616879819855,-0.45817851820625033,0.20574363330306822,-0.08737177824582612,0.29474079309413775,-0.5120942037050199,0.11978919711400868,0.009467538255988922,-0.20608089628114556,-0.21078626397713307,0.30848629038987285,0.18546018742386938,-0.4479641204179214,0.014683278912750786,-0.15725197834149324,-0.2510845514718919,-0.10155076717244749,-0.13084808230740252,0.02889008847020047,-0.13702337213481142,-0.2680846635150739,-0.4000696986315548,-0.5498495767291569,-0.18172725762898845,0.5273269893325874,0.3708934986692981,0.8374981466583031,0.081615748363012,0.12419062099764944,-0.3146413848547511,0.4412089616564915,0.6121782922389769,-0.6039192665997718,0.20151066622578662,-0.14942529436245977,0.13426633741200056,-0.2641783515771755,-0.23648822152919197,-0.2030068756930432,0.08752310435765287,0.43482890826319587,0.0955681453895596],[0.29564320560226576,-0.14098960883953332,0.3058590290108665,-0.26861383149085016,-0.02422345025939776,0.2505356045230035,-0.08437122754958182,0.5450230072657788,0.6772054413146921,0.5094954089503072,-0.3918588468257638,0.5636107737039385,0.28879214794742303,0.17096595524075953,0.168415279372243,0.11709311215758111,-0.29660285630765504,-0.1808017646006812,0.10971067868907497,0.5961108647154651,-0.5326096621328404,0.3826597172455699,-0.12065531143231223,-0.08308256973331929,-0.4196950614089246,-0.2789481093466749,-0.1457027296458474,0.0765340957884798,0.16776984201413264,0.17264451794387636,0.7693366192036033,-0.08215312962376808,-0.002296595235744492,0.0950693763131003,-0.14651614448415695,0.1413651669410403,-0.46546936388799565,0.5667959841811959,-0.18792718456818014,-0.03073183955385239,-0.6292105495855644,0.19196376325829811,0.3854561168182921,0.3893130304152597,0.13083189509045484,0.19191339784410572,0.2810125950645249,-0.214303387009787,-0.2729237756515586,-0.10308985393724282,-0.04690017720774886,-0.05662758675609758,0.05680050677656712,0.5711631322850712,0.15047706800773253,0.2940259147854758,0.16687672248617624,0.39972155143815336,-0.3977901707777811,0.2727933446156964,-0.17800111981187383,0.4625092494488791,-0.061506504791510236,0.05487285389831842],[0.3431059510568618,0.30159477663711565,-0.7406608131131028,-0.3624072700453753,-0.09146240924878164,-0.2353866079572018,0.8284569640603794,-0.09244960820711201,0.013281710372710365,0.5430694033840073,-0.2636680147005418,0.29233410115188707,0.11250372499388908,0.4791687296957736,-0.20557372149099362,0.7075870830211299,-0.21765951636517245,0.5059545907990199,-0.254570959240756,-0.019401535054208052,-0.3909745477207972,0.23592226466509425,-0.01234186299623874,-0.5137262161094595,-0.3879626338504716,0.13820207419070818,0.21270492246433303,0.4836620759829986,0.1047448795116585,-0.18101881453663482,-0.12237216616459301,0.5334344840368439,-0.12040606358919581,-0.08007201793826291,0.015633564499097363,-0.23117372853318746,-0.12781034972007005,0.5412734129118295,0.2913363967382916,0.3207309927697073,-0.4149180571295765,-0.35089480914695165,0.22719905899049253,0.09456957192294863,-0.3921531492000482,0.8129269752073859,0.02049552936273047,0.13092885598187265,0.5226946507149204,-0.06975066234893693,0.5900306734105651,0.12011491398213126,-0.6130845125580534,0.22296135838839137,-0.559326158417298,0.07244035285259168,-0.2324308860133224,0.2046547115626156,0.3404859446351825,-0.16707710925529962,-0.14568193847253957,0.6070487209846072,-0.14084234177397242,0.6564597480183807],[-0.43694438580191064,0.11230472130151004,-0.41751446193249103,-0.5422954503969998,0.09004470396562647,0.0005923314826498903,-0.10803254947289097,0.1419767288756743,0.4896956176888325,0.2883851878317846,-0.06951753226666385,-0.6088387103968588,0.3264358629780652,-0.01182901124482505,0.734581479355545,0.5060909049990476,-0.37060544531715156,-0.5048369445042705,-0.37505397595782575,-0.3531953228753522,-0.007740660717975634,0.3232264747534227,0.38408574850878086,0.376156322789243,-0.3313350890579926,0.5588755451301898,0.008319038447393873,-0.13363831998652476,-0.2678003342707458,-0.1107243333903792,-0.08126496353090462,-0.6056793037051436,0.3679476552892161,0.35910277361250276,0.09807423178720667,0.4140506752243588,-0.13340363465648308,0.6043706201131449,-0.29588170235040306,-0.023681021613305153,0.09658652272990198,-0.18008901589173934,-0.29569541786928477,-0.2818012955661443,-0.5797751067907535,0.45086937832359714,0.6697669532701142,0.27385794280066045,-0.2943548058700813,-0.12327718543070862,-0.306968687948463,-0.39736099977170325,-0.23924379781370564,-0.371100050518558,-0.04580652555706566,-0.35914140503305503,-0.4780347676721508,0.41530613706381114,0.22649042981629247,-0.5338361667730855,-0.13122258870601455,0.29288472223826545,-0.43045802734173966,-0.14010706957062535],[0.5036407448448014,-0.41714100850647184,0.12182246256033313,0.2562477459617756,0.43322445389791664,-0.034422555664675,-0.03834655120885244,-0.46485993544295323,-0.2597445278262205,0.278308605051353,-0.691549711292823,-0.16204076029685155,0.03470668256218634,0.2409760261999665,0.0011222084714552216,-0.20807527992590386,-0.10992967971793832,-0.015647021227082947,-0.434465443997901,0.38959506356492385,-0.28520751328084004,-0.06156323059033195,-0.40059708278901696,0.5869024006881423,-0.341740696960265,0.5799194452030548,-0.24889028922735545,-0.7038027342459634,-0.0003284920241884981,-0.09532168818298159,0.22743937582008578,0.12461589682979934,0.2199425781908717,-0.3299017435693854,0.13256458505311552,-0.3378070284359088,-0.09981291600942255,0.4844527767229708,-0.16338899461233647,0.2902644139592585,0.2158578505337434,-0.6365504857388689,-0.10921105014211796,-0.38343151061527336,-0.5267806082630654,-0.43949607168626625,-0.04534635612661958,-0.5606744812410814,-0.5893501453015564,-0.1267958415698901,0.039458136133808136,-0.09665690715712937,0.30367814055630254,-0.23685647375412378,-0.29496030956433017,0.103161543072817,-0.4458873158927119,0.25281064752746896,-0.18244948320115406,0.2112216460519566,-0.04244193483695302,-0.3795507840092389,0.3389511641833123,0.25031304058092463],[0.05575825443551807,-0.2566667031997697,0.17206520369351064,-0.038151514282818405,0.2324412265789958,0.08122027953293698,0.5492706074206535,-0.1594300439075012,0.10074335652395672,-0.40405698896305664,0.01444778687705739,0.21357306892661831,-0.5065185669723614,-0.04220584074372735,0.13770662276677303,-0.2757970152185798,0.22003438759601335,0.07269369692783789,0.2685309748243242,-0.17132367418267244,0.0900852114159233,0.5730583275226919,-0.41136472985735,0.35033366087489837,-0.5534637580021748,0.4746039810629814,0.2342641606105887,0.1748017985462902,0.33421145884197556,-0.06510503410675501,-0.4328082571077552,-0.10145016608830781,0.06758310935070644,0.42500756568943854,0.22359750576132476,0.18861158596668398,0.21154015301166157,-0.19725900523365547,-0.11409921318112337,0.05332209759232445,-0.05682709726909513,-0.5140880339509439,-0.051527349758215206,-0.3460157760755668,-0.6565558285947334,0.015921793204502155,0.20489302088817274,-0.19716839475475056,-0.07847783502669609,-0.33330565931244904,-0.057089258751964356,-0.3169823336084977,0.11275800880967957,-0.12291602585235323,-0.138052825737687,0.015733876615114162,-0.42053846147096574,-0.1575806916454052,0.5444317727294627,0.2135318856384952,-0.06787785552618952,0.43230369681779046,-0.1508158060772471,0.10745542374458217],[-0.603394445512835,-0.23180523013092424,0.35023451024044994,0.014041687722891716,0.45613694521247017,-0.003677019786353708,-0.04197410477595809,-0.14901776341788975,0.1898883906843657,0.3152343327036661,0.06860771217636086,-0.47047417688007587,0.2545695335185297,-0.5543343632676626,0.21608849994732426,-0.18884896043147525,0.6626825523968604,0.6727939021284166,0.04261204510009786,-0.3538579657791059,-0.16114715688634407,0.4129397487047948,-0.5231497459728685,-0.24899467275313902,-0.16705101260154404,0.41549086731907225,-0.4195649161369074,-0.20733428478727156,0.2973865723145439,-0.39690291433503233,-0.021306812460892527,0.3799122076883987,0.0800033318890504,0.4136462942101492,0.852939952005302,-0.5202699301442534,0.1815682838777103,-0.04403600287864451,0.2979669973997612,0.1389029314535736,0.5688325577415996,0.32458852575747676,0.4474443560006369,-0.20778066994141742,-0.03460136890392135,-0.3430163257264135,-0.06906917130770196,0.029908562407886752,0.02991265740290383,-0.06832318979024027,0.21662306172998502,0.33082974762795475,-0.26979311767544123,-0.13390123417116706,-0.1257381242401574,0.18822535499207915,0.14899614296249208,0.3822434479592156,-0.07539408946812254,-0.29533217846688986,0.28261922473778367,-0.4139177272833252,0.05249372010867953,0.1972263241944052],[-0.18517090326834854,-0.24388120698685056,0.041087360678931206,0.04504146871564807,0.12852083739468484,-0.3873544660377254,0.006247757179026814,0.4324922170709996,0.12793316396416077,-0.23490092953492653,0.20683963279941464,-0.3388250992455848,-0.25130208491163025,0.370072727770411,-0.11728192674560564,0.15311818490513995,-0.10163165258759532,0.12054435414245113,0.25599836389161035,-0.4358197036698471,0.04374073173015913,-0.5531445091430467,-0.3143336301095081,-0.3244419152157749,0.029410075499300622,-0.3683273553262989,0.4111955430670364,0.3126872721821994,-0.13198082309771664,-0.3043918425439471,0.042047120500416535,-0.5709328227624045,-0.34080934898803267,-0.2924919055954037,-0.11027468191285383,-0.08146370912756395,-0.507415076196917,0.13268288547685458,0.08580730696682903,-0.08477224745645667,0.1294586532251718,-0.3971862759138109,-0.5029694458659186,-0.0008332669248349855,0.43489734526042156,0.504741555351375,-0.5957565604137276,0.40699682766658246,-0.6611286878574947,-0.41852285356895536,-0.43876875705365626,0.053711884965253365,-0.21962011013752492,-0.10432099016358243,0.6298423020127286,-0.016810076887453174,-0.1835565075682234,0.03718760958760681,-0.44397910083197556,0.051448157419219764,-0.16912260760616987,0.20195399890608529,0.5146310704280638,-0.5642254227537832],[-0.16840401574604774,0.5172701553794695,-0.32307428281677325,0.012408663491648264,-0.3708185298072889,0.07106693174378427,-0.5071058965187107,-0.2425015690005986,0.26322894833402927,0.226148230138704,0.26691149768623035,0.44763212716321155,0.42379681350799414,-0.27686732314759066,-0.3826411615370331,0.02189507174894556,-0.5015755696907842,0.2731410599386931,0.5812838831513839,0.31614542236175486,-0.2087370687786576,-0.1171078009043386,-0.3687076688872104,-0.08191412100192441,0.0021908710360024064,-0.17379545902950527,0.34923640741448536,0.0086676532732618,0.020584998579649044,0.20933069569203072,0.2740260794118978,0.004633959642354468,-0.033226789218623765,-0.335198059121026,-0.31701241852889184,-0.14624462456349097,-0.13031173420608666,-0.3365979154853894,-0.26972556795461805,0.2172196552157345,0.4809083067087677,0.013472493224809479,-0.14812323223740512,-0.30957983743380024,-0.2543818442821911,0.015574688562929095,-0.17437396079030199,-0.4792173615970288,0.06359729187130903,-0.3623299773180706,0.6877280042634142,-0.45084061603018816,-0.38749006344876336,-0.06674443485072712,0.10227664784756882,0.28494057865073413,0.16148041191649737,0.4572467222249941,-0.13753030383652964,-0.2474113335330977,-0.6037876074285042,-0.26403870620362224,0.5673934843032262,0.008278225494641758],[-0.48232586486027357,0.13813532853093605,-0.011943555899002867,-0.20494815322004445,-0.2074408608967555,-0.030523015742698223,0.22317722548525099,-0.27545942865063344,0.16166638403953815,0.2947368964988517,0.1755003457263955,-0.13053504410464856,-0.26216622643911347,-0.07998322953347181,0.601438173640843,0.5789079850061978,0.15289382618995173,-0.3039839041641537,0.5726243537190683,0.46411949535997526,0.15120182904003998,0.034404152619785244,-0.04419139755834678,-0.1713991702119011,-0.25750930340690115,-0.12103254327093571,-0.3072923571300178,0.35922502245481214,-0.6519858761310817,-0.5964498057265372,-0.627842909178563,-0.11453569505981381,-0.22149842792600383,0.5136331315785821,-0.1231708453274053,0.2621897557881684,-0.5016616529495137,0.008403450915103916,-0.721646959859893,-0.005640737044283389,-0.5232719519783102,0.23724442239085497,0.451701251724994,0.04832915871131449,-0.2974145873613543,0.09759860915250215,0.004835349016380608,0.1396236548158795,-0.014049566802566082,0.23728354965702936,-0.19017607728573943,0.4085483319010887,0.6072639516470403,0.7404467181617777,-0.42178564545107217,-0.23775659115545858,0.271894069603016,0.452847999642084,0.10478085262444684,0.42193352044974053,-0.2095385197089159,-0.37477816831930755,0.005223155091776732,0.16514788781847933],[0.5853211672584677,-0.2570119930099667,0.7482991748144389,0.535152160090908,-0.08861665624182558,0.3931736143528679,0.16606856467632158,-0.2991124619148442,-0.1586710962511222,-0.15764948913881227,-0.1879609573280132,-0.2491423347614241,0.1607587228799191,-0.14450624052420585,0.2398827976648087,-0.2148997273391644,-0.43618850066697173,-0.4550987800915413,0.3818054165100193,0.569705625960229,-0.5470485950376693,0.5594745068806043,-0.033217416041045444,-0.2161158586898248,-0.3935981098636112,-0.10507004571634604,-0.008364396349305303,-0.33036930801524056,-0.08775087244391522,-0.013760595932168052,-0.2681854188441828,0.4041764073421773,0.11741472412307291,0.2564020448400679,0.08303111499047966,-0.18760326838054764,0.20472147136783314,-0.23724198751290307,-0.3779590735775471,0.21452409775775436,0.514489474552009,0.039435963182782696,0.10070725913432854,-0.12075115328939429,-0.01711276347346158,-0.25659114984529174,0.618694961458436,0.9049586610538102,0.3966661306753476,0.4570344292498252,-0.10710573793412229,0.23335346439093024,-0.035826603413920965,0.3468700885916127,0.38400921677045446,0.022450933100921555,0.2984256277759805,0.06539954444101195,0.20035287101634658,0.5517180317462348,-0.006640509140700468,0.20952134399580163,0.1127898548897498,-0.29982280206156775],[0.3321479313770244,0.553203984814258,0.4784278188267861,0.30201850157079263,-0.24269154979227692,-0.16710656215308023,-0.012528699869375659,-0.6344275271045987,-0.3721578479088647,0.6261927758009012,-0.5023723056740542,-0.3681236351676034,0.2857548659883955,0.20046121737164946,0.06359714201711376,0.649264315729219,0.10526794308404486,0.43074070968143674,0.21921907838149507,0.04021214207047039,-0.1591125902489985,-0.09928513217011703,0.35665282639133333,-0.021948927337980206,0.4710198191854561,0.6525191231154377,-0.01689233868042242,-0.2813833009743466,-0.05861543116726364,0.230724596733058,0.05639093493429659,-0.5860613751242997,-0.16960111780035958,-0.3417767423403687,-0.48188593345819314,0.2426456297733034,-0.23878724633880877,-0.33681524029137666,-0.7871619461530432,0.33170050510358595,0.5998336446687014,-0.04721398768550977,-0.2697880778897179,-0.2786394460543627,-0.29836794037615166,0.7285702775379073,-0.276284346262086,-0.44918798075075217,0.04249323684096962,-0.09341681473701435,-0.3661002775123361,0.06589555730563346,-0.32946691375383225,-0.012391171898205489,0.4789629020670432,0.48477837325801443,0.7324013476515386,-0.5169488100734196,0.18943070487697955,-0.22916517790767776,0.27897866269095994,-0.06659109968674115,-0.21930309647636248,0.4018285594313796],[0.1836259691418405,-0.36992703417279815,-0.29970419825917044,-0.47434112699123376,-0.28807321679193376,0.09671501733297078,-0.6809972128609316,-0.3477590474491756,-0.12525953883425034,0.3379766474150195,-0.10349749237854744,-0.18171055529844193,0.17732327557119298,0.24138087162448818,0.40959368057652856,0.1476172972737484,-0.2190636790224626,-0.2247266058531815,-0.05234738872859668,-0.22329378582850057,-0.2791095018954386,-0.07753842748181528,-0.472020954854245,-0.3605230685699644,-0.3659161567901141,-0.5005599588474445,0.35478490016879016,-0.227178407054904,-0.7127550136470007,-0.4594869016834421,0.4993945845906014,-0.169231746919408,-0.4001815425751384,-0.12487126882859223,0.4331381590646628,0.1796865160051599,-0.1666696303928768,0.7048303351418302,0.3347329988323253,0.5355381999570044,-0.455670276844353,-0.4818189398549504,-0.2082724124543175,0.4443447285166682,-0.47810693634924933,0.08468974417953626,0.4983511930274907,0.3655712305774846,-0.020710985302287654,-0.09319250829152692,0.5111812803104974,0.11286429573496415,-0.013141364091938529,0.15857054698369877,0.6578196312812282,0.03487541639220583,0.20894372689381235,0.3122251849886588,-0.19945008880689838,0.42025961075240637,0.05518354789156854,0.42987550671648556,0.17282091772485342,-0.25433395886228227],[-0.0015028479912759466,-0.24960869513075712,0.5256488916080887,0.3259064988885272,0.15168130213873088,0.14444324496570493,-0.15167420238855167,0.42098807815070904,0.18125532748334983,0.11202992330063677,0.09451107637159423,-0.16199661687789513,-0.38116825824879275,0.40995423802778536,-0.02196315816479548,-0.3155245165705255,-0.24168675310549126,-0.6114141230201067,0.15181625189385461,0.46694110668201233,-0.00017850261011953528,0.2607921066819474,0.5001576032451136,-0.15333358480489756,-0.1305348260757474,0.5687082321682005,-0.16689636022278048,-0.2039772090605947,-0.14644484434351857,-0.3496137389788361,0.09899138078853345,0.16627520349346803,-0.1612613498212051,0.030874171124648075,0.18843719840267947,-0.30891474161278576,0.6566980116622918,-0.39743529138729294,-0.16233249645185505,-0.6432339237727539,-0.3378252832043054,0.2291478806681318,0.7313394415631318,0.3071215882186362,-0.10994316210167188,-0.26383080835969397,0.12610319856801244,0.31205398579486765,-0.18075657049025345,-0.5628398157514733,-0.056900634370424114,-0.6141130391668166,-0.3726830462378098,-0.016893848897688968,0.6200060379687798,-0.2864142257202655,0.5713577601518073,-0.4790047654459838,0.17926013169104946,0.19169871083725243,-0.10878533074131774,0.1627310442704824,-0.2823691509352757,-0.053384118757611954],[0.3354326969101432,-0.035569142515218144,0.3909004518146141,0.277969823936818,-0.01568779759979788,-0.18917072770495647,-0.10792789911881961,-0.1383668281464311,-0.1553749799927508,0.31363561509414495,0.18462429646139472,0.3570628937064114,0.49571390533186654,-0.13599814675270472,0.5109504811520285,-0.3702020906883854,-0.048802156379957384,0.1040221960014886,0.2003839776634997,-0.35756887177227226,-0.21378637744509632,-0.3534580384128444,-0.12212711625633216,-0.29217732714018285,0.2840558058219052,-0.016455254568843225,0.01912616356288266,0.04161931403807895,-0.6654533712124263,0.7487099745446256,-0.13618479839665287,0.3689855308517551,0.1269085065596975,0.5492740122841144,-0.45470978407687723,0.1185801054700324,0.1870644478460607,0.16758516864058826,0.28435285699507634,0.3247439210191516,-0.13821916369621734,0.2564895976725332,-0.3654186074054204,0.1655219134373072,-0.1641242976045334,0.7554229854191853,0.40917676992761165,0.20983022636822235,0.09375560936448968,0.041982806870710654,-0.5364973000139089,-0.14813153868678985,0.18125033357301834,-0.36050048548045766,0.13917218578808688,-0.17337225612773055,0.2736898328458792,0.09294866842883343,-0.11799871427856257,-0.007324261405221756,0.1724895525648018,0.3442960500043828,-0.7874559968909518,-0.7962249253324922],[-0.6221413923607937,0.23824807514159416,-0.31498543509033017,-0.5231091106905199,0.583705704366632,0.037684451881624434,-0.05600695210636436,0.04908843671056129,0.3139865719350994,0.16330006164713007,0.18816382761096045,-0.5189399095226985,0.08001848979471504,0.34786401277686274,0.26940703212899797,-0.2195932098797141,-0.608709214643141,0.0036528797780012168,-0.438391555141439,0.10346212466318327,0.3050799622299395,0.4916609832401331,-0.4766117820141929,0.5454918247541278,-0.32956774197596145,0.23416133830338481,0.26111233671570055,0.5963384283569054,-0.5508851979081759,-0.1657688682236771,-0.21414488511507437,0.18763074731936813,-0.7196813779667173,0.5495395745806235,0.6424561454557389,-0.502629699413502,0.2759271895854631,-0.1945475712406068,-0.37714312202614547,0.14234680239749353,0.14961219383590363,-0.030193335452291525,0.7084473696814049,0.16351601553479522,-0.01826942178246338,-0.03644891737345721,0.616913108473116,0.24086044117634664,-0.1385699749255742,-0.24613612080173541,-0.1542854477541219,0.49515863887810163,0.06603429510502234,-0.15290900163820897,0.2535543782019556,0.1554146227046489,0.11469564968999402,-0.1261611427382514,-0.3868322444340955,0.26369211626292266,0.06975204380846683,-0.5084490031909336,0.27382470539199405,-0.06623258450023745],[0.4093302036434129,0.008991333487279759,0.023941341475592792,0.7782956413927056,0.13008214800340812,0.26814229509609677,0.17596857499547314,-0.13152768609136523,-0.32095035535277205,-0.3897202773570343,0.5573196879701823,-0.301204945278587,0.100439170390769,-0.5822830386232608,0.0877137753548625,-0.4406434315762272,-0.214051079774788,-0.04594194765348003,0.03535016372581934,-0.4165681364552597,-0.22080719611944044,-0.45963043233757217,0.12773740450855148,-0.2038736546455202,0.19735137362664734,-0.25948725590870836,-0.09968770279847594,0.028297918458507487,-0.3613867769892847,0.19599109204484078,0.020324197460476007,-0.5420337470574558,0.2812314757294383,-0.20591388316800596,-0.24722797261352014,0.3631563969246123,-0.30922469058171786,-0.28245789328175774,-0.498124086203693,0.5073656794108456,-0.235528481542971,0.057181729264617676,-0.2905517566139191,0.15626360385638716,-0.21101109114764355,0.19709175282097904,-0.16731951108916632,-0.33609012395745563,-0.19190530007352813,0.3322732512344861,0.5359303721402847,-0.11571325864646664,-0.4905478805081,-0.3762047923490298,-0.2680953174078433,0.41792733084189515,-0.02719898089265338,-0.17207383866300993,0.5002679654804232,0.17164464252365097,0.06051863535509194,0.1629963458489079,-0.06490520951149237,-0.29691464743246043],[-0.20774251931722953,0.3534734522158882,-0.08930493444589793,0.7470211946753498,-0.08610522577388108,0.44691508054154466,0.08734084532630537,-0.40203473804131207,-0.303207544607813,0.022130322166744987,-0.18813163220518064,0.055621140936184976,-0.33567064074648034,0.12843004767511207,0.4162897048678815,0.11622153024591997,-0.03646407636313104,-0.07948091711552963,0.18011472395829298,0.12161192951468303,-0.10182219856848929,0.1599473033333159,-0.10280941995571058,0.06694028791084311,-0.29417745567514286,-0.15033341772826292,0.22304727070274732,-0.10358154137536248,-0.7328515967523659,0.08711448194434573,0.5339746688694509,0.5916631591403819,-0.24151232925564464,0.03906546695645152,0.4422490258916127,-0.05371231162057738,0.6917250039545222,-0.3479354942019899,-0.4379151648251711,0.5409773572161498,0.2257994338123862,-0.622550394426523,0.47136302128286534,-0.2607140888123086,-0.19588451028683806,-0.42059614699301195,-0.29508698471863243,-0.3661628590580584,0.11283997061735834,0.251293285712491,-0.3096860959313765,0.14909967590922057,0.6530977254463057,0.6833714641923921,-0.44971818124813967,0.4524069665760331,-0.04375544167819467,0.5195494196170969,0.4432414251431285,-0.23178701324274986,-0.1220610592708723,-0.5021254341107424,-0.5878196709741149,0.19089919832234914],[-0.49091390239129795,0.29164179761068787,-0.21498409751572478,-0.19271013661365916,-0.3299036872044751,0.5917259927665451,-0.05735822982286806,0.09926928216368391,0.4489095873740717,-0.36537284509601387,0.4741309116181499,-0.5604220530009715,-0.10211247205544272,0.09858231843025445,0.5829400116601715,0.3829186889037758,0.4731589571085577,-0.2611024692340751,-0.15450397302910607,0.5044071520753821,0.4484985019651814,-0.5492488489851515,0.5257995775953919,0.29944887170502865,-0.5206213015520482,0.1890936198257609,0.4986798539346384,0.19991769961518024,0.006716035755036931,-0.27315548500792775,0.20006379205983027,0.09339360195447055,-0.1106819020241937,0.16253569388140954,0.6826681131657966,-0.07271398522698802,0.3577057171776805,0.334722018051579,0.14567235973885073,0.537846966669393,0.22810307481360143,0.48946170671221484,-0.21086846208166454,0.1886349150445379,0.06436236071436396,0.015686498470303456,0.06886175291527097,-0.2865059310286196,0.2708327477399158,0.10556692941063034,0.24339791285964518,-0.032434768365995015,-0.21049002813991932,0.20637595593802321,-0.33178055350450636,0.3501000725535135,-0.07247686073264836,0.4008391384197206,-0.3552069273746742,-0.2491433284756266,0.4492676199377023,0.49690381579424125,-0.3547465241915479,0.419403133213728],[-0.4196284882338103,0.028529024740413023,0.5001498707388341,-0.27710651866176006,-0.023187372280261354,-0.35813686467399886,-0.32656203462303135,-0.4729616196397597,0.3020849571085804,-0.4715460768976505,-0.3678740515281953,-0.028613027831607907,0.04772410368781099,0.6967525128982894,-0.06996487314634431,-0.5775966697371249,0.05670559508104145,-0.4416325309630602,-0.007790552532753944,-0.5362184355454891,0.00020489364354381312,-0.3889052655755183,-0.4569710754086278,-0.5821379889514374,0.39598271167222077,-0.3043442956405793,0.4256917686514101,-0.6766492811482167,-0.13675746030476565,0.18669883631977874,-0.14772323414269295,-0.5752274507770145,-0.007318230929207803,-0.38005221059358496,0.1479529539788414,0.07786105797818563,-0.5760730006423627,-0.15710171370780757,-0.20352541177576167,-0.0007139939069280418,0.1032876608672797,-0.11664537685435056,-0.4151383008564421,0.08478063742478203,0.24113504595409918,-0.0519533243986976,-0.12882647285640153,0.46157451622346196,0.5909036801990197,0.30087193879843854,0.4251806004449106,0.004754247443947646,0.2510021700065898,-0.5699292382283065,0.2915456056736362,0.3033292937374746,-0.13210026438074055,-0.7454130535844714,0.46245693390233744,-0.12906937093507653,0.02351650086182569,0.109045422875506,-0.4233257439350358,0.3327945674936189],[0.254894817173952,0.29493133438119923,0.2791349871667659,0.5949076529353099,-0.2027064827326801,-0.1804044645556626,0.2609143765530653,-0.2108470163988692,-0.3537704364164841,0.020750312071774163,0.37096943027247686,0.000546745650124969,0.09113994690239954,-0.42951493030037335,-0.039282034740743765,-0.31511128855236775,0.29753846250641947,-0.21365204693712525,0.4295951349128321,-0.3959644737069113,-0.6527534174487151,0.2507436092469528,-0.2557729801001151,-0.16271250337886045,0.33396304163779533,-0.6352548513688926,-0.30952111479528865,0.41499636420285824,-0.4014881580229687,0.6783243481218256,-0.06673415691224371,0.31006481779388895,0.11771760473250198,0.40325500703902356,-0.17676830574846333,0.34427586279265654,0.05439581955884831,-0.5909518961938154,-0.6683473378057222,-0.14895365304403424,0.16552611585743193,-0.3170709163916341,0.6198619582100651,-0.22820897742974322,0.5027008928347572,0.29782745494195406,0.003904460283975175,0.2049356073527938,-0.1835158553075994,-0.03796842933826422,0.09034318738015062,-0.28587310763642393,0.1309074486109607,-0.28266231883629134,0.016460262919706148,-0.040113786950339986,-0.044662757056584415,-0.6269411595414058,-0.37911325164675724,-0.32825048685913294,0.2601455013750878,-0.4747871968328291,0.4639358411971472,0.1812349206902275],[0.06113132476115313,-0.5168596537653664,-0.08219079699188703,0.3181475560806537,0.41720942421514373,0.31156915083325254,-0.438461132819324,0.26785943159517667,0.2745186059548249,-0.42582097981025013,-0.4494172058879096,-0.09881637154414369,0.012818996153073456,0.6733894454576856,0.4511364414218429,0.06545713621885829,-0.05211762325069136,-0.0479304076479915,0.21012988315725972,-0.396072775143789,-0.3837540505013206,-0.4745973706718736,-0.16465491403821164,-0.3756152259523705,0.23354435814233454,0.47974032607767303,-0.5967064203776875,-0.2627548881721501,0.18818407215737243,0.09695279944773894,0.16716400251164587,-0.08732474628037279,0.14664276976563276,0.1366556898589829,0.44484445980277937,-0.22543564638961633,-0.02557779797678511,0.03271904022032551,0.10484261253113752,0.33095296547620756,0.6489426924129276,0.35922453060651904,0.35497716789018974,0.43515367440317987,0.2302409769094672,0.5081733822847514,0.2649708867962032,-0.1363548088972807,-0.09589556570596891,-0.30815935156583707,-0.16697765661238817,-0.4963831466327351,0.14216347400111604,-0.4132960285998072,-0.1783438695864214,-0.3484568113963477,-0.05570295400719505,-0.4324572056687761,-0.565981466757989,0.3031184688760289,0.2112252896988849,0.22566715230395773,-0.112191086208493,-0.39170665070350497],[0.38851103240623,-0.18443062011605998,0.3211201426994546,-0.18404215573557953,-0.13990302635944896,0.14271123210298398,0.5793719247124826,-0.11609507203397335,-0.19263152072432677,0.5335020621205593,-0.3187668665523886,-0.16757575254423435,0.4061129160834591,0.03763068884040954,-0.6123569961286,-0.3557329217993307,0.5913797252979002,-0.3992033529960108,0.4912391971108141,-0.3387569741220279,-0.3031183089876122,-0.3042624504005216,0.32359554332513474,-0.03057918866341136,0.6109393621066097,-0.2691304384604407,-0.19924844236630443,-0.13120170340198534,-0.12415537350647532,-0.10369142209461238,-0.1372134988240885,-0.011161821888277412,-0.10741594317167497,0.25979789955811466,0.3339125121677662,0.06354741191975788,0.20058900249501788,0.3498897866832976,-0.6076686728802694,-0.013198492078720425,0.20404037889865878,0.12438546088651259,-0.1344668199262422,0.42906646099357393,-0.6029102209080173,-0.18028835872203475,-0.6201735758862212,-0.569589672337857,-0.23690114532797313,0.5029935426439923,-0.24339565520822457,0.12364145778631297,-0.005522175050806322,-0.5696376113787207,0.6469622761773917,-0.18191145533664815,0.4074467380955227,-0.11505239931481315,-0.43169990593646856,0.2327903084338337,-0.09314862815530828,0.6060901672674135,0.03953916276203562,0.08107882364494395],[-0.4353946474666225,0.10756958311393089,0.1750837479228789,-0.43495200807028733,-0.013485763449667232,0.18648553118592348,0.5112868746616999,-0.2760118261583798,-0.25963896180770396,-0.5816211462968371,-0.34323789043607134,0.07601440013259386,0.35170666522173777,-0.15439040791273329,0.23674865349508217,-0.005067040084753727,-0.2493255600107741,-0.2956418139076522,-0.18657955028014772,-0.0010868675598677269,-0.5713430619759922,0.7128649722816314,0.617986243632613,-0.11677434698411149,0.18998293145405343,-0.3706792541978762,-0.4622208950989031,0.07304056349903229,-0.23472372231437422,-0.15708156626246006,0.13887118614299232,-0.5387267455729801,0.5137530327768387,-0.6661663775511019,0.21409945121165963,-0.2928260050939431,0.38767914973559636,0.1158719844499429,0.029850350371973172,-0.2392105048522697,0.46392875188289123,0.07525907382368605,-0.5541124805420373,-0.043916364895687676,0.29005384944332624,-0.6220406254120914,-0.03338207423974937,-0.20641020376964925,0.463482768265857,-0.305153739398207,-0.07632678201506982,-0.028330401143271122,0.17178688636564587,-0.5172513925714288,0.010786872089859068,-0.2804158172439959,0.25393872091250924,0.16959449836224247,0.6339216320360896,-0.3503084841764839,-0.0724356780353883,-0.5071049427537677,0.2532700273429819,-0.4745745234433768],[0.13042961187761193,-0.4344650424390004,0.3601605584673049,0.1515587997356881,0.21075854527126658,-0.27972104408999665,-0.24957724968596318,0.5392072799441228,0.31359431427753315,-0.49657730438724357,-0.46626713903621897,-0.14810714991681617,-0.37117968478074315,-0.09069400458098165,-0.09807708426799028,0.037302580771174654,0.26913730874633945,0.13488529230197033,-0.020320596135170677,-0.05941645929385961,0.35013081658992684,0.5647883708285127,0.48393412391823887,0.08314660340390662,-0.31374393335400474,0.2619759495640982,-0.2823339524636943,0.45227949201954143,-0.2014403004152866,-0.0966896362131091,-0.23860086906612754,-0.1385971326079896,0.20841419932341776,0.24617014206056143,-0.22455622056517954,0.14450248162444673,0.20967801689683596,-0.4091793534799343,-0.37275724495064905,0.018202509920225207,0.048248989562501454,0.027615746355065807,0.3456590897551094,-0.17103908067103568,0.3747945142503255,-0.11518329823135473,0.10678668824908849,0.047079715285501034,0.10146254515889241,-0.11222850201751544,0.13995816930154323,0.20106807374801877,-0.07087174443394942,0.6598269342417968,0.19139681417768717,-0.22496555536219986,0.4734251889646738,0.33299697132126677,0.0881722927142663,-0.31995251647077827,0.41966892867480776,0.1860992236632258,-0.38599134414395153,-0.14074121886224944],[0.15424384698658167,0.18567866420985424,-0.09555379615649606,-0.1600209639979334,-0.2153994786008911,-0.017998637358612957,-0.5593568198836449,0.1967530805577472,-0.03246244639968243,0.18840132193869033,0.03277139573740284,-0.18068729351076568,-0.08061076868746986,-0.1735665353635767,-0.5582017377570431,-0.6111740301797476,-0.4684460457853684,0.4676852458613844,0.29526151215030516,0.14014483600715755,0.21099548632225607,-0.1736788927538262,0.1104605654031483,0.42608952234344727,0.07760663022567629,-0.05670462761154392,-0.08081243826843532,-0.35967827141260156,-0.31643220413637263,-0.23412743229895433,0.11398853225419914,-0.6255526211008868,-0.09844349037180455,-0.037773862437742944,0.06073678395797644,0.163082758662161,0.3843250482304973,0.014027055368855845,-0.3580512471049447,0.20695216166382746,0.09317988211854455,0.22364693417127812,0.1693994195552907,-0.3177914353221786,-0.2708826977046507,0.6979455826153727,0.1571430347375824,-0.0018072642007521678,-0.42140642967821257,-0.14242726190804755,0.09316405802730265,-0.011921297443539425,-0.5984654376741738,0.3351397195439581,-0.47413035772843115,-0.12199445871748094,0.19127615274233645,-0.5166275456291487,-0.1671965575529315,-0.2649071449232241,0.2564251804344818,0.29974149506382014,-0.3026091584902091,0.2506139315424356],[0.055655111701636395,-0.2214554905048398,-0.28775410209782754,0.1032511585057867,0.16080049762933613,-0.07560323130849378,0.4781913757982236,0.48701556709676896,-0.21729630799429656,-0.5080313845534508,0.31701740314678917,-0.2590722057995797,0.2502503688998592,-0.6334585557229471,0.3473552441884582,0.40544647826214464,-0.43651558619465713,-0.3230181016055942,0.20765206654670992,-0.704692700530584,-0.21372078357587057,0.3921622942289449,-0.7122113239177386,-0.13271040630981956,0.008681362999582554,-0.16663971198500493,-0.4792668805210976,0.022111110767780846,-0.4888991882843172,0.7107572226131632,-0.10794847086668857,-0.05659062377286139,-0.047634578210250855,-0.09875249854386675,0.38640611453733387,-0.3937131574747702,0.22846858990181312,-0.2769849706903259,-0.11592919255802303,0.054180416600732584,-0.348700550169288,0.4019440816974049,-0.3047263936191516,0.15682475003856705,-0.011951746994212031,0.3798947073677421,-0.06106689332443316,-0.012817759098394221,0.17138899294021315,0.015284284075543608,-0.26544843284748154,0.22318461427818298,0.46061296731704926,-0.09560862996941105,-0.28813709488520656,0.2911274664196102,-0.3717749377280304,0.21319797225405931,-0.36896646320152515,-0.15466522569494118,0.4022777150330623,-0.3498674581814707,0.38170094678611677,0.4114658402299754],[-0.5003716651443868,0.10608700510478208,-0.046063087969303806,0.18436084490112875,0.1703618839861104,0.09378292344492956,0.524302035031869,0.04771884183112024,0.08440164592328758,0.5026840810160742,0.09488236700968788,-0.30080385962212086,-0.3874686521052073,-0.2757639274111303,-0.030661784987815688,0.16342576082613516,-0.3107614194673589,-0.2806895750896464,0.10576574079262058,0.0694612412880373,0.6836354499686118,0.26652351821145015,0.3692141207772679,-0.02898098309032776,0.31805038634869576,-0.4100041669239324,0.40034889698879106,-0.06460839303837873,0.27360502206202925,-0.3192342874014109,-0.048010798537802296,-0.17924267373792285,-0.17350121046468037,-0.15290125714433922,-0.4246797878117814,-0.08050778653681356,-0.4304708987082393,-0.6930189576685585,0.4746070416048971,-0.10250341221986259,-0.2761101727174927,0.2907033390143337,0.002945491878359241,-0.575564315939602,0.20057310673933282,-0.29403986544461586,-0.08119307948378174,0.2969632226810023,-0.5726656970218048,-0.04805770130902742,-0.8506508394101611,0.16974972539989625,-0.35023306598738146,-0.08238483183819025,0.27250648572335945,-0.3197730985628291,-0.38875912362874615,0.27997436855211477,0.13094078735636697,-0.21427444910690885,0.5403451570107862,-0.44714775087307806,-0.09382355611628757,-0.42580675712709243],[0.3624848703145651,0.2514563729093386,0.3188934186362975,0.341549600480362,0.4059851762220148,-0.00048721442399390913,0.10999784444909877,0.004258109480637651,0.25265252838501046,-0.10028962371558689,-0.5448552422450876,-0.31749299455782964,-0.33206620176185847,0.14888687590161287,-0.11603186594826487,-0.3179874613393827,0.039573901342494666,-0.2159109974657326,0.06316348442875908,0.14442339925454611,0.5358144299296933,0.26177335118447387,0.1173534156490611,0.49762139127656596,0.09410623303611855,-0.15981701733347708,-0.13326978032390063,0.3054486359890596,0.04318364781055106,0.18187708163712923,0.2370912048307287,-0.4026456144615946,0.35855874522984477,-0.3965259522512444,0.022613447972357315,-0.2569049353662445,-0.18559364450473936,0.08402094992582787,0.1379352450175207,-0.758908719047839,-0.041433954503079296,0.34065373917726566,-0.31484815457102133,0.11624549943249729,-0.09962025333366054,0.11083190892417483,-0.5436864645388374,-0.13137687968856623,0.008246884179208491,0.3497667989799169,-0.2021485343370028,0.24195205109669282,0.5861025758691122,-0.0669064716961201,0.34900129873015573,-0.3994574843386717,-0.01916712378133545,-0.2098444825185184,0.3074516059885841,0.675580618575143,-0.3309206449058065,-0.12827648770877487,0.18728992884788975,0.2875257335753276],[-0.2455675626715973,0.45261291177384255,0.42643922532414674,0.4168858027423951,0.2193395978662278,0.18175210263186303,0.20284368637197514,-0.26160518416098877,-0.25178650018470117,0.45379340198066764,-0.14558898060619796,0.19937687957637507,-0.19778963730030424,-0.10317587947476059,-0.5157265950915195,-0.30994505396776484,-0.3392713089378121,-0.5197177239916809,-0.19774873107847052,0.5814869260470408,-0.1194660132085893,0.7431821782649701,-0.32665800203014006,-0.014609660188424356,0.1519949256056966,-0.31904179315799563,0.6254814744543749,0.29681213207766893,-0.29503596867402165,0.3566066048594091,-0.14394455181582072,-0.31094977915734606,0.44946028133041455,-0.03697245774796604,-0.6068065654608579,-0.12560003862264257,-0.5498107028051682,-0.030388118243276807,0.1673083807182395,-0.13747739709237322,0.32478633724925776,-0.13672622858097702,-0.4880724432808926,-0.08986720247853874,-0.09588739864492324,-0.4214886358915745,-0.5870344531577321,0.6700410104620245,-0.19316391697571797,0.4565766440855715,0.20140666234002869,0.3811811103808852,0.3335009886376199,-0.5264653078616015,0.38667564022981193,-0.4072555220019598,0.42536000783395067,0.018843762224925342,-0.09181846925465642,0.22427156505861734,-0.20294109923402193,0.06906809928829694,0.08212548249852213,-0.08497000251395909],[-0.354719320143837,-0.7294235128447899,-0.42787499520510863,-0.4344285621323931,-0.22223958196982252,-0.44439709179582976,0.20604562458906395,0.4021459374498463,-0.14741735647012472,-0.03194309145924823,0.2157608241780133,0.07460213269448795,0.2669108377612637,-0.37666069470482866,0.19655079540788528,-0.46664510994465414,-0.4588626719140959,0.0926191834354575,0.03281701679186966,0.7102823873161717,-0.35829977146837727,0.3746762441980416,0.5605124867756828,0.345534407257545,-0.0495524733263939,0.28734942393412655,-0.42787685418979876,-0.10952215617697414,-0.3702993652102957,-0.09607983080287985,-0.44709282720508503,0.16019152631560088,0.13207935747243393,0.2820697393031877,-0.3323502940318111,-0.3141723315225533,-0.3900819654139043,0.055794453593082105,0.19808589884645894,-0.7683632241185909,0.0014026138748267636,0.5524685946908177,0.14461370357325976,0.35524643440224773,0.1566442348736261,-0.3973292918377904,0.15773330750736203,-0.12253625996420549,0.11001175082044923,-0.6117946319342468,0.36366744702014553,0.21103305464352873,-0.83694345679979,-0.3141807881095443,0.2817427230232197,0.05617358639163206,0.4427286146514433,-0.3816842668330934,0.36994312586197786,-0.11532780539347093,-0.03669046802765874,0.02080121450472794,0.3549556373721796,0.527604325225483],[-0.1652082041852253,0.5193593521474359,0.14897567182015845,-0.2012694083290203,0.5508348492188412,-0.21260642508941352,0.5446272131378211,0.30608035343717305,-0.120556197825053,0.48635231434161397,-0.6817852282346882,-0.03015972150800461,0.03854265893049813,-0.2569092323029376,0.25670660019041724,0.25204102913093496,-0.7169165913056772,-0.22985021095404812,0.07929885226485278,0.1626887280584352,-0.34140023025851907,-0.08298090003787953,0.15917922751020153,0.502713015341895,-0.06760345357624858,0.1915998535689613,0.05283836680227849,-0.1769273729691773,-0.2818733927573007,-0.762264805273816,0.19798848098362787,-0.15521647385642856,-0.13757703132834453,-0.27833616657512544,0.4032268510966057,0.15182477107810663,-0.02146091352400939,-0.26914435963873595,-0.4834939268042024,0.011667737156142083,-0.12877480344003642,0.5969531391100361,-0.5207104814830781,-0.4753512811354179,0.07369987795719224,0.662115393198025,-0.5755317730520149,-0.1969121727024818,-0.5853650474050203,0.3976781418903378,0.15957544117457856,-0.07086719256953622,-0.21529479855235478,-0.6771163045021331,-0.31188557597050154,-0.3080736981866516,-0.6174411735517309,-0.4202629515452493,0.025160431987907128,0.06941819772236485,0.1727677971219279,0.2735102802224782,0.01254252993215571,0.05365595800080075],[0.05611414515034041,0.20705725788930546,0.30433521525342166,-0.45584945938301935,-0.37271381821810645,-0.19257173418029394,-0.15628475509739737,0.38040467115007426,0.3973225952505275,-0.0266555247151119,-0.029423405917097023,0.20906019970860096,-0.35676271443207974,