{"levels":[{"inputs":[0.0,0.0,0.0,0.03763490915298462,0.09996658563613892,0.14009696245193481,0.16228580474853516,0.16868960857391357,0.15990567207336426,0.48204857110977173,0.5108607113361359,0.4784466028213501,0.4261263608932495,0.34904199838638306,0.1331946849822998,0.04244357347488403,0.701286256313324,0.7255622446537018,0.7309730052947998,0.7314068078994751,0.7003448307514191,0.0,0.0,0.0,0.19073504209518433,0.29943710565567017,0.3664476275444031,0.3987269401550293,0.3159944415092468,0.20170360803604126,0.2126169204711914,0.20911341905593872,0.19086748361587524,0.15612471103668213,0.10126715898513794,0.019805550575256348,0.545959085226059,0.5423667132854462,0.5381498336791992,0.5252767503261566,0.49360382556915283,0.456693172454834,0.8173551708459854,0.8336658328771591,0.8471311032772064,0.8527874201536179,0.8542922288179398,0.8555924445390701,0.856696605682373,0.8576118350028992,0.8583439737558365,0.8588975965976715,0.8592761009931564,0.8594818711280823,0.8595160990953445,0.8593790531158447,0.8590698540210724,0.8585866242647171,0.8523467928171158,0.8442788273096085,0.8350656181573868,0.8244663923978806,0.0,0.0],"outputs":[-0.9953124129559443,0.8364115741353687,0.9509294492527827,-0.8671559638780707,0.9846457921141122,0.778176376632954,-0.39698541718064373,-0.5718535755863732,0.9480839172070622,0.9999863967001188,0.9399146187521777,-0.28252247884407733,-0.9651146832367867,0.2673941950376567,-0.566024388023801,0.5314086409351054,0.9907215153447558,-0.992171777472353,-0.7621053779980079,-0.35609900711781567,-0.953368089396628,-0.9937628867046974,-0.7535073658843979,-0.8868268173878933,0.860481266427473,-0.9924777768763511,-0.7291961132849735,0.9592539316686012,-0.900252109048828,0.9970499262951391,0.8660980386172065,-0.003553500851792467,-0.7492832641874624,-0.6910260217212129,0.9953916107339321,-0.998467678892594,0.8006998281603219,0.999539435030042,-0.9260653631741161,-0.45674835822603244,0.1453310225123504,-0.23812979085091968,0.6489872840675732,-0.3260617658667371,-0.8337898125443394,-0.9985780794262314,-0.9074242138273018,-0.9989094528091801,0.9931533483639622,-0.9545294469268063,0.9790337423705102,-0.4370323613519266,-0.8526302278178037,-0.8769388576956023,-0.9938868019256544,-0.39216105016579306,-0.9689699364100007,0.9962005778410776,-0.9799184114563478,-0.5513264256290207,-0.31510869838588457,-0.6410268635254054,-0.9959053891702295,0.42163527373571874],"biases":[0.27862453221960326,-0.11684623963836394,0.15172033373929394,-0.6372199482139177,0.3775376937599355,-0.3182864537990849,0.5096463551226164,0.7412627583045774,-0.35509772630111425,0.26055434235887803,-0.8575161230606385,0.5600132539879384,0.6805667780628851,-0.3568731065522913,-0.22687021814385633,0.27660493418844634,0.218122437086098,-0.675667383810193,-0.5417502732550499,-0.7857659493476952,0.6651910586017374,-0.048367215860386725,0.07263384632110667,-0.45051685742810466,0.7358509349582822,0.006381722077401564,0.12195617511617451,-0.7631342584786087,-0.16792914694751238,-0.16753997133610632,0.24723374302107576,-0.2736742531888678,0.4720024332409696,0.11427020164827606,-0.7290682238174564,0.6294109054388721,0.3803078501032414,0.39143999317394484,-0.2200258274601885,0.07755399745634048,-0.4683765428371525,0.17500161369198908,-0.37804302580262505,0.20881998120241235,-0.31755558995961564,-0.6639448769869667,-0.33606967834505963,-0.7833064572910455,0.29797937156366006,-0.16315321958462214,-0.3343438681121681,-0.1670428641610746,-0.8609384321505025,0.2123003830053436,0.7283558999035997,-0.04460753249175575,-0.14618105661463682,-0.7233463916519057,-0.5802305477880504,0.10818721135501036,-0.8249096907408311,-0.23879892598441987,-0.6941707570758977,-0.7183849726927098],"weights":[[-0.4305976664948361,-0.9589310427745203,0.05122081329256645,-0.09666979769458914,-0.3122996410683057,0.2956645246189536,0.09541367408356027,-0.22316036568200126,-0.24127074645889857,0.47481711469600213,-0.715127561549818,0.30223744459420365,-0.04206623515484392,-0.3849612660844361,0.26053754965211395,-0.6285405593503601,0.7027259457897299,0.8813801956167809,0.10925038688630662,-0.20287790878551823,0.323763836975036,-0.1971681823738077,0.13401569267649172,-0.5723734202406556,0.24685002235639195,0.575309734043257,-0.021208610572035463,-0.5864471202344117,-0.11676192036458333,0.2732052646133495,-0.535470157832132,0.7044662478034922,-0.6457139024849398,-0.16629320657421803,0.6160906726715227,-0.3542454339145029,-0.9045674658405418,0.05446816236903873,-0.5352104154374064,-0.8832001408791952,0.5391783363142447,-0.21741381473336557,-0.4866587271482879,-0.04059689691115234,-0.10245202510648532,-0.5191425546159225,-0.46084759396093394,-0.3461296423095317,-0.6651781279381703,-0.6965290796969174,0.6074447206706097,-0.7043166198791551,-0.22253266541602057,-0.5478309085799796,-0.4335509080204176,0.661510094042804,-0.24033952774147294,0.29649041650831776,0.40711988444238667,-0.012792102392637505,-0.4626673658030922,0.09477600867394059,-0.7062988795214462,-0.27100001547810926],[-0.28441185691826154,0.6962526947536785,0.5310848498755545,0.31629284290434434,0.6528326966755955,-0.264381135864063,0.8078295594687245,0.30370471819734246,0.2285372524676277,-0.7472645173971477,-0.3056346338204401,-0.7732671115726512,0.6018930968037968,0.9253818166075283,0.7235623958161704,-0.5788354749103881,0.731467988086409,0.41288664780762085,0.35710768428982964,0.3659614364941446,-0.8697312878405093,0.6293899287873364,0.396610377510518,-0.5354229963704813,0.7566063772063484,-0.3977507713195247,0.5191518550947114,-0.04406790585010412,0.5070839671125209,0.006909227172246735,-0.33531761778175895,0.48105340399937735,-0.07313984600958412,-0.8103431261516136,0.7181682773784885,0.3095408863858676,0.6631910615512459,0.3865945511389639,-0.6811739563214853,0.5333575394822849,0.30546163843974616,0.7219688204008468,0.5305647665624,-0.10659521791653792,0.6995520695632456,0.40968445732766456,0.5358318690924073,-0.08902283164663871,-0.4922065619616668,0.8635098922754627,-0.4203007925217118,-0.6654719717661621,0.04946625728876586,-0.4637231034451883,-0.3284748802635774,-0.6048591148066962,-0.1534935117922515,-0.6128997172944237,0.06417877039233144,-0.066282092273136,-0.556609598078003,0.6116044897550279,0.1536875569109875,-0.4951539816520186],[-0.3426721310319534,-0.6373316986997517,-0.7326572500628715,0.30616924918996935,-0.6424571012351494,-0.046889217446044684,0.26728214093306457,0.6042845089860537,-0.8505696361381572,0.09561032309749917,0.6830211985820631,-0.2880402562140162,-0.41022966015488205,0.2959925219456844,0.4270069067406643,-0.31156328913695625,-0.23654678216589664,-0.5969711570186891,0.49748780574391027,0.7621135685374169,-0.5718893792343456,-0.2510568200364929,0.18434899380619474,-0.2908139404171114,0.18052819639054285,0.6118005778168548,-0.16615960960975507,-0.7859888479277126,0.36082877213730646,0.2641281508225396,0.041482526225174565,-0.4756519216337246,-0.7309928476474454,-0.4914972863501618,0.2823935305234768,-0.5110098406216276,-0.13347173786898536,-0.7088376543029468,-0.8663436526504422,0.33753554756973536,0.7791997390008096,-0.6426201872301602,0.7597480173243122,0.01190819034262125,0.3105450024573118,0.8282819817971392,-0.5615106804745442,0.7089682623873848,0.4325989098535682,-0.10369983431602398,0.732837077112968,0.3034402823530262,-0.213317511118847,-0.06876976717543049,-0.8012496880759432,0.5773752048058594,0.7401538324977054,0.5080084571843467,-0.11593836577153782,-0.2523413438355395,-0.7074261637469322,-0.13508925739138225,-0.5149934900555718,0.039357233499650035],[-0.37400402952598943,0.3668740305826541,-0.014346325330722387,-0.30220700085902363,-0.16520908260149247,-0.5629758195236274,-0.3922583690804977,0.47395314681981865,-0.6652777273969206,0.10973580386620285,-0.6613076054956438,-0.626381905316074,0.4267242141137525,-0.8894813444977748,0.32146721856154226,-0.22353683206613684,-0.7263948018241019,-0.7292956530066514,0.10152968218167147,-0.08947251600382117,0.3042898980098626,0.7113832601646036,0.19391266407562735,-0.6582788640376755,0.8742373207476165,0.558168237021545,0.21854930622502233,-0.4128241453597349,0.31472046202182913,0.304513315649112,-0.6908575449737216,-0.037133494867957584,-0.34645112538594236,-0.44537976056481066,-0.1538628136120681,0.0030153787733197823,0.6800431999691442,0.3913481948420364,-0.41119583663668346,-0.7128877294466829,-0.21729804765970773,-0.5553275388766252,-0.3764277318871093,0.4153274485959325,-0.5005973837415835,-0.545998696887253,0.5977964704931313,-0.5751300293214617,-0.17536073457431928,0.8337146855803883,0.6937472616482332,0.11347785121046278,0.4978995824158088,0.6866649057499192,0.679259135370991,-0.039445538076995246,0.2777814005448092,-0.4887083969619217,0.135051390426197,-0.4670606060666644,-0.3156666982304836,0.010310105159858307,-0.5328896600535867,0.7484256326222507],[-0.3312524395201251,0.23883678172893946,0.2923012615214969,-0.7111704118203419,-0.4040671898503715,-0.5877440021761493,0.8752634512598535,0.7957279779155674,-0.4785688235776432,-0.09771542358595262,0.42579745767595367,0.7075892106918134,-0.7980379525000334,0.3508347623331185,0.34066885261526036,0.7688438378796637,0.007510735445817818,0.17962636119015313,0.10347312066063219,0.2751470405021268,-0.05309704471404342,0.5043524639707271,-0.770550867118633,0.5132719272908717,0.2392906354293467,0.6750195448287799,-0.27387807137377695,-0.026870215482700965,0.4815980705509908,-0.3579443445570697,-0.13128598384820492,0.5156555664088189,-0.469375443583122,-0.47789302923997257,0.35314644139365714,-0.07339376297275879,-0.48380473988803185,0.396458107943957,-0.27117607939801347,-0.3213824216295299,0.3957830915616961,-0.8314263711166023,0.4443782099137846,-0.10379813208977101,-0.34074637166341604,-0.3888282159968057,0.36260605826079473,0.11246128093009444,-0.3740927545180973,-0.34208958935406897,0.2331526329611845,0.3967340830276437,0.5010732219665486,0.18935794927472355,-0.14209144462146295,-0.38964195315369254,0.06543053193532644,0.5949835669720669,0.29092460853832125,0.7199530539740138,-0.5092652614319615,0.6265869982411619,0.1582140869417229,-0.44047926448500707],[-0.7110225318800052,-0.10931995286687446,0.6797021278853315,0.17808378716485773,0.9394657658912923,0.35940199064995765,-0.5254308226187008,0.7153239665342275,0.10258093316943723,0.3401891743575041,0.6642098285337945,-0.4947891717612636,-0.1692552600695597,-0.3624511513616604,-0.507275126556186,-0.03591668787509661,-0.33965784187769943,0.740553152867276,0.24906726467873064,0.7592356544878833,-0.8149322623263732,-0.018470474749824772,-0.5805378581239632,0.6253029983846339,-0.058459149442882885,0.3881000359950274,-0.7483745495044032,-0.5612233300975088,0.06626226975149918,-0.26657470756863505,0.2596065052896291,0.21295230066442672,-0.5253692087784454,-0.06660333889374603,-0.28811030794745257,0.8181473747270742,0.11392334444674401,0.2872137275708615,0.14451671522467424,0.8498184239373692,0.4835192479990458,-0.2782112647769166,0.41297037500423217,0.58775828098633,-0.21770804341664673,0.37052541285279983,0.3605434991469961,-0.3226092103820081,-0.262733211107697,0.3936385221118043,0.3182303014320678,0.22727064334183303,-0.7808588396148635,-0.6548078600543742,-0.19069581986624184,0.16965046062714162,0.29670767082216476,-0.2768734002288884,0.8024943622290871,-0.5897388377399359,-0.09305185601727328,-0.1916707215410518,-0.7703846662308456,-0.6224962157526018],[-0.16735324908964733,0.25992817826325665,-0.4563527734313206,-0.08983607163511986,-0.4828582631438305,-0.300370988288176,-0.6186195696211879,0.4319831703084927,0.743141860956145,-0.6107530237669073,0.2350735125107961,0.2392172859940469,0.43541755660926273,0.7195878477257676,0.15836906174804766,0.4940881089398602,0.8816590696817608,-0.05883786007567113,-0.28640910087634375,-0.799088233993715,-0.29756647652120416,-0.05173689972613971,0.3414114734581754,-0.5056788852941616,-0.3361042818882295,0.08977435755383678,-0.09873517252815167,-0.29819133605624826,-0.49514617049034204,0.6878725362004496,-0.3633408072779291,-0.2755714057611236,-0.12479231482069786,0.1513999567788218,-0.2051743510323295,0.28002271895632125,-0.17371813874426745,-0.1237722510604865,-0.046464520340551596,0.3733818824374918,0.6835137937378319,-0.3467927739771215,0.5744615529588337,0.7866690555556022,-0.660379741168071,0.4050412434154915,-0.4184510422464778,-0.4008645849149395,-0.5834155765321583,0.16805616625657904,-0.47043165179847035,-0.2870209511848072,-0.1761688766223018,0.2808033294818441,-0.1590160437394611,-0.2561571551099947,0.19305875208269696,0.4122586070987099,-0.07341687360623395,-0.30008170376501586,0.24316173265710644,-0.1120894948464557,-0.7088203834707932,-0.22045418686613505],[-0.07102273712572504,0.13357542494642646,0.05077413617707899,0.16616315459092676,-0.5278785600984909,-0.2663662087789833,0.20184589062831637,0.7534338055964643,-0.4987949033331879,-0.7144449226653955,0.7615017227061307,0.4152862682406082,-0.16359196161520423,-0.44001306307298194,0.21240367697308815,-0.48980958062474267,-0.09998314319884788,-0.7444996198849296,0.03881214901068983,-0.0438908302782505,-0.6820525387225191,-0.5436135574275387,-0.3822866118577418,-0.6774310244560321,0.2831395703979166,-0.2679267766042176,-0.044159440109028836,0.2714603787196811,-0.13066450139537852,0.3364450160372551,-0.02473105073689741,-0.39858026592666074,0.6204558503273692,0.16094830228279444,0.7294786785261752,0.114464809267393,-0.1078322630804947,-0.6061615014555831,0.6897804126819904,0.47194278818142177,0.10920530851046928,0.2874064363050759,-0.47684054826178257,-0.4999893932774433,0.7529255744245307,0.7505292553263745,-0.570316266507237,0.6085010519093923,-0.4655422341178238,0.41891102074880404,-0.8637487899179709,0.8126784249483786,-0.01777297549059291,0.12610415922344387,-0.4751220636561488,-0.336887851645438,-0.42527976839738746,0.3064845107876524,-0.714082127066781,0.5044437504371655,-0.31610638573014727,-0.281148559055702,-0.37779704200432734,0.6740160631154253],[0.17605669019020437,0.6651339887599719,-0.10613046876668242,0.4625051241206112,0.3693094384222968,-0.5539775116319123,0.2395753347131777,0.6558322079363286,0.3501908820424875,0.7554260864602685,-0.8546363515798674,0.004421241924636221,-0.3996023899192065,-0.6278845390672536,0.2609899753609425,-0.44648076607990284,-0.14194401901401776,0.376327036911108,-0.7573587808953532,0.17770163258795213,-0.20334280577780495,0.22038330476391274,-0.43900558434113,-0.1911165379604643,0.42642037435703695,0.5918116327897434,0.3302327086774238,-0.6962562046925725,-0.2137303260447545,-0.7393539488848851,0.6445825983792254,0.08309883813223873,-0.3770799603758883,0.6017468253173386,0.5396746411869289,0.7769095357242358,-0.19304451559448493,0.5311779235378977,0.5376788239731929,0.3897777369235855,0.6353558745660917,-0.25289974823361494,-0.037679591770870324,0.12764621192142783,-0.06285703792743574,0.15185524866273314,-0.1057270363604168,-0.04715500552577358,0.7078257987690064,-0.10031311300084284,0.32328234629151387,0.24285260813819798,0.6434719146578345,-0.8562726927183846,0.4200570915817447,0.6011992799531582,0.34102530750975624,-0.4955671421264549,-0.09346071138005785,-0.6142220899610475,0.5720233583136146,0.4196804194443696,0.37952241301542167,0.3918380233811931],[0.6251987894058224,-0.21518426539283197,0.04781953821261442,-0.7144782991126181,-0.12409456539573605,-0.36113323942067466,-0.5155790420546131,-0.3328482408015493,-0.6626440811093602,0.6780447104611333,-0.059548551655921766,-0.48811829473399293,-0.13327226801960923,0.46190781990345664,-0.3882958698819339,0.18857482109376533,-0.21977419376129725,0.39984005795790284,0.13038762042996418,-0.4795989734211784,-0.44322396294056626,-0.9009010141046775,0.47377652412325577,0.26496615224987385,-0.3034593506584843,-0.6475839748927861,-0.5704912192065802,0.819030535968254,-0.40318007345859674,0.01155971750106774,0.6010889315415593,0.011518013885215339,-0.556678914963515,0.022720207315312158,0.6696375174741069,0.45362063731626945,0.6403929711786487,-0.3596684576581676,-0.3397098711746627,-0.3418669167607109,-0.40216702224869355,0.41528743714049376,0.8134073702562006,-0.5172193162301215,-0.5579486403184135,0.8061983313367834,0.20147637458896756,0.6240843004013341,0.8110747104829559,0.8545980282661589,-0.14838309776975178,0.5280381163385781,0.8152230773376272,0.5535984618156271,0.07815888374203095,0.454908973390854,0.08961177087191252,0.5122344291243158,0.6871464049508317,-0.03320047467042864,0.7385476109669558,0.5678578128580876,-0.35075486329676303,-0.26523523944734484],[0.3763142066013344,-0.18640314222835896,-0.7523523844504099,0.04015865572131316,0.009502569338681544,-0.5441983869162701,-0.160507869228251,0.28009144842339107,-0.47019718820875034,0.8401553742815997,0.08588293978748363,0.48386977465784087,-0.4840310222124269,0.5067544842027227,0.6213335080612535,-0.3321234296973897,0.6795145086386087,0.8623740094921225,-0.020637333685735393,0.6044033287461106,-0.5503765704884966,-0.17562546385231315,0.01432835642153002,-0.6270788411512253,0.8590648323889082,0.34211475810181075,0.6426328882513109,-0.47689296850063156,-0.6317113536830319,-0.5097226529449568,-0.39108821397138005,0.19999804380577155,0.07072806901480241,0.46308635044496493,-0.031239268146418975,0.48188331316686295,0.7983582669918774,-0.10172627096626607,-0.6033061583998676,-0.19071071211713347,-0.11323857003817278,-0.5303550703072752,0.4859636292308803,-0.3906498859023093,-0.26097550829040594,0.20945513297139173,-0.1503454211186478,0.20882163500898496,0.1981507098867364,0.011879738078338156,-0.03215907605980217,0.5980005265031945,0.01637284841062614,-0.3961524513366834,0.783128138585188,0.5739645190137904,0.847426240380596,-0.3709666431279436,-0.2635257477766041,-0.5750285171246432,-0.830080223673006,0.667025901360577,-0.4330242404128273,-0.1287590504107261],[-0.07417811954356618,-0.4557777359226346,-0.2553167911999352,0.602893433765417,0.21183924368198592,0.6854741884903599,0.6368688025966223,-0.18749969149215726,0.37934288800166915,-0.22135684911106002,0.6523399837304948,0.036296267448008845,0.3202962525943618,-0.7782706400462188,0.21955935592864695,0.8582881555426698,-0.6883498451941434,0.4177758164703824,0.7053570165594695,0.4958284670377231,-0.41088016551701567,-0.745808755757376,0.21648575290525085,-0.36828754287620696,-0.26174679195067374,-0.553312858402903,0.8899972515790368,-0.7220454114896209,0.5095506474381573,0.3611502635346069,-0.4581371585265126,0.41774404134487875,-0.14314085654237452,0.25394902115055873,-0.17568331913924146,-0.6952527914250084,-0.7541701953626011,-0.3379601107885501,-0.6694937895768852,-0.12463757687954446,-0.6591572350814979,0.37987754466178625,0.3810462042408151,0.1290266196390263,-0.31278264130701416,0.2260121665852251,-0.2651269962637057,-0.5951878261963396,-0.6928783024398872,0.3837999513687657,0.3765633672031029,-0.31926249039554483,0.3608368312499162,0.2519324772132782,0.44954443362154417,0.07807645541901476,-0.37194068755559173,0.032920970613313644,0.31741246972394666,-0.5749237340210843,-0.11054900322015804,-0.41219140561256506,-0.4705042878350525,-0.17007491605823144],[-0.4789793443571683,0.04140881537140795,0.27011685768364646,-0.34649340699120024,-0.03210109224796126,0.41931030535965386,0.16372721336878243,-0.2306630827967491,-0.17235262181117522,-0.48662372809881665,-0.32649695657177913,-0.03956705597598997,-0.5777237441870013,-0.7897572487086686,0.8129475871128107,0.15880486431573787,0.7479874610562878,0.3767426554545782,0.28076593860713983,0.31034432307199605,0.004402413402026184,0.14873168704284745,-0.22324485860061552,0.3962653382034498,-0.5240859625614276,-0.1134572433331556,-0.8266290663014085,-0.7690503750190378,-0.7528411570229367,0.3169959804941337,0.27525834916670233,0.4142544455431849,-0.011327560866448372,-0.230941682115547,0.19392802169055512,-0.7319235792397285,0.02462420065526416,-0.32280458064487044,0.2698841447071312,0.7133851589994261,-0.021085648283313524,-0.18817431287855202,0.1916615808426946,0.18406577786639666,-0.6305474335701882,-0.22170020826785145,-0.5243643483049019,-0.3784845339230657,0.2969245690095542,-0.1695975385041076,-0.7440249980478673,-0.34561213845386096,0.15665189873156704,-0.34950026493929154,-0.040654067467941424,-0.35160033537783153,0.12024781992138647,-0.6463072258908265,0.3961040934137117,-0.33500342156868035,0.15450947694368633,0.2676408212184953,-0.9433343933052586,-0.5772168725388743],[-0.029247189257527527,-0.08301199103623513,-0.6188319685299182,0.5601890312316783,0.6202097054450725,-0.6280657795868982,-0.49033462959859064,-0.0854567360684429,-0.06169962669763662,0.2108850961700789,0.26898440533589235,-0.5839999643176099,0.3984318751705724,-0.5368420599204798,0.25014891103760556,0.4339941553741321,-0.08553997146943582,-0.6854697912213061,0.3613187479451808,-0.15398027343785436,-0.28607121077455533,0.7858680349155824,-0.4467902131913255,-0.27089139522750105,0.46526227297948586,-0.06882784340834414,-0.5663161749721723,-0.5571675029560433,0.6000847932265423,0.3298252058983992,-0.3906921746526125,0.1973050049593843,-0.05224412540878953,0.11851726851738659,-0.2927706701755636,-0.3559484437645494,-0.7389520443424942,0.15079247242967592,-0.4787342068341772,0.14115523100489538,-0.9055373901006076,-0.4559187828127241,0.19449349607040678,0.6931459825006562,0.6066283204557361,-0.3323280429657829,-0.20896503860168414,-0.13920079618961853,0.6039462317581147,0.6109958666362783,-0.15531727732584372,-0.128320757036884,0.8075281284843342,0.46876530557832274,-0.36419420556535004,-0.07869075530930525,0.3719726313577076,0.6006197942681828,-0.3090656597136092,-0.417321150593586,0.03234816630867876,0.3124726005560724,0.07514559086181943,0.3298323766121004],[-0.015279476425782701,-0.32582275398911675,-0.7979542857424998,0.020997394261950547,0.15571327101043878,0.6441710930851214,0.380011438135079,-0.7987623994292038,0.5479420459689354,0.04230829962767595,-0.39066572074073624,-0.40305220492616756,0.6245203169296696,0.00008462135917619573,0.5500839801503137,-0.31449030651266613,0.5124472026964626,-0.16059154711904788,0.48756045411520793,-0.2697611498302631,-0.12888817523726587,0.7083318637684495,0.06048662355966694,-0.543597156298554,0.43909909604232433,0.3943389369477889,-0.051529761016872566,0.41035356914430077,0.30215728617595683,0.4752198524798509,-0.2133383208465931,-0.6548761666510803,-0.40951487509261586,0.18168195028480127,-0.1876812590172896,-0.7566558455959557,-0.4582623441122882,-0.06348294342395716,-0.4727246964752645,0.060845726245437604,-0.5254476177255146,-0.2726942429518604,-0.5510232441997456,-0.21686070641017574,-0.22812156292723762,0.19693733017195036,0.7496209034069252,0.18415545544023582,0.17097663938336394,-0.09413688010327653,0.018828633750704427,0.571733681767328,0.0921756676066885,-0.2508984906512447,-0.051617612609070385,-0.27836494044041865,-0.21686979859174627,0.07726200113117887,-0.2843769312916729,-0.4699603022112281,0.42094128181378154,-0.08406701462380972,0.08378156601603476,0.9174734519054527],[-0.20096691181071447,0.050177671003647784,0.0426173020659531,-0.3537883160803781,-0.18558658199086497,0.3028673432478608,-0.6602471210460479,0.4542296676547469,-0.6060813249118586,0.49444060053420746,0.4286957513336742,-0.2414062726673754,0.23194726675797034,0.3364920037856395,-0.10710272234495832,0.0996614249105432,-0.5318350944758051,0.230547814991643,0.7081203254555943,0.5814661535535075,0.5252740736001791,-0.3990909455445871,0.07449139086872483,0.08266124637208128,-0.10279261509918794,-0.38240148594817025,0.18959625271426206,-0.0724838794228935,-0.2510340159745921,0.23238096422578317,-0.28730267031239054,-0.5432640856876046,0.05646765639796386,-0.7114972498787902,0.20368908440047773,0.8010716015743182,-0.0343046581179659,-0.29077889677769364,-0.2792639366562788,0.02279141520801964,0.5271029106088653,-0.2706730816400801,0.8159927515325829,0.7640581478320987,0.014610154238814732,0.2178546310988917,0.10812057451916912,0.5309143316418187,-0.19503477669019553,-0.7961685985908991,-0.8409257453971559,-0.8727843316436841,0.8148358895374055,-0.3934618722530804,-0.060667342614810715,-0.5810428400101594,0.31655710387424607,-0.2489164885178048,0.7738741983458381,-0.3505222111854174,-0.8133972586034334,0.05011689901989813,-0.6595040681679453,0.44965149244715347],[0.4164283304188109,-0.556029181414406,-0.7842556281998994,-0.5095939047136169,-0.6023684271659746,0.5687218118568813,0.5954716247686276,0.6522157549212967,0.6408175584504372,-0.370938823653276,-0.4635268135854876,0.2026612877511721,-0.08891415693074195,-0.37081785924921096,-0.7350244709383471,0.016758033691649077,0.45559071387732214,-0.6691612543666927,-0.39856727442196993,0.6463479638038367,-0.7889651903308519,0.07268105074422088,-0.540363401400338,0.5703289704959937,-0.5105221693694466,0.4286158501182,-0.5393791201342064,-0.28129599241887165,0.6199936730179898,-0.18686038570912228,-0.49011844332124077,-0.3304233292426129,0.2604815884887263,0.11970011992521634,-0.7321072719190657,0.6344524026553411,-0.14448067099709405,-0.26921341733074666,-0.020310576677864955,-0.8786524288807568,0.564792695022086,0.33698640382187167,0.5765144952841872,0.09518928044163777,0.14990939420186145,0.7154674166854964,0.010542444076116375,0.26209292162191167,0.6017190945641162,0.45977962795050553,-0.6631092888690904,0.45766426870685506,0.745410135350732,-0.6834109447979511,0.6557222050347495,0.20382578062977696,0.6170727771860731,0.5064650874583613,0.45973256260627937,-0.10490605132510533,-0.2917120030576572,-0.29398079539732525,-0.22273199256294052,0.37222409118102084],[-0.7838073856201312,0.3432164521482156,0.5197274277964339,-0.19466092336214702,-0.8247512321426546,-0.10151464031069118,0.2711553833529976,0.5146948320748541,-0.4192898057743497,0.31061436877984805,0.6362484033670042,-0.1566029332841698,0.15248237409151744,-0.7916940465891767,0.659309554891254,-0.4177344047198641,0.6895864300105007,-0.033746319760090016,0.09678325394765541,0.647024554661039,-0.05192858654747923,0.24349829459756772,-0.3838275262470585,0.08857811964414164,0.804951389472601,0.3079113923642822,0.08474315224937806,0.24646241816427672,-0.40571172441218084,-0.5352086204740861,-0.09798305271993701,0.18454414796781782,-0.42977501174102956,-0.3098796865091742,0.18751322540092474,-0.536045579790626,-0.6442347615290325,-0.0023934831458638506,0.669086481723125,0.4025231532334641,-0.8091295728519744,0.32738102709677763,-0.5705494877732105,-0.06967286926408589,-0.6130920149768506,-0.7013088395039629,-0.40107068958773373,0.5843896810201821,0.4014059335525153,-0.0500685149012049,-0.4256722894526911,-0.7149941206154758,-0.7302042029615121,-0.030879563145370992,0.42446191329090766,-0.09901616643800815,-0.5217311831557976,-0.8921097408159153,0.17992639732972882,0.6985644530779711,-0.6981346189436428,0.374808867290078,0.29252545280592723,0.7159891599065145],[0.6221658684462215,-0.01685616642442922,-0.9081077103800804,-0.534407485454977,0.2030206088092697,-0.28571826263777855,-0.46280623205661314,-0.10243215073557538,0.6398912414976761,-0.5000358919917912,-0.5692383017755983,0.161108895926648,0.20122247368831891,-0.792403869794819,-0.25940315121298374,0.7004639228625764,-0.6411323754125005,0.8157693831490762,0.8230135385626379,-0.679872250318347,-0.5278487440997868,-0.7599300214938685,-0.568114373619531,-0.4517175414834473,-0.15603930721946063,0.6075640288006403,-0.4290146290750267,0.7882246637762973,0.4204407590616633,0.016406920523766078,-0.6651855857705649,-0.6177108911666265,-0.4711379142498242,0.01557634353939552,-0.320123051759277,-0.16879714337804563,-0.8506593331301867,-0.8292659422279555,0.5841100047903429,-0.3520775061827528,-0.24352563762409324,0.3289967084264828,0.6804414016315833,-0.6077097681315464,0.030001912923453777,0.6476373305670605,0.20243292631238508,-0.5843056055304516,0.6521604773214744,0.7654620165977088,-0.6462509161950112,-0.7373097818641787,0.6499996166315883,-0.641098603677675,-0.08720749882031353,0.21533112438908764,-0.4272915580354375,0.6763493492477506,0.5582146620151468,0.03656981471289966,-0.3830445191631723,0.2445513024228515,-0.09916541627775616,-0.2889638287349691],[0.6099129055584773,-0.5935237219577927,-0.7155259638363953,-0.21835257205641762,0.7321898020275615,-0.0025951688004004158,-0.011616570484762057,0.5827469889521144,0.4892046476253684,0.610503474291598,-0.7190355453197552,-0.6671079972242906,0.5735836980146658,-0.3306969477186915,0.003348344857924644,-0.2511456812948122,0.2866203862010279,-0.27014943257071694,0.35088472586574576,0.3253613133568647,0.3834149266033581,-0.5063975049512393,-0.4029088877931377,0.42848939030213,-0.2808343360534006,0.22626997562609208,-0.12603839329488947,-0.057337315946919154,-0.33051214418063446,-0.46027668853607895,0.44274245167001214,-0.2837112353694305,-0.5079662823640596,0.5403502691643348,0.6359508179303222,0.36510345255213533,-0.4247697951633842,0.027943861469721165,-0.5181906757497806,0.8571784906469699,0.4538093155395835,0.5207603803017344,0.06051035053992193,0.4658087212655335,0.11342313458641462,0.10429252997810012,-0.19153352553740066,-0.6119571974315776,0.5568137724801568,-0.4657142321735103,-0.08934922622966424,0.768256024730573,-0.4042136988718099,0.0148519555227829,0.15213643854202563,-0.044873014241836484,0.16477203676176114,-0.37720229144974093,-0.22703285810058482,-0.4833348181768127,-0.6355513282885319,0.46330664044553194,0.7618737841853976,-0.8366135443493881],[0.7322528950807053,-0.8108487341482243,-0.08219846024676136,0.2996134132605469,0.5276735655380668,0.37780498807275675,0.03352390175585679,0.8931398200724985,-0.0204110571160257,-0.45492266093415235,0.5500340053457803,-0.6873978994611887,-0.7509454326873011,0.6961688631370069,-0.008833691386723297,-0.2676698594827336,0.5138477496309224,-0.01107044230179266,0.5845413674873743,-0.21994115626497854,-0.368050906007347,0.38223743503136265,-0.6145225167236625,-0.027632917503245702,0.3534377472518092,0.1824523074886571,0.24198320708802168,0.31323686262849026,-0.548263264464089,0.54604498457767,-0.5066235687878813,0.5170405880907546,-0.7218095462420607,-0.15949762863450445,-0.7573586475695095,-0.06870920985291051,0.12242413781692585,-0.02727628212344224,0.25369699733070084,-0.03112517326183431,-0.6916298823925866,-0.3701407544160818,-0.21713428571078397,-0.6823404329438363,-0.31379197353559235,-0.8524267232170688,-0.34512261615275114,-0.5723997018196386,0.5892261776117341,0.5005270039971443,-0.3557174638891899,-0.4588184579854372,-0.3411186765844425,0.09422675224603244,0.2416104188545911,-0.3540062431801998,-0.2868638878881035,0.04595115461887522,-0.5321828843602108,0.5559590597275335,0.09499166442521356,0.25333268240986395,-0.8054407631275264,0.1827723090372001],[0.38542588959823737,-0.7157322070914287,0.42480978135505587,-0.6135685345934754,-0.6113829496020835,0.15064250120512845,0.09640745431668032,-0.00819719916031414,0.4165456549294668,-0.8252060877387372,-0.31934975278038447,-0.563860506863036,-0.7600076400512966,0.20120019878592277,0.40974079191880586,-0.08739349849895994,-0.06947800751315802,-0.2925428547495932,-0.5940001103391643,0.7906862192046817,-0.3887191711066462,0.05696240204269298,0.4722123460161769,-0.6010617606154747,-0.2732602535802005,-0.4609849432683515,0.6510811497891895,-0.14561873944137227,0.30657784344211714,-0.0405424683104062,0.2451515114444582,0.14414173861080704,-0.3130695361579726,-0.877396061446816,0.7384380972308219,-0.16217528498728018,0.3726858293552948,-0.16691270857460055,-0.5300070810893647,0.46501396794461436,-0.5054954234687861,-0.2153292099494622,0.8670349247237351,-0.07417848143296313,0.07510069103100242,-0.35845419878179,-0.5275636175538965,0.2713293551040885,-0.2591992167732841,-0.1745196379879903,0.1830870250559249,-0.3229536525108296,-0.02165336180292643,0.42800659238936234,-0.3592515241588303,-0.818285740928397,0.5821104266616488,-0.5245563107011141,0.5088334956940852,0.11702326398648899,-0.2189032422084679,-0.7540204483329598,0.5577249396510793,0.8213040648327653],[0.6510406645757343,-0.06698460237410564,0.30526680767550474,0.1553296653960165,-0.8354781694873975,-0.20172792790286187,-0.32658948952204664,0.04911556767891466,-0.003128609710408292,-0.007016655817591588,-0.20651859202713374,0.4368647035600868,0.3753774047738523,-0.07563299830890247,-0.06935038722745784,0.2527055250694106,-0.7580600768773911,-0.22157880248274103,0.5825846567623921,-0.8385235317479691,-0.2817740474720113,0.7740342159871233,-0.03001638166354738,0.6891498164758654,0.3186002433362334,-0.14099499000874116,-0.7224809161716141,-0.25755031046846266,0.28664500046320684,-0.5237238878247461,0.870264444333364,-0.4638269776846953,-0.2302408052214373,-0.029687723769242835,-0.5511356247020063,-0.2333366501918489,0.3961675329873836,-0.024381987750781653,0.39427937850937644,0.31109563633465304,-0.6947539189109093,0.2247467181391205,-0.16264125921699768,0.022932289088391622,0.20973765242200398,0.18034555638223326,-0.43960074004065675,0.1993123815737297,0.7137547335015886,-0.22901088203334719,-0.8833875937732849,0.5444601156723852,0.5484497804056999,-0.7444254421310592,0.657811523466746,-0.310333634404526,0.4841429688281898,0.31719501180601395,-0.06257070380571661,-0.7855373486861612,-0.04659945616723682,-0.25954843000909333,-0.8573820807645638,0.6017082790699055],[-0.45678244992258055,0.11460648933640405,0.7435115314556456,0.4703705963405176,-0.29612452283909296,0.9199733522644507,-0.43631943712933485,-0.797977387404138,-0.2513890976470544,-0.8092253571443785,-0.22818868124929786,0.013196769182166834,-0.6380072407776229,0.14077756059874735,-0.5342890837666276,0.5648728133051361,0.429159079417875,-0.36338694652723724,-0.4525668228536565,-0.08100300713911213,-0.6193856135244824,0.5716728468614023,-0.2510519523660434,-0.6658139374667953,0.3414387965066352,0.6716559895870221,0.32331280517549765,-0.5133116101228796,-0.4750809460338189,-0.6309063828115833,0.007490550092507008,-0.6279918309343457,0.15051113517799553,-0.669867162036601,0.8054511294303576,-0.5803298314857772,-0.3321396320751576,0.6926065426329864,0.541769585768629,0.8220263636915353,-0.17030932746195557,0.6992205955100158,0.06851259379895573,-0.6387430276196807,0.6589681746908662,0.8157486669615395,-0.5754009440431143,-0.7488590471102409,0.6339834131862465,0.14385819043434156,-0.191527865958658,-0.48757874867366585,0.1255497936692865,-0.3359697552529703,0.3197826836616601,-0.09073489316231287,0.3449364656734872,0.1871144621062114,-0.649767687722725,-0.19126743286404058,0.6675833656128781,-0.28452302234631566,-0.1263171620625841,0.3791129568553761],[0.19684662944783474,0.6968680625243175,-0.281337657013945,0.39757945613299106,-0.259325642942298,0.03664892812345055,-0.1068523173560646,0.4128331043848751,0.022183338981872913,-0.696345276161029,-0.6691616340126796,0.5320319149161788,0.320293356133159,-0.7646907434799621,-0.7175801585276664,0.2847425688557639,-0.2210732969686951,0.6422318933328364,0.17601157549201707,-0.38584644502532617,0.11653696077239861,-0.11454268875523399,0.03419070156984211,0.03675125469674634,0.1265580372295353,-0.47297620194336437,0.20723352513842483,-0.6659379575221036,-0.41432221695877236,0.6209024627222515,-0.43912133905213246,-0.6312200307540465,-0.634615399401668,0.36848002959718307,-0.7869807462693436,0.5903038712137454,0.28661978328426563,-0.46739852518384084,0.16585216807072659,0.6067680563862308,0.27709799404533536,-0.7992804504226305,-0.4022119744796405,0.3353397345455559,0.3838436338262141,0.2193813409540915,0.42542776916301395,0.06621153846362737,0.10703468292547724,0.25363759950923137,0.8170759610203814,-0.5459083883158418,-0.2043413837282434,0.08314673058489047,0.5480349997875216,-0.5020762912009635,0.47424201604277305,0.4481022062620554,-0.6164446938877048,-0.5420345249550254,-0.379301865154298,0.7782021040764182,0.7342464210570296,0.6872283409819719],[0.6146268310097214,0.2827152203950315,0.32090791172519106,-0.11314082655600288,-0.014393688893585166,0.4774344769011929,0.11947125494409261,0.11291294834156274,0.8353964891043564,0.04685126376766478,0.24655490923153,-0.18934409121221707,-0.7245306784231913,0.2883352269744017,-0.28810136478751774,0.3133095900782833,0.6485315757730723,0.35226793120817357,0.030575326341173603,-0.6911525762896747,0.4620712471310803,0.0921696650929475,-0.2144969666905221,-0.20758874391374016,-0.2616563073104554,0.116497929106645,0.7166260509454281,0.12251791243425214,0.573474609393824,-0.38070554102993615,-0.5876594619693022,0.40592163911620327,-0.0180136314250684,-0.01573054282816891,0.06316067041865336,0.23076338403706032,-0.6818695197165818,-0.3022116660738202,-0.08526459877328207,0.6136364377817102,-0.4036729620514834,-0.7972149674210571,-0.562110790405036,0.749514376557536,0.06561146642255422,-0.3114828339579008,-0.5628415209131071,-0.6376063236185501,0.6748430973228905,-0.5110111605300278,-0.6258946612965086,0.017378333273870505,0.8790928543393014,-0.8861715797621668,-0.7175270704540475,-0.22605597215198114,-0.7115520554584066,0.6799090954420837,-0.7418373714825678,0.10645824866623532,0.30091201161727066,-0.43458044469914203,0.39127291600228875,-0.4534769654014216],[-0.1474569161134729,-0.4021749961461332,-0.1893754519670192,-0.18809656706434708,0.6885865045749775,-0.40451304678920574,-0.2975936038386775,0.6674833366597885,-0.12975937296149298,0.8366158717071567,0.03830689114265512,0.2349848664671974,0.38871575917729545,-0.6833354075396031,-0.28307445871120596,-0.460809238151493,-0.21647299936009767,-0.7043673756148691,-0.6187905775731027,-0.10445869902596433,-0.5924744076871811,-0.12446754962252973,0.06099129593842173,-0.6720714906551336,-0.3164026911503273,-0.1250830214263107,0.12201456843036129,-0.20709259219679174,-0.32869232484561606,0.023507732766104517,0.3059192081208061,-0.5940520821434958,0.07946866918548323,-0.10374070638033162,-0.6606083291458823,-0.020674662355654405,-0.5507962541798379,0.40418562156198073,-0.861782711299582,-0.5349412370663679,-0.32901220304773515,0.5737928200369113,-0.24897163783501478,0.5483516375870945,-0.13231436243675399,-0.11597935842326468,-0.08718714764069314,0.1750686144111806,0.2531545643693751,0.11113385657594188,0.48970870237590536,-0.6495019325486935,-0.6909174749376734,0.7555123310664833,0.003226660966326844,0.7765484652365182,-0.5381786200512282,-0.3079044954307639,-0.1306909520039275,0.7287729712677484,0.28430027167701644,0.19366892699851435,0.594930650937207,-0.8010667239409265],[0.19710664117933813,0.7808455667605545,0.3429516912951437,-0.018777041348568363,0.4826149382860825,-0.40544959394826924,-0.05820472347794742,-0.11224339337416628,0.6659008440552499,0.5466134394974254,-0.49512912212978133,0.12498751866520907,0.16194369068270764,-0.3241882371403134,0.11907512042163582,0.2129352318884159,0.8134568040056764,0.06150924057461171,0.41543627196752553,-0.7291118174955673,0.33544531260041344,0.33707949127615927,-0.7216099509551636,0.2995931305410806,-0.8791503957954789,-0.6456278888481354,-0.1737567627910377,0.6224097536261004,-0.5531687423664394,0.40939392790661056,-0.3798397039870127,0.3417057705951173,0.4862470941093584,-0.5683728296686379,-0.5630756709527103,-0.1209916344212949,-0.2980596574897565,0.37653878938408936,-0.7349275340570826,0.3235331843872815,0.73252446184983,-0.7264847257965574,-0.13858356503777886,0.5183918307004064,0.8260843165136126,0.3393113055544301,0.3699154530540376,0.16809012302358167,0.2706516090377816,-0.05271118602920466,0.4531557540717962,0.4062577424082803,0.22903750178583304,-0.39202451777384417,0.6191206936202098,-0.46621184976343844,0.21489388103910145,0.5844275681559274,-0.6584185738545173,0.020194675642913218,-0.7612704311508209,0.3111966971955752,0.17662430142044883,0.2877268456382156],[0.6624773444206056,0.19149796091037408,0.39404435775088914,-0.6701700478624557,0.4463020411945331,0.05960500608558661,-0.8023976257120269,-0.7578498694797159,-0.5701655589307072,0.3480719530699604,-0.5562560217697599,-0.22989023278747306,0.8573507875481734,-0.40445063441997986,-0.7469082988075566,-0.679962184042149,0.007984197326922016,-0.5471209911695566,-0.6450037632235466,0.5109823139435559,-0.31606602887418656,-0.9331127635123235,-0.3007645349740268,0.795347397778088,0.7105829606620367,-0.6040630841538336,-0.5214081492780162,0.6521639423511805,-0.20010184603267023,0.19523671746095894,0.606495198004342,-0.4255236724220734,0.01544062180808263,-0.80144641145639,-0.5123751750825298,-0.08711296313245692,-0.1601339001371337,0.2701626009022837,0.05938213038142515,-0.7037811826706415,0.7284277096363083,-0.2585851879096903,0.6942691935651761,0.7573181682634064,-0.264213249789709,0.5193659967194093,0.43308174116774434,0.09657513294762365,-0.7629885852775845,-0.24378585885674398,-0.4367843691998601,0.1707549022125601,0.632279286688021,-0.8470954843689118,0.7835332046938687,-0.027898941376238606,-0.7155198531085529,0.5712702293741918,-0.6028959173750279,-0.6842382912051119,0.637347522952702,-0.6435943451158285,-0.3601712645141133,0.9405912629501534],[-0.671647196534424,0.6180058681973665,0.05846760556677988,0.35789944839837634,0.7757922103670747,0.11629624189638854,-0.3886686513059434,0.49853279510892107,-0.10533949009916016,-0.6439157281950433,-0.03304902606314053,-0.6921737307872393,-0.2576720540864921,-0.6093670771076356,0.780748909759995,0.01110316125468147,-0.10957989947511709,-0.7271101364910592,0.6236685920354251,0.7140758165598602,-0.053139063298306755,0.21234429899795965,-0.17469116716287114,0.04428053573025226,0.6879827930801123,0.13420607514621863,0.4474450540735032,-0.16817555437691545,0.4330482413074032,-0.7138262497838234,0.7403516623249473,-0.18984731074689498,0.7758294711508293,-0.5951886713852461,0.11632428816449003,-0.26115156164006653,-0.2580432789074383,0.6589646486532206,-0.501015929835233,0.5208256379432298,0.8725404702183841,-0.6634333767420586,0.08548447919581004,-0.21905988661606446,-0.6507977113644656,0.004649879273820878,-0.2499571250104522,0.30442168040639905,0.37497223822038295,0.008730815093878214,0.6060361899110391,0.6955597067324268,0.7129343275786276,-0.10418817208785262,0.41731385087297224,0.6481077646916948,0.41193428947900257,0.03347820950507077,0.3081512049064443,0.4877344911080681,-0.4299149092452882,0.11647742910908132,0.403942688310298,0.7138582627883567],[-0.21823999121207435,0.5426836354938147,-0.5469096430211764,-0.5133905871749526,-0.007813943740938661,-0.4132445747188961,-0.4321050194572523,0.11931762591506812,-0.6268965258805119,-0.18486628747952344,-0.23299992800378705,0.39024635670585295,-0.0019122396377910383,-0.5320797950971667,-0.19578822202114798,-0.6146778748405899,0.6307136790411934,0.17821175823718438,0.559953448681004,0.5107009283785497,0.12146110146264452,-0.7313176906284515,0.13725757672401784,0.2592126800681068,-0.7390491000541892,0.28706527314275276,0.7545960360428456,-0.6588211312175603,0.1653875815531219,-0.5044134725011478,-0.3465821467326941,0.2006017645146937,-0.08173128356616433,-0.09983282656186776,-0.014361007079709776,-0.23072599388971074,0.2608324812249693,0.16858287561938345,-0.27227883412144405,0.7546433284668318,-0.6701002950468266,0.23282407220756615,0.17328646747227755,0.38745369529957185,0.40524593676228726,-0.7223666020442454,0.03210067377488579,0.8933673011364548,-0.5886947736490167,-0.030323876689841267,0.2513236417103873,0.2985717451139924,-0.8013069039230643,-0.37395273450414657,-0.5571518415462141,-0.5229947947076337,0.5603796313938293,0.4636527535621063,0.20235378744984558,0.16365662328932884,0.14480695156799817,-0.33852693967169956,-0.18727829619562741,-0.05318478466703419],[-0.019796862193946607,-0.5447804008919,-0.8765496357989684,0.3030141160586147,-0.1469925095024942,0.6657898908364737,0.8437949932721662,0.1296167763972067,0.7129591373223212,-0.5123705964484453,0.3675736768029745,0.28731952196486965,0.6223011675954904,0.2844362683114598,-0.6702161478760971,0.3282877972581103,0.04128224481081638,-0.2824358363644719,-0.364887617773289,0.8230319539931706,-0.3524413140696783,-0.27434059039914127,0.1132294255441616,-0.8243176675634032,0.44785267912519755,-0.007606496705603871,-0.11182680452597676,-0.08308779644473695,0.6882929159971166,-0.8031385036923391,0.4820536738949148,0.31422054575182934,-0.23968873034319094,-0.6940417597371885,0.18593558332913013,0.12801176957027904,0.5083523101889045,-0.08477492410160814,0.03132915917394888,-0.334712710566329,-0.024259350227715304,-0.10800299670227188,0.5267199525891297,-0.22969495113919192,0.382682957609624,-0.025250512153092153,0.5929971662128477,-0.6243946136001,0.2955270368901046,-0.41452400605668915,0.6671597295534348,-0.5793285726735029,-0.17912273946795176,-0.012342597293661495,-0.3622701757703375,0.5970236531101856,-0.45308980533283827,0.6170225823045553,-0.7818877448180731,-0.09993662936739714,-0.11310377482801348,-0.3675374882780229,0.7603913198314063,-0.7969748219821984],[0.1356723980733745,0.2840559719541592,0.7634160063113598,0.29319145199705343,-0.5271540485732431,0.6300687924636992,0.5336409256283182,-0.2661094457429539,0.21982541757031626,-0.5361726448817874,-0.3394006884507694,-0.5984167548661569,0.05231577021401013,0.3160417221106403,-0.4485258767016672,0.1789855574234066,0.7361250130334658,0.3571407109877046,-0.5109846215028686,0.022661405467433404,0.7792935934420213,0.02566413867561501,-0.007686373953112793,0.4930769392617751,-0.5151241323543765,0.7351368697400968,0.03395081660037169,-0.6713412223995741,-0.022742147360024445,0.22117922039623905,-0.551102123206238,0.47183427974324643,-0.018208703294755546,-0.1637176830228656,-0.16808147034062837,-0.08934114509897073,0.14473159780724265,-0.7934113329985387,-0.6938764655619196,0.7057010968940041,-0.5128150005192049,-0.34079184381535754,0.12479216523238723,-0.20799231703876347,0.25516005274149745,0.2513553689476088,0.33362937963139294,-0.3075163734544748,0.14554261166101845,-0.11802429102147971,0.7641750488987984,0.7365879113176119,0.09567919215892817,-0.48791309507964786,-0.3905115617570696,-0.603065409942931,-0.0494591589681318,-0.6030740392360905,-0.1076084950933412,0.2506443073272956,-0.7173909930270151,-0.5225047822930291,0.8792389144734982,0.2574907794026653],[-0.5116308208805285,-0.5255882089906019,0.15470542409090948,-0.26075117694342564,0.06641346973530216,-0.37001899181616565,-0.6554876325586747,-0.2443874990982341,0.7142320109195448,-0.272799310999691,-0.48935285348633606,0.2781469429082261,0.4340460281327324,-0.009422903945406014,-0.10231926675525435,-0.2480756139866937,-0.029771680061328354,0.016759413909856247,-0.3660474254165566,-0.31563061833199507,-0.43866537257635796,0.22233378246957586,-0.5308951260599308,-0.439474953435855,0.4761750831756145,0.4812227661130739,-0.4072581234612226,-0.7588422928628009,0.13372914568580546,-0.28834682640609544,0.5865325946718968,-0.4623893484390809,-0.6339923403427157,0.49938858430851485,-0.5645064121825443,0.29837071932003034,-0.38313148326726976,0.5277908123547471,0.19315362754611032,0.12549105089960655,-0.3993425324417048,-0.5263050218362013,0.27299674043928535,0.5699799653158779,0.7301439780382148,0.47641662102944105,-0.6502083882502888,0.14238295119091043,0.6970680850094364,-0.18587179951275623,-0.47670342330250115,0.7569109555253153,-0.26311149099348147,-0.3584122877707514,-0.34457072519290155,0.9118334474759469,0.14476997625608753,0.15260132924638758,-0.7170568580414958,-0.08646755550100105,-0.6492080281530193,-0.5233336024958181,-0.2557479748758903,0.6589952507073108],[-0.3425186937179314,0.4105679409191087,-0.5658970491282425,-0.529088799482293,-0.005466055443465001,-0.4711206416027562,0.4761547117479746,-0.011702974485429896,0.5848540450601256,0.09834948368604118,-0.6366728874004015,0.24055085678677285,0.7266089041787143,-0.439965678291623,0.5867344963332382,0.23409688231429876,0.5179841758428094,-0.6698850141336604,0.283814532042802,0.6692874146641304,-0.5263951789467654,0.03419382220716305,0.4753247212035778,-0.17987956574460895,0.5351115821505937,0.6532903726367737,-0.5727666918634096,-0.12764936280175065,-0.7940388654325534,-0.03227158349289095,0.011188688118204865,0.22382583204662942,-0.38877871816504866,0.09179667705855277,0.08116017639178152,-0.0659338573747511,0.13363491721324605,-0.22594251527102283,0.19339172128513327,0.14071938623272778,0.4422244760005586,-0.11209196789310949,0.8520653335058297,0.8595430605478428,-0.5435049787092441,0.2233164581575594,0.0777961030085601,0.43498423457594154,-0.23767541637003936,0.5411292218673713,-0.05862639644515481,-0.23628075146831568,0.06628218857620485,0.5205485207695597,0.19438980436364534,0.8521686031311795,0.6142512412619586,0.15824448816936143,-0.857216925708983,0.6517629470325084,0.4023968898462606,-0.5917784406361988,-0.49088081011653406,0.35184996650876843],[0.6816985699607577,-0.5321803530750439,0.0818325545646219,-0.18888709528550007,0.47019517463590016,-0.2041606854683431,-0.6317701661050731,-0.416443583394087,-0.07947509682406528,-0.3646880529261716,-0.3753449532903114,-0.38772658694269313,0.25065095664966575,-0.5807852267718216,0.03331544101254513,0.11512874590546329,0.6324847532051725,0.24497698221296038,-0.7618057350604732,-0.2219323949996002,-0.4697062309482058,0.5712907246624248,-0.26123432585387385,0.14420147712105158,-0.28402662713069216,-0.38636779703602087,0.6570325897704801,0.42185934049398166,0.7104260877549721,-0.37576068718641603,0.24370361516275812,-0.4291876076244523,-0.1335517613300651,-0.07954525915891586,-0.10354729802550072,-0.16120002762147184,-0.2240777933357076,-0.8716080646807698,-0.41818199682609136,0.6490013963071468,0.4597102059332702,-0.4601022214680639,0.3858252735516254,-0.4923678808858669,-0.8324918748626583,-0.4693872145999679,0.2584431933577466,0.2085578477836518,0.6367597147657967,0.4271465382264519,-0.5228508490918691,0.09473967294730529,0.434271650687138,-0.49159894190318354,-0.31428600363216364,-0.31411173059266784,-0.70968310620438,0.2729489248665099,-0.8078703068497255,-0.2898104901030383,-0.18899336413776108,-0.6045823666666921,-0.8142464310828738,-0.6059798996636874],[-0.2232035649137316,-0.4487861742292865,0.6199183212166244,-0.30908409931439196,-0.25500315150892927,-0.29482564178859605,0.5673353772827936,-0.4744256237335871,0.0034501091973274667,-0.6777275523968782,0.614573383385848,0.43254377442000114,0.3328011808314343,-0.4836776689686404,-0.28690097539163084,0.7871776754265181,-0.7983393408963846,0.5891516263834536,0.10241122443480843,-0.7240243574173186,0.3351964884520781,0.3583948946713341,-0.3979717179306806,0.5158439946010002,-0.11757841228190791,0.21493001728520444,0.008763526279212022,-0.06761248122811503,-0.4945794390951116,-0.3693291651854861,0.7529832342939942,0.40520840178226564,-0.48096593532529475,0.29811688122006885,0.021631601316385862,-0.02562033850734835,0.16824301477942583,-0.42211474678389027,0.4611590608914775,0.1723256101746109,0.07202575943952336,0.5617796173387627,-0.6791874636077329,-0.059589788242642855,0.6624317295197146,0.2098895356017103,0.6123234581258696,-0.5293033995456845,0.3244985003934971,-0.18870587956853013,-0.07694565965404487,0.8508669828665637,-0.17932093820373018,-0.5242017082490332,0.6666695083843664,-0.6914052517363825,0.4167581829281656,-0.5600613485523881,0.01751589497692277,-0.47908616631421613,0.6358928927060845,0.13866037911082407,-0.20694045479233542,0.14259464685634848],[0.13226228629397357,0.30893733649018057,-0.1614082833694419,-0.33247601336529664,-0.4765546482926657,0.021303123938711477,0.45537244267650545,0.07385668591300187,0.36199746103670594,0.7572535864878049,-0.19323455372458453,0.00531600286875239,-0.28165634196265216,-0.17733875152607514,-0.6790910834813995,0.41880270164074573,0.2547820329689887,-0.05471654435034656,0.07846934209029191,-0.5765114318825351,0.21520986031982603,0.22065908830209724,0.46732107832729236,0.5180229153121632,0.09656480034309356,0.04915505220909011,0.3069404862774081,-0.46893305435518046,-0.049866270060692164,-0.4973816556255652,0.1340051624324049,0.5185526733296613,0.5926553516234745,0.6548862321920418,0.6880814044922801,0.12490263613420705,0.3142151025625227,-0.2546471064268512,-0.6038107177875963,-0.266697712692212,0.645658364139766,0.928221862464136,0.61834139911963,0.4798572390531566,0.6791980440038266,0.8487485742934966,0.3450291497903727,0.35355231387613756,-0.846240094903613,0.3333513331233351,0.6568521607380953,0.41910418964225327,-0.6051486324467001,-0.36463685504818755,-0.07666024998548587,-0.21746136922198334,0.5487677327161411,0.16599514818690797,0.5080341727845118,0.45580975622512987,-0.6186557270629065,0.09244025652281418,-0.41484148652400477,-0.2769749465896907],[-0.058329798732893345,-0.3814056555517209,0.18270670185207705,0.09553042603282084,-0.17121664848312612,-0.23096064077650702,-0.09253875348390317,0.7431494862293446,-0.3762342601379559,-0.13803819619637547,-0.21113661867601474,-0.4681282645696254,0.23855030233116958,-0.6097318563422196,0.3453123841303304,-0.26953089829714194,-0.5087559043869051,-0.3138011128217194,-0.3135012708272271,-0.23281078419314616,-0.38652478435163706,-0.6489378927549627,-0.4077061448502346,-0.1370710512878902,0.6568045275575927,-0.8037145041871807,0.6426296871300015,-0.15722081533204385,-0.08190971412749981,0.5594758825548656,-0.3581103265988058,0.8329919839240286,0.3044908035224927,-0.5769523069763156,-0.5230380580414018,-0.5036687495710126,0.8351325029372181,-0.48706984398550374,0.43793742344175,-0.3350486398938173,-0.1972034456456867,0.4509669280352989,-0.2202062263813419,0.5513148027414145,0.8553321607422634,-0.3084006599660459,0.0050109988088414825,0.08493026911219881,0.43443747601493343,-0.7646287614866101,-0.16503170374029907,-0.33265081350352754,0.45918356993546494,-0.3921669313879171,-0.30396521839847,0.5749485222667963,0.5976002293445186,-0.2223978919847911,-0.6085351234798139,-0.1451139558128206,-0.6650157583382948,0.34475567565103715,0.7437270648200559,-0.04308030079600317],[0.5115232652003285,-0.13665326523435184,-0.5679208669307995,-0.0461113687693494,0.04852377689585988,0.3176676447921887,0.6368330912512734,-0.3015549218787721,0.37857884140145714,0.7397539919274514,-0.796037446019336,0.6117148724082735,0.3152234987358083,0.6926630783624463,-0.8275512116543529,-0.5211664150082678,0.6798584146370075,-0.404331027903155,-0.6294677956716208,-0.5080408377329,-0.5073504314211132,-0.7784504280381574,0.24325565931136542,0.06989771243534393,-0.007837517231987445,0.784121362760297,-0.561375169918734,-0.5681070161475317,0.15899935813781113,-0.5913629041452564,0.6825455276328629,-0.03154988101362344,-0.022298024480309264,0.07563003292559534,-0.02787460583944018,0.6669257039706713,-0.25498436248201123,-0.3174273773069457,-0.42805523317976324,0.4718006665411575,0.31013953668915306,0.08982572399084687,0.38210093649515664,0.5838478799882875,-0.01811456710817899,0.7946057279413001,-0.2962628234231663,-0.7948407787153908,0.790829099621873,0.8773777749794202,-0.494505211105088,0.15594632612135406,-0.21785545760422498,-0.5275360382860472,-0.4503355382881691,-0.45532532608908793,-0.027644262939502062,-0.2238347533352032,-0.3629954084062833,-0.3550601500303705,0.5287673961346918,0.16021414185756366,0.2934282339640955,0.2580158811590632],[-0.940393321691364,-0.07291823528666841,-0.05596270569675249,0.621314710063315,-0.2723198659326574,0.25094501248343243,0.2453964112632654,0.09605017463970467,-0.22814698850261167,0.6257205470604545,0.666081023243901,-0.7234239395579205,-0.9184163334489497,-0.29232518794456996,-0.2228997083171071,-0.16526603185667604,-0.41630804952306844,-0.43356647139417726,0.5581152147933366,-0.4163737703348259,0.4983224926643077,-0.5856702086411049,-0.014275817119827061,0.6756527692392559,0.4374551516655859,-0.8025026174540908,0.6491196727791968,-0.6350373801586588,-0.5327487035890434,0.34422255870294594,0.3588148755319636,0.6442236168056115,-0.7937010849745592,0.6649124719069721,-0.07973139702061205,-0.6466043180962892,-0.5742879568194736,0.4347914911413684,0.13219612180908058,0.3511732485547052,0.7985196631265532,-0.16034430232129127,0.5802429072330535,0.7977600892256065,-0.7885871779256113,0.22706789346112077,0.31502208556504563,-0.00763895220912203,-0.819082588973917,0.08035636754726298,-0.42872806380992345,0.5118058598330439,0.024299123924223065,-0.6028134300490741,-0.2124569285408937,0.5253624474269236,0.7387658908842064,0.5373277334201287,-0.4012048279502984,0.22294034871715507,-0.12302358568988489,-0.47948803869974876,-0.02631127802243982,0.04646290454396523],[0.2715795114131725,0.0007195157116904882,0.08720201776486841,0.7731311596417931,0.4869456003633365,-0.6139796771486358,-0.28126643012230956,-0.5819108868883868,0.5401079101716706,-0.17917861331039597,0.27220376663032336,0.8818008231822778,0.000350061999471421,-0.7407019774735883,-0.11706065998805859,-0.11157204964861361,0.6070043915432859,-0.33714251471815615,-0.10856744674383206,0.03234725042112402,-0.23046679150085098,-0.22209068275870586,0.5492600876498017,0.18464872800253596,-0.3699163356264056,0.24770376962115137,0.39942618546139586,0.18034699806418408,-0.22762441642431738,0.11634045569433882,0.31262270002301823,-0.37914834982090234,-0.16007101095722698,-0.28774826366553063,-0.9466568428903356,0.3530035415940542,0.4986882357013499,-0.5045636083896063,0.07051174172770461,-0.18818091017388128,0.04192952453093211,0.6793320493560264,0.2957267346345025,-0.23501016746619807,0.046569978721803684,-0.43170263603525083,-0.5825895139942467,0.03687601775304333,0.16573504873902944,0.4138219932758841,-0.6034932051475553,0.024730393906725934,0.2878592982104569,-0.06288483555340074,0.23654359119787827,-0.06067603077163036,-0.111838885136607,0.4561130180586089,-0.6135740357889496,0.04062675664497695,0.026198610784383403,-0.24393286525746793,-0.6915249556412371,0.18386498542918928],[0.27303024668025877,0.4918725100552136,-0.15672335859934894,0.04232549369200722,-0.19501987808168714,-0.4771194216021876,0.2952807394971487,-0.4380946429226309,0.5443067746796122,-0.1765300693391646,0.6383578642861583,0.02501114486924752,-0.07240974855411936,-0.32184247471611815,0.14830328652630098,0.41038742333337497,-0.6348952101753899,-0.30769044144357904,-0.22513557351221014,0.5792004323410078,0.36860311556877656,0.6021096079712914,0.8922193951592603,-0.56829159574765,-0.713550289177563,0.14819602970135493,0.1612924409761224,0.750217498137334,0.2776337864437103,0.7654360858915993,-0.7182385736036501,-0.09123036260229922,0.6168934754552697,-0.18324300921526337,-0.5927856876849853,0.1776432569987026,0.3185564907588676,0.11452764301827889,0.4567526735167541,0.5090791617719255,0.013876328101636637,0.9117528601888809,-0.4667942522915691,-0.6221933524391551,0.29756267184955565,-0.30788165234123166,-0.20346661038779917,0.7146609423510142,-0.5480889049038721,0.6689449901558437,0.5826528904860728,-0.23859588218935424,0.2692266318677782,0.35019387499014276,-0.777217633356136,0.576945474999305,0.09476178683070231,-0.40458990000246975,0.5392047334106777,-0.6203858413383934,0.12316084167987296,-0.5111333014989135,0.04819982260554967,0.08426592302502428],[-0.023556086892983052,0.1976927319892866,-0.2780940008531335,0.5192584818740126,0.4323331843638101,0.7238790313299411,0.7349810115456851,0.29274463576235027,0.4415327195660461,0.006682178894404062,-0.6773676507741297,0.5374937663258356,0.11292375162508284,0.5834426427361128,-0.7633955832860646,-0.2579341544838246,-0.13510376293017662,0.7898361334095982,0.2693810700494817,-0.6176041937861323,-0.2945885265477707,0.19105666078371042,0.5338379676241795,0.65155574976196,-0.5882732918523869,0.6196209519243783,-0.2657507256801196,-0.4372672435755829,0.8322197888517386,0.5037097359030932,0.3510499421836964,-0.46089730130362616,0.5430268080369081,0.43563452819868,-0.14065484884812862,-0.15942205971524231,0.5052392802571439,0.7941455985432606,0.8508774659723434,0.34671450331791037,-0.5871185281461886,0.04452566456708881,0.42579319255394343,-0.6552489800432229,-0.4225533679949003,-0.4236211663405185,-0.14193045346404287,0.5177531660021408,-0.8190183811410554,0.7304136821452194,0.6501748626203833,0.05878601856424892,-0.26768161120969214,-0.3966422585009298,-0.220113579828785,-0.1776024020821656,0.23532996404017736,-0.026531235532801234,-0.2182247367044159,-0.7287464797718247,-0.07465145383345562,-0.8948973946534013,-0.6589956365972105,-0.12072469594005453],[0.036424987766908556,-0.31776143963365067,-0.4831942963917819,0.7291694511147906,-0.7727437279932777,0.2918694496756601,-0.39028307239352644,-0.2426516950186397,0.4934764533806826,-0.7661482968935293,-0.3724944303143338,-0.1972179388978667,-0.605914237900939,-0.7081127018423681,-0.6727278157690602,0.631757526943701,-0.39113370378639345,0.5301383056304213,-0.39639989205950876,0.12887768425159085,0.23817932206214676,0.3993218022774093,0.10888226358521591,0.45629967887771217,0.6186568692828267,0.004551139128907922,0.7054035993898602,0.3744414846625953,-0.21167204156925357,-0.31056980342890883,0.6665823736403345,0.4700408929252605,0.1839362438704809,0.15303815444441993,-0.479129687818333,-0.052552093490838614,-0.0024133035083554466,-0.5668973190935579,-0.45784587177510006,0.04260197816946887,-0.008813528579370289,0.23876152764791447,0.4144957809276366,-0.005144508139112963,-0.4085136374016737,-0.6696335241124776,0.12367563687824898,0.49344138460480796,0.7209579588737788,-0.8594155288116905,0.4186044417236999,0.22116835575683985,-0.3851942749586476,0.052059529041405816,0.7926611137933276,-0.8075641821214248,-0.3080576496752808,0.1999944118841978,-0.3570908263390894,0.09026219682066428,0.260282807477527,0.1218458519946628,0.12435944477199445,0.29824074199060835],[0.4480387795218562,-0.512855006136751,-0.11822454299559086,0.5895365205235392,-0.4039891906379014,-0.41495695085419704,0.48661991076096256,0.47974344650463363,0.4611958451426509,-0.37594941431980766,-0.8782692932620281,0.5213778763125831,-0.6100750521290361,-0.8458063989520336,0.5583244726811283,0.25138296093791374,-0.06766009947081486,0.1590555808305273,0.6104228995536309,-0.7169818574951381,-0.5043740099719372,0.4817736103129397,0.17107715123570422,0.0024446834371259288,-0.15363424395748165,0.5709540485834421,-0.09926598646360973,-0.5861586950205138,-0.03060976524303627,0.14363691139977813,-0.6824453949752782,-0.4968590553424532,0.28069585045468814,-0.7598142561668653,0.5601497429268263,-0.48523793785668584,-0.18093048542577234,-0.42473907366647135,0.814308476101846,-0.5397784315759719,0.6147498272082472,-0.19263546267561593,-0.17211407294386855,-0.3121496092601118,-0.5481586384519562,-0.2762219348266958,0.6294770808971183,0.13569077154374976,-0.3789221087553833,0.4871426204216872,-0.5517856304285712,-0.6716279842689101,0.3993034212392881,0.25634428409185483,-0.05200474417463996,-0.4217716620290268,-0.72400928057113,0.19792773047780196,-0.37367953326519165,0.08201625948932756,-0.21808468498090627,0.6830082272075977,0.5786699172809129,-0.4542682478207072],[-0.08362096451619938,0.45601174068752975,0.7192450845832431,-0.6565591555026864,-0.14290475444638795,0.4798835157833776,-0.48758997064727727,-0.5907769762596067,-0.3051887845855683,0.3863820225826059,-0.27999481649988667,0.32436658340285085,0.6044975423781934,0.6976831769757091,0.18048675214822807,-0.7322218000738548,0.39141099198108026,0.5295430718091846,-0.01758248359278186,0.06947907712765589,-0.28351877264658587,0.6539371033760597,0.17184401716177922,0.12145930622707816,0.4867963030273077,0.4559733402675082,-0.548490268259599,0.7801193351951731,0.0709091011909403,0.32810799728185946,0.6223489161885845,0.11885704423836385,-0.7925100800162748,0.19471335919154062,0.4814289830755005,0.6192330939233308,0.18738212711955843,-0.7502410204426073,0.2279950525258143,-0.02246489433121099,-0.3006375010584966,0.6609063188801423,-0.6328719048615469,-0.5880622322910323,0.06552561749268626,-0.5792233570834114,-0.14926217808943787,-0.7395890096061877,-0.43465391703613854,-0.041273444577638166,0.3808261200072637,0.2143801118181724,-0.3035664973037244,0.463894593408019,-0.46998622682597474,0.38544723622791405,0.11098920619449071,0.078279424800483,-0.07161098755948432,-0.13700339210206214,-0.6048828593561804,-0.11626456212715552,0.25731059967888426,-0.7263224379620155],[-0.06962231091802833,-0.649810328941868,-0.17641526429645787,0.41948558863152774,-0.22767372848213513,0.820789824417059,-0.5181022795038228,-0.1147122955967278,-0.24525418291082662,-0.6912785586677754,-0.3892391709212836,-0.36912424354157525,0.5690773634783739,-0.343570764636725,-0.8023683655709735,-0.4296194321946172,-0.5202928483333692,0.7519755520150166,-0.1119838386171082,0.8632338777814851,-0.7502547410175218,0.06044777906763055,-0.5254517697182061,-0.5910849276125747,0.14938130809252959,-0.14871685872406173,0.8392079179732621,-0.2862297193193376,-0.2822101839451363,-0.20445733819765222,-0.20547428641944293,-0.4034756437401412,0.27745796076530116,-0.5121466655365904,-0.16371196008228767,0.3437836146908936,0.6354879562354588,-0.4093727337257762,0.06561974008718185,0.2215490015229573,0.829417567701529,0.7241754213913731,-0.2505486488004889,0.4612142437931399,0.05710429990293503,-0.3162395101473079,-0.6790987976484424,-0.7169939003345918,-0.44538517244995,-0.5593620485598154,-0.3629072452983856,-0.7400113154271414,0.33942510675637466,-0.2711786216844565,-0.03170486026621072,0.38507748687195287,-0.27571786839656687,0.4557073648019938,0.2756873318222153,-0.35129898487433,-0.6595584387070133,-0.23295096204537102,0.4928203121898208,0.4933438784056574],[-0.389132142110739,0.0489189205088772,0.5397446782511016,0.7925665735128776,-0.5139667754490294,-0.4427864669390822,-0.13389057360510576,0.79951076421241,0.012726011427152628,-0.13386992899495506,0.8052057392415956,-0.5058476064435902,-0.6165108656672738,-0.4227806898190948,-0.10461168282250788,-0.6659027882132904,-0.2962202293938142,0.7903923993266331,0.36439929826035733,0.3045550392886608,-0.17956388544032043,0.504742990801774,0.625372284924635,0.10081647367384683,0.2823274177969535,0.17231970734609403,0.12424777157030886,-0.31250406141128717,-0.8419104670131812,-0.1040723340717602,-0.6163318644534339,-0.3431314547309781,0.4427050129737334,0.6946741421485016,-0.06707506233125848,0.1925152083969407,0.3600631948487101,0.09775185367265438,0.257035083309162,0.7900224082019429,-0.8151448740923826,-0.04376410479725357,-0.2021259649218431,0.41734125992015925,-0.4884519694449849,-0.5303227820599443,-0.4713483644751504,-0.27998753436167123,0.664487562836825,-0.7626517574484308,0.7113044366134129,-0.20842328454216302,0.7310263758399071,0.7123961473918765,0.4778633292588471,0.6070065702432581,0.6827189724440582,-0.4287487765937864,0.5214800852482083,-0.1932267267740997,0.5748954638339654,-0.18804478651116951,-0.2300870360790851,0.41234490971937865],[0.14207675858775426,0.35693549660544255,0.3373591070204919,-0.5902785072422511,0.6271585336423617,-0.41218325984413906,-0.6995143098092551,-0.5836662422721799,0.1888658818208347,0.331919992650054,-0.2031349444847277,-0.5405972568517006,0.4504699679692643,-0.016824816988697644,-0.4938056294524493,-0.5487795671642686,0.2515825581496385,-0.5083118168621674,-0.26748543703528616,0.3990801013114351,-0.7224824390479323,-0.25462110415581796,-0.4382903087812877,0.3672017154860525,-0.6862370103976654,0.09081722206569565,0.31316321035391914,-0.7352443158679866,-0.5022440160209954,-0.7337851151887095,-0.34919241064737205,0.3502163688813527,-0.33474396477883206,-0.7158642304241138,0.34174808973145787,-0.7368413864346537,-0.6033659606683112,-0.2554844229114934,-0.44373819093158107,0.7937148739875866,-0.7176554304064413,-0.8156553625170897,-0.29205028948104717,0.04564878071198952,0.09829416281126124,0.13437530385096197,0.5157056577554457,0.6320842731654581,-0.6178967711673706,-0.8444386334872442,0.43443072450501213,0.47139075553106213,-0.6620611794263563,0.7257757830437401,0.6085413418639798,0.6748471190265677,0.12826988591280553,-0.7233823156453867,-0.5412159445666122,-0.4418996580354706,0.5531804560493089,0.21091146260646365,0.08575605302009504,0.7964155813162304],[-0.5018589443959872,-0.26101034789288147,0.47859512919900227,0.6714108964294201,0.7591592667399749,0.0772912622952312,0.46146597175150383,0.6020807297389861,-0.022134123790969018,-0.3240087139050143,0.7178586970260967,-0.5686890153880888,0.4813350462007908,-0.25681668180768347,-0.5745049432579723,-0.3685332620113222,-0.4421062969022451,-0.5088411214461088,0.7390760161323386,-0.3984102453565397,0.3241621887000142,-0.28302353603343544,-0.018630375931623533,0.5643440431421315,0.4992616441552433,-0.6550057406416527,-0.7231592025740454,-0.008425231440683661,0.6358051575985018,-0.14366967102358125,0.421708874160144,-0.026550466553227847,0.5333142697607662,0.42060711187308003,0.573014446770455,-0.08242508902239784,0.778777950239133,0.46551026243821536,0.6089912301570325,0.5962519821748586,0.22737235662282496,-0.659389665146761,0.1397082053445638,-0.008253965837919486,-0.33470941764424567,-0.2493252271270161,0.8659423539050812,-0.7716589815132624,-0.1272413332028245,0.5674046916885922,0.1358358116407795,0.3041182622443118,0.7475593043235325,-0.1380137091474533,0.1878332489504676,0.48327947600902554,-0.6496016406259963,-0.0437249093129527,-0.43323268063749876,0.32852288570350635,0.010842711127792714,0.5534607459510512,0.07929779759449695,0.38671165689744963],[-0.5925741477457278,0.7452953564046572,-0.2589894919006478,0.4904935662802541,0.7309061834567,-0.20786523682363922,-0.638454978168205,0.15845304204482213,0.12827176063766443,0.33939924299891344,0.35454234817745656,-0.2763335952867345,0.1926190290123877,0.45496565431758906,0.024156419613427293,0.7305604606814731,-0.1680788888964112,0.34575446899667284,0.6358638700248216,-0.6959791316322659,-0.09402772013510818,0.09812037088894254,0.18277593771775136,-0.5282066422012901,0.062200802480368744,-0.7349852083761753,0.6716601533701514,-0.4969716273197261,-0.5233546677088576,0.6389696740510714,-0.33757799084451107,-0.31427185850122163,-0.7994396302300149,0.605322961506876,-0.713960829770854,0.0911837391261483,0.6792861242993895,0.5881305248911117,-0.3594729998964248,-0.30237311046867443,0.100814107866394,-0.7520152453760505,0.8234110982153082,-0.27771400361585863,-0.21940265063967893,0.5782106150445949,-0.3163355555979794,-0.2328427310243758,-0.5113404158589447,0.21455243838479487,0.5973491766613661,-0.4463776164791434,0.658929452118223,-0.30698469740440393,0.10255112713357889,0.1663844946029991,-0.5206166906686274,-0.34475370068469535,-0.48813806316952435,0.22301716130755234,0.2212948353951404,-0.36502547573296806,0.10999151511693853,-0.5742943641048833],[0.16645711347348696,0.30733375505968397,-0.6761020241545405,-0.47666960203328806,-0.5549748531493861,-0.4340432153478829,-0.03415012401679854,0.7029277316334939,0.4111958765522312,-0.6461727064741292,0.34866327693768195,-0.006351126961529396,-0.2071199423117005,0.36684159447643533,-0.1522622407457367,0.13616870111938745,-0.4364464039783609,-0.0922138502641191,0.8852844780555063,-0.6376093137696149,0.05711615361194855,-0.4162308997192863,-0.11072211631459827,-0.05512653713273352,0.48485407550133175,0.4309292687278241,-0.7726792575227117,-0.2866994591269359,0.5560095528516558,-0.10836147497654214,0.6984137722456765,0.6767778689263143,-0.3916956334031606,0.16194795910937798,-0.6479206382817078,-0.4835997240747725,0.037618371614623,-0.7323155424302761,0.16770250844020806,0.20372617714998642,0.008131547492429834,0.8143915105791873,0.3561073604575584,0.7490977044703526,-0.24703991762000432,-0.44451192833421527,0.5365500726250321,-0.3341155045888408,-0.4484507673642004,-0.5609745950819851,-0.2816954851072287,0.4372269025739529,0.06319077739521378,-0.24117836636505477,-0.3532553076974005,0.2612805603880852,0.7488301033713859,0.3011560401482428,-0.5434157113847237,-0.710513693051116,-0.6630024380662041,0.7919636366085184,0.7227478258305705,0.6789045506607064],[0.4734331283446215,0.8787438986792225,-0.7083963629238864,-0.018811592647575703,-0.08355390268416318,0.6881106556137495,-0.19873924543600882,-0.1540331131981925,0.4015442962690116,0.4218105632609788,-0.7949493021988802,-0.7671920154527508,-0.7871270685789149,0.5003721559564647,0.14865914702528946,-0.4350915671260831,-0.7188396595644203,-0.7211344876043445,-0.2222346384865035,-0.2016396724482465,0.8455588113024113,-0.7063542241992617,-0.6302851566290752,-0.33858136236210834,0.5547853189711227,-0.04048679608441019,0.517312302426612,-0.4746174502856467,-0.6678647937628127,-0.07703229319214028,0.6932052504527819,0.1587035013341348,-0.06913678729937173,-0.13975679910629946,0.7212359358525564,0.29287765080486294,-0.4382516968419776,-0.09002235698887956,0.5626500992494798,0.6410494945857171,-0.45015683898636016,-0.2650831823470712,0.7628258813373705,-0.8091112670505893,0.1266175437037802,-0.6920099753805723,0.05456415874327997,0.040845374474566376,-0.5011344537371947,0.3280612599033763,0.1444972624247547,-0.3174332317588404,0.3464124871852761,-0.31984645450528404,0.17441504199911328,-0.5705712470810521,0.6180177872272903,-0.21007014126290535,0.5032388795398619,-0.6098937662524014,0.07902098862574736,0.5366030021569641,0.7285351351870064,-0.6665769677968352],[0.7053035101849618,-0.7763615018567246,0.8428320121026471,-0.003349064919150324,-0.2660355378860969,0.4923754306590281,0.0069370186690895785,0.4348840341182147,0.044783519385310944,-0.7482268800881603,-0.0006431548251770169,-0.03069829047040029,-0.4473099835278902,-0.29258839905988665,0.7181710005862454,-0.4598351642289779,0.4524420078765029,-0.2975747669260115,-0.08282092995162904,-0.7102220523963649,0.5823572743337996,-0.42760987698562714,-0.6781204452554941,-0.023535443742476236,-0.5509767099825724,0.13336999363408403,0.35721619661699244,-0.32435996168788916,-0.15988650810539273,0.6864823185198632,0.09189104290454947,-0.7124316071229777,-0.7783122671190961,-0.07688240312018196,-0.07656817823615714,-0.20103100827687043,0.38800843442364974,0.3296249771244397,0.7024362299253959,-0.23167864487533762,-0.5316832182641604,0.3279604114731067,0.5187880696145649,0.14090338252956425,-0.7327970350212543,-0.7008951861112506,-0.41789658730711554,0.010588742118931682,-0.6190683209357685,0.1845948647538534,0.06671628261711304,-0.7936384541083821,-0.30854004245589883,-0.33501092942920496,-0.8922960859002963,0.5535397504552698,0.22910862088525297,-0.6698501734073803,-0.30006788320721434,-0.441699429628593,0.5939746842066123,0.044696953961851194,0.6842508829214484,0.8151018569497128],[0.20917465520739886,-0.7227478358730848,-0.6553575707560785,0.5174256471337866,0.35923519896718803,-0.5028109279528012,0.22509585261846016,0.11360339414120224,0.6332965956346062,0.7429425181507725,-0.5376561646926609,0.5661691089341335,-0.47658420188381706,0.4471407136553897,0.441391777415161,-0.5470101378505161,0.006869308325797352,-0.7047086748883995,0.5844936737037778,-0.35948790613202386,-0.8447045884702092,-0.5785935941296494,0.17022628927843098,-0.11303704972389964,-0.5693475281744914,-0.06435971161888443,-0.48126815308993426,-0.48208333895361144,-0.21522508248350392,-0.6483196891564558,0.566160188722947,-0.4232614792630096,-0.6074232054802104,-0.7549316258163652,0.8419864351007812,-0.08860275694102915,-0.2901625851745083,0.7090168747734443,-0.6782847724676914,-0.0015162248828671232,0.4447640760297711,-0.19127334825283493,-0.218826852014662,0.3330105725353135,-0.03477664407160502,-0.8935915883083244,0.4882148038881631,-0.35373680464839896,-0.056718760916613264,0.5958285214680238,0.13004641752727053,-0.019866667940444505,0.41848228807570553,-0.3432860583300249,0.7074784435869781,0.4962902516377823,0.43574703406381093,0.19209623010187582,0.3539672963633006,-0.6589588216305247,-0.5519751739750356,-0.0013482478923111385,0.08864523602611521,-0.09818100035484578],[0.6484221958083258,-0.3135346421396122,0.4694772441941163,-0.23710136208934307,-0.014410152110735375,0.44792520875418584,0.846310909839739,-0.4065508121723126,-0.06944214124099846,0.7378953252982808,0.06898704264529842,0.9334564034708025,-0.435530778900323,0.5425575674402814,-0.7308879269642576,-0.5949100834905908,0.5519171203520582,-0.6542543762689104,-0.5244267896435926,0.4635320447913527,-0.6315066524555274,-0.4769077691925464,0.2479573086525949,0.6501770303785854,0.3826437896700755,0.3553403021762951,0.4229929071124119,-0.2957438217936992,-0.15326075073404238,0.5548633783367456,-0.08427566717502094,-0.2471933465311148,-0.1067118609677129,-0.028985603756124245,0.7878055886527542,-0.3768550701882747,-0.11700121382008004,0.23901162468446557,-0.32593860191368373,0.5745493842654765,-0.3882312095198048,0.2727743844973707,0.6423750343353802,0.8429975154396416,0.2874693740496891,-0.26646984167884924,-0.4800941624150229,-0.770284446766496,-0.674390168195242,-0.5947850755474633,0.12922333839553807,0.7537111625344226,0.1679752618550495,0.10811347948122119,-0.8454764017629327,-0.5996424994877232,0.555615658642453,-0.053798640839038014,-0.43179425038433594,-0.5102659629984814,-0.4416671238668349,-0.8131712635662596,-0.5423140596249729,0.7091723755487486],[0.46100122249030684,0.6056104371598903,-0.6868142290884157,-0.17977046083830717,0.6966288672543144,-0.6423670904541847,-0.5182217457900986,0.8733893842993823,0.23443744288720358,0.1825029721720628,-0.316666824155192,0.0848323006373814,-0.2100623788498585,-0.7914652228156341,-0.5355966062387222,0.39190794443905663,0.7041551435813815,-0.2147982215581029,0.21297347165861824,0.6392657336652745,0.6295323751195329,-0.32261945834418737,-0.23138574755373437,0.5159601643632169,-0.2906504513268631,-0.3395009000532997,-0.6017482152080462,0.4512951820308407,0.4920881075258884,-0.5291334168610609,0.5787475073287649,0.714230196064239,0.5381066875026264,-0.13954409001764068,0.2063737560437951,0.15423339215620213,-0.7895145813031157,0.5768200233994396,0.09549948563745558,-0.4325373856623538,-0.29202907566741965,0.7915786033648544,0.6788591178127688,0.36756827640802026,0.7060390432251848,0.5632378226539134,-0.40601872696555175,0.06485375974205243,0.12961878016200834,0.14800012226372683,0.8583041188395955,0.49963602801104745,-0.5047125068229417,0.5977013918673,0.01640200636870226,-0.518351802163233,-0.29325606774613994,-0.1054179091837143,0.1297420039633085,0.2728110193374047,-0.5952741530368362,0.5815054369251416,0.24641703745746596,-0.32783687998560307],[0.4726696058900034,-0.39328035527065397,-0.15850961502826938,-0.40955026627501284,-0.14251270361929774,-0.31487860832241976,-0.44615873967927133,0.3427778983739515,-0.5412329333813168,0.7021641213451731,-0.2842828456594433,0.3525948051414427,0.14670481940484187,-0.37707352041531594,-0.1695274393786253,0.6667947030526513,-0.31183936473927487,0.37248971567855915,-0.2518950959654659,0.4611477685782073,0.3221965595446673,-0.6211575425638901,-0.014330515340279959,0.4744829509949819,-0.7664635378914786,0.6333963164549048,0.5288127083399559,0.7236636826808481,0.0014494875000862495,-0.4217103040940007,0.022159802736765155,0.7066839928162569,0.40228474538418163,-0.6933085890276869,0.46431939524837085,-0.2538587490611435,0.24607119639096875,-0.19674059605275201,-0.41397736272267305,-0.8156497494638411,-0.5853340770847217,0.4988282502417132,-0.6883273222838633,-0.48929506145384793,-0.15579458709471605,0.3047476003856928,-0.5563730950106633,0.5541365386804936,-0.37201683529583773,-0.26490297887927544,-0.49285443730792394,0.16447618286326177,0.2216347664343024,-0.5506374372917873,-0.5550434319924094,0.674629837820653,0.17157875948284562,-0.15607945112864446,-0.8417435049995321,-0.5269082208982006,0.44005665475649236,0.5387607262646754,-0.7596578623744579,-0.25926037115319767],[0.5288666026625,0.5632911338723424,0.7796501789766209,0.2761083221310321,-0.009039211785165757,0.13560456561863365,-0.3050305839032619,0.5146693927061924,-0.2272667007888797,-0.4198540924635764,0.2653786885168871,-0.19362604168654757,0.7400895435192574,0.33649353512715807,-0.3345630555449096,-0.24381481740235333,0.8492903659081449,-0.3342082528559033,-0.11801684225024844,0.414765056856141,0.6786575518423301,0.4632783869413652,-0.19415571289486006,0.21984873304676267,0.315908118694634,-0.41021420283767773,-0.6126734920926251,0.9048099765135729,0.4613720662075973,-0.37716990919503646,0.6450907969609864,0.48449917055952657,0.04194088870462115,0.07681449478378889,-0.4273967252973886,0.1766271110485823,-0.5928486299052145,-0.29880645488730734,-0.36179239237105637,0.33683748358819154,0.711318944180551,-0.07592398711988652,-0.7088582545890546,-0.1607867338335438,-0.5153412313283259,-0.26519853732286897,-0.35272741893531934,-0.6627415061720476,0.648006826517365,-0.13740869314999737,-0.38725581824846295,0.8440999316878512,0.5976136456051182,-0.7971037022490398,0.31118607475168525,0.09608895064270262,-0.49730044654676275,-0.01710360900046981,-0.2703563270095626,-0.2922907275334706,0.29599781493124344,-0.3502999475522608,-0.37483426111866225,0.5236982656484648],[0.6384537855637828,0.32970693432555676,-0.273109100406874,-0.7270384072027433,-0.3867958549890693,0.4033758995065895,0.6976982041397249,-0.0487563542914643,0.4305846371884035,0.5686350213222571,-0.003841491923495477,-0.050621782546966365,0.2802113196955319,0.44277145716236777,0.7204871019052986,0.3446322781387233,-0.2087684869521246,0.1205639307048969,-0.43569666996193923,-0.3472224134419353,0.06978530985780229,0.662444635552149,0.08229509567890014,0.5700651129404471,0.19150897006432588,-0.19661130833708867,0.040325739423834356,0.6249734975149706,-0.3266338600868662,-0.4961116504421319,-0.7635097022534811,-0.45443770305062237,0.2188303301668465,-0.63342088752309,0.7405575571155658,-0.1962526908546176,0.3159758841840502,0.21314367729699768,0.15504313195239,0.8635149638112697,-0.13718720718764665,0.5621982607130978,0.5939727246075311,0.526966842357629,-0.11364739397315848,0.8205584834515229,-0.46527266947423196,-0.1221091090194962,0.2057539370511211,0.8097973242594345,-0.44012207815048554,-0.5807598413634145,-0.21383079308367697,0.12102696159649545,0.6684323024802858,-0.6365541639569552,0.6384653351892107,-0.7222499294453852,-0.8414377552360485,0.20343924246918563,-0.476218504410769,-0.5800987750967956,0.5046512334825459,-0.5343442072416802],[0.48880321135853266,0.43785291392093484,-0.7805822581136336,-0.4542578760381024,0.6709869465540115,-0.6912456228584779,0.5438502884335397,0.732087764465504,0.5902910418129816,-0.48600554906573,-0.897393951526908,0.12540077363022867,-0.19622757082412912,0.08151815600465306,-0.5517079122001278,0.7143332639901735,0.6072405845368944,-0.5371605968241501,0.7227734060515191,-0.6372420272962096,-0.048060672104229624,0.17560287845416922,-0.944096408178158,-0.7641857853132192,-0.09487639791330782,-0.3077455155772868,0.09881521671578453,0.5039232255563686,0.8992783169098327,-0.224279049724046,-0.14869524799816192,0.7347000319834093,0.22722006526769278,0.15593908146961108,-0.5093666462510968,-0.6563110736776153,0.3658446553109478,0.35456949067998367,-0.39469442296924323,-0.5540005668254204,0.37349315154605944,0.15065745058560376,0.22988947238581592,0.08438932786025694,0.3315845671402442,-0.5076229804364925,-0.30859453510053014,0.24423261463596568,-0.15309364783191215,-0.2812012084346506,0.11546611332275361,0.7019399056760645,0.6478590524886141,0.4637492207368261,-0.8837099318356085,-0.3301310971339052,-0.6405106559523748,0.46355644017007147,-0.6473289063562677,-0.6865552660048562,0.695758629796688,-0.4093081800494338,-0.455640266377176,0.2716536951170289],[-0.42098372643678506,0.13104054785998176,-0.2636969351736872,0.28008741759856715,-0.4928988413528055,-0.5072955128320074,-0.2616078828699583,-0.04283838290106401,0.8001269813868852,0.5378750943207009,-0.1673447234479174,-0.5946067978343103,-0.022600115372191615,-0.24673736170879657,0.4571116843635985,0.17781946571878743,-0.0746440953858758,0.24747966076435945,-0.05237235914419791,0.06327509025902855,0.6473409187323049,-0.5655517335528379,-0.7165301227137444,-0.33114663988131965,-0.12271904872336575,-0.012705429726070527,0.6203874440886148,-0.27949572869165207,0.6841351586264726,-0.5614498834738659,-0.8744467864298171,-0.6914157428924519,0.5943300780649431,0.6330612740247528,-0.1133634603324665,-0.19330791973351769,0.7436185943185741,-0.11620511778649645,0.17793578147272626,-0.5468557132467765,-0.5432033595595822,-0.7215551065088646,-0.4371701138492181,-0.42648544543997957,0.4539824610219738,0.37723467931357146,-0.2978247584335357,0.24357673981283567,-0.6759967828191078,-0.5714597304225427,-0.559923489293057,0.4967931808766387,-0.59646331952705,-0.6229211173780054,0.0955845468051032,-0.1367270613762304,0.11981191378525144,-0.4126335053047791,0.25018001683914104,-0.11406947112126145,0.6850024473426737,-0.7397872336319613,-0.058775594943545784,-0.8366812458558144],[-0.4930529316687683,0.3166754343493862,-0.24320832567376927,0.709028828228883,-0.6677408905113944,-0.33227034424369706,0.617763169059498,-0.45998172691519124,0.18106698142908761,0.7541480924011219,0.41544511621165886,-0.4739714689720359,0.6631383939033857,-0.7622018681447209,0.15373660438585357,-0.8946360851532545,0.05133783925887225,0.25425559885013715,0.33807406141226304,0.04434009819137895,-0.31951948243352196,-0.43938376432656856,0.33722986643193775,-0.672649666964328,-0.23914665905763383,0.270812602148005,0.798463016452994,0.7212728081111872,-0.4482175374493913,0.7968545522535506,-0.7101178019926606,0.6713427086746809,-0.23636296739531953,0.2819814623161895,-0.7881426395782457,-0.5740712502071987,0.8043519106275894,0.5784629020870804,-0.661525088999195,-0.35556716100739033,0.4834602345911365,-0.061374116063319495,-0.8300207056865334,0.7320862565521162,-0.07933106809071933,-0.03298772389386484,0.8074187606774923,0.4268514337397583,-0.06766942535715059,0.38506081117783936,-0.12859212470868647,0.20465468036691248,0.16254856087287217,-0.41680286977012215,-0.1087743213043127,-0.44729961694582693,-0.3398671158294343,-0.6724195211138804,-0.25151922508637903,0.039110592852936985,0.8013912395304501,-0.6369567367001969,-0.8184719002660148,0.3442697236050529]]},{"inputs":[-0.9953124129559443,0.8364115741353687,0.9509294492527827,-0.8671559638780707,0.9846457921141122,0.778176376632954,-0.39698541718064373,-0.5718535755863732,0.9480839172070622,0.9999863967001188,0.9399146187521777,-0.28252247884407733,-0.9651146832367867,0.2673941950376567,-0.566024388023801,0.5314086409351054,0.9907215153447558,-0.992171777472353,-0.7621053779980079,-0.35609900711781567,-0.953368089396628,-0.9937628867046974,-0.7535073658843979,-0.8868268173878933,0.860481266427473,-0.9924777768763511,-0.7291961132849735,0.9592539316686012,-0.900252109048828,0.9970499262951391,0.8660980386172065,-0.003553500851792467,-0.7492832641874624,-0.6910260217212129,0.9953916107339321,-0.998467678892594,0.8006998281603219,0.999539435030042,-0.9260653631741161,-0.45674835822603244,0.1453310225123504,-0.23812979085091968,0.6489872840675732,-0.3260617658667371,-0.8337898125443394,-0.9985780794262314,-0.9074242138273018,-0.9989094528091801,0.9931533483639622,-0.9545294469268063,0.9790337423705102,-0.4370323613519266,-0.8526302278178037,-0.8769388576956023,-0.9938868019256544,-0.39216105016579306,-0.9689699364100007,0.9962005778410776,-0.9799184114563478,-0.5513264256290207,-0.31510869838588457,-0.6410268635254054,-0.9959053891702295,0.42163527373571874],"outputs":[-0.7054914910852175,-0.7882568910198644,-0.9630908889417461,0.9954052566461932,-0.9999193970562026,0.9961833027628896,0.9995209187478369,-0.9968535383123053,-0.8521532532114813,0.29982975383927124,-0.1333389485462523,-0.8540487799670915,0.9963395203992191,-0.9961381322512777,-0.7926779009671403,-0.9950512677547504,0.9886373706508355,0.8384857710767981,0.9975088627573067,-0.9581963735960507,-0.9999982900058818,0.759454844394417,0.9996626188650901,-0.9999817493132064,-0.17297518959113803,0.7627178988520493,-0.8747291971581901,-0.7492657916922221,0.972503579713643,-0.9991859568165634,0.7985896708505179,0.9999906270440753,-0.39916918055967354,0.7172142615651501,-0.9999429458323159,-0.9380276717936271,0.4637139565369774,-0.21140363746708293,0.9875288816097751,-0.9973370656106255,0.9999898194441404,-0.9998387945712985,0.18276264203655285,-0.9815770044656191,0.9731650060592837,-0.9985429008125181,0.9999151739982157,-0.9999780547217476,-0.9981612417138688,-0.639637694651636,-0.9716832462673506,-0.9999560057458498,0.8927909269736657,0.8517695227286709,-0.4255059570418939,0.982455236024594,0.959558531599835,-0.5453341752898215,0.9999990631045512,0.9997900118205584,0.6364488048159673,-0.13348356773205272,-0.688089594441672,0.2888578844307229],"biases":[0.5755862793269925,0.20684504689748284,0.206867741075621,-0.82302361145258,-0.3857849626217049,0.4119279982858429,0.4730545045876916,0.5772352952227795,0.5803456606366386,0.5285223536821491,-0.6501030693360377,0.2765859722630635,-0.35805062424975953,0.21902506730667964,-0.6405639950193975,0.5674551206534701,0.611871715845345,0.3004119472291227,-0.635732076457628,0.4840498342009528,0.57220201405771,0.3280378481828803,-0.8717625856694428,-0.034760088557923674,-0.10800211109042443,0.7512735529708738,-0.08244173271391841,-0.29329178123112104,0.2559473605451781,-0.6536343057305456,0.1411824556250824,0.5848990525314293,-0.3440796763711949,0.4272394494647196,-0.6844911269865395,-0.7059190000906176,0.40502038041459787,-0.24835910912634285,0.7297875630895868,0.49925558055290464,-0.2599106771650783,-0.38154442051942783,-0.03264528090528452,0.13810716401520917,-0.4813029937639007,0.01741977414978102,0.830107177492153,-0.16442914293557154,-0.816590064433985,0.01681291946377733,0.7249017847639111,0.07455038393155752,0.3889156624448995,0.6503207110611102,-0.34193250937508757,-0.22799676692740217,0.7442225853660689,-0.7336977189203882,-0.2232060439544276,-0.42930848078653505,-0.5904683975168006,0.6214591491804204,-0.7927644113153436,0.3333491685469876],"weights":[[0.003913807193057589,-0.0752862217100746,-0.33961984701683784,0.6377837701840869,-0.4514422310389543,0.24703905940045856,0.5859718539795646,-0.09069787207656438,0.02413222705367779,0.17795208144125385,-0.14679787783700848,-0.18134922897742717,-0.1525286594024221,0.39976698723431825,0.454847884792402,-0.7797104463233018,-0.6129489034418216,-0.185846890612267,-0.11252940030790415,0.38741970240554513,-0.8573436303296975,0.6251539272406414,-0.010561785243057994,-0.46396961058649083,-0.09688676240801473,0.4330544158447629,-0.007942086402124585,0.5343952450325476,0.6536588152831767,-0.11258663611564712,0.09169781003047228,0.06014300983359716,0.32690245938993423,0.3327739683404737,0.33866242515280426,0.20467544638515156,-0.29025352643048513,0.12866042704291047,0.5648238457343676,-0.6429508370279118,0.06495091766754951,-0.5225894243643905,-0.6150469507445455,-0.5682951224389708,0.2955703958020143,0.23949464442265517,-0.16275496295682068,0.0063927284748356294,-0.08548524444284922,0.4512854210598258,0.6241444194192158,0.36747176074316285,0.06298195030641529,-0.7832469094261194,-0.12337353867832279,0.29993040920323555,0.7677424594087389,0.8758665671998759,0.3314329978822952,0.20245511521532666,-0.3531629547599118,-0.7830652453687205,-0.7451075583809751,0.4286342639380973],[0.6682139448908725,0.45641465888541355,-0.43585101543424565,-0.36098909346900226,-0.45140028656797737,-0.7518870757390803,-0.7493219039822958,-0.19922819464853891,-0.2248761159377448,-0.3051683651261141,-0.24874484514874037,-0.30426523825016627,-0.5532968812360499,0.033306827137265974,0.6609118291710252,-0.2421413891226213,-0.6560555048087018,0.2370170824688835,0.01909172451182628,-0.2433668636702013,-0.8802480301805276,0.3838699819443656,0.254949535498346,-0.4430461608737566,0.3726634831845481,-0.6712144289962991,-0.3646864081488521,-0.5504139984006835,-0.19697149988279677,-0.001846772762845672,-0.4571195303892792,-0.6683556727660738,0.4216623085282887,-0.575584844759756,0.3647666894997571,-0.1132690011566907,0.46103973604063087,-0.6706328616310268,0.7092710893451126,-0.643363174127297,0.42615110118573307,-0.4647477041661672,-0.9244705729224317,-0.39613405695717585,0.572015795708992,0.7145671154633876,-0.46871551604674827,0.38974271599984656,0.666871467222916,0.5690866734752524,0.037566997825702636,0.053753599363975724,0.6466660720600851,-0.5304292984218257,-0.4534532115664197,0.25820462887877854,-0.5607327755846484,-0.6267657695427813,-0.5993078594868262,-0.741714755988166,0.753952485684114,0.09180179746465039,-0.5491826695910931,0.0017005143231141467],[0.018729543604680154,0.8576154294660383,-0.13245264048817706,-0.6485888038615344,0.3258967086174376,-0.5040171488987747,-0.03620286841143594,-0.3446212857316082,0.7487771106502146,0.20704231395037376,0.3387181548537574,-0.4797438142942046,0.6156207725757485,0.6171054451794968,-0.793383251037158,-0.44067994172450364,-0.7206266571426412,0.16827151734493284,0.3264872689391603,-0.010306079515146088,-0.23171316014380045,0.4772143765077795,0.0541693745051226,0.0010663261424616044,0.4459132562341579,-0.04695964981092901,0.90830634071759,-0.39322571318213195,-0.13516621522925232,-0.6684378135877763,-0.444923390705191,-0.7207114833151858,-0.1411303586496201,0.5991261835387801,-0.312498663033,-0.39786922183967044,0.2722252989809083,-0.3818071902979556,0.25479677115054,0.7603062949545975,0.5539267490228476,0.08812688268670188,0.31978207819708093,0.4711848363703715,-0.9468043353438397,0.6244970424191751,0.5357657147376169,0.3193605949204942,0.3586644831922289,0.32531980922677306,-0.7090799708674481,0.24317484394147615,-0.5256240901251319,-0.31088691443672734,0.5214795703321886,0.18618805597637392,-0.8434812947819359,0.8062093293187246,0.3562137345173724,0.4932667616966022,0.17935465912205795,-0.03948357846666273,0.3658734157790079,-0.3590202082304003],[-0.1501284880201269,0.07141391617979864,-0.17844607816166375,0.47465390273965546,0.05827095792205324,0.47596630654811733,0.6619225866526625,0.6561650741635754,-0.41088144558812445,0.16889666246579538,-0.11826376470234384,-0.4585312085861803,-0.114461674764054,0.21968627775887298,-0.875532061087653,0.3850513607383702,-0.6108469162782335,-0.7797217820020773,0.2893434191212384,0.819899416513046,-0.795411952402497,-0.7437961238473163,-0.3367664563943582,0.12853942053626302,0.7785141304278994,-0.07833401587501675,-0.577996399354817,-0.007747810009511413,-0.6114700971064845,0.8579378503985723,0.33277385003475335,0.6345160406919643,-0.5204075632897358,-0.4361712816934591,-0.5606170669212049,-0.6139487615252617,-0.7036015345198162,-0.17076713700061535,0.647939482280793,0.6861206921136658,0.6145126729834768,0.4204989021714043,-0.5758383978124887,-0.14793445915480452,0.059806522786689964,-0.14719494617405518,-0.8217986836760509,0.29040370450175335,0.45234080786435904,0.4769097526539754,0.6659915226243759,-0.21371233146897015,0.3914249142718939,0.512584887150884,0.338921063194655,-0.4820183820523938,-0.2510991028074777,0.12543015949556197,-0.6162451441074335,-0.680732234470923,-0.6860788810876772,0.7717689589037668,0.41132773319369614,-0.3665357247521996],[-0.00693580964613294,-0.3094248954405008,-0.010278930236187922,0.46035103244976466,0.27768362678911185,0.8207636698221109,-0.1932767607268221,-0.2831518799492436,0.33829236446945943,0.3715171651257678,-0.4065538086961167,0.5106238711110002,0.10554819771552909,-0.33601662455464654,-0.163385207580395,-0.8545427808320355,0.2586556782748233,-0.7056033066147129,0.7621559314347077,-0.2862528848865212,0.4532802741364784,0.5824737662843251,-0.5998292103071073,-0.257888330091824,-0.22511198755501072,0.530419709857175,0.04564938394372269,0.7228593440139002,0.743019889713649,-0.611298153208586,-0.771538450674087,0.3370058933803617,0.7816649119077916,0.21837719532486455,-0.8328900066239393,0.13540781813918668,0.7837563862486874,0.271595097622637,-0.7401565638320229,-0.3106832753138252,-0.39827418761029987,0.11120180481185171,-0.4381954105164345,-0.4963598534880394,-0.5387753891408836,-0.6789841930593521,-0.12393281597490435,0.6498786217197878,-0.6112762589929566,0.6555675576864699,-0.11309774762325042,0.20437153718212228,0.23619839375603124,0.4764736894669873,-0.09993568303561728,0.007379470282738276,0.6449281604243372,-0.030265284883675303,-0.16847429025204924,0.5771553328153655,-0.3217108800000108,0.639087264746786,0.11043401474596615,-0.33782435560943236],[0.5262655522366047,0.7389539515382695,-0.1056729575973917,-0.6507164913847859,0.06985837504535167,-0.23186569520859981,0.36601222290753227,0.17510227653347354,-0.7391034929349076,-0.03599418551553035,0.009865382270206946,0.45450708072275015,0.32903027919697614,0.7845062360655363,-0.4241359801971505,0.6447079077395951,0.769875772444125,-0.08391005032796461,0.0747475593378526,0.4743517437711777,-0.0676596247454525,0.7428775302814112,0.5957079170906383,-0.34831882974119244,0.33801153738014783,-0.2682963951843904,0.23508298781191933,0.5391182382476174,-0.1382606654588172,0.36819707583596595,-0.30888225043738254,0.7483619674207279,-0.21056154698559376,0.5926677003750247,0.011764253810745029,0.6680419058557675,0.5667102454077397,0.8227225383184115,-0.39252472745521194,-0.6879784681473562,0.31879098658266974,0.5407194478631175,0.2607104735422335,0.9271091500178767,0.0827526692414674,-0.12826184640235172,0.1867497154680704,0.09852604366230144,-0.01689000839822863,-0.6266436207296038,-0.4581630372262048,-0.7808136821656573,-0.6588812975280904,-0.4550077708894695,-0.27112423298343025,0.6991563281863701,0.37311852343928287,0.29428108404454156,-0.45780088931146506,0.37461799237454096,-0.5259279860658794,0.4821934026954051,-0.09324178546381101,-0.4945863857180183],[-0.697598284880291,-0.6555147638326366,-0.39788872861693136,-0.4145645643803779,-0.5085503194339241,0.5452497681895567,-0.4178033626710067,0.28306442428961787,0.46886084499226643,0.5373326511312051,0.34764351992212006,-0.8088554396694624,-0.4487046846626461,0.013523798523187691,-0.453568751402575,-0.5952316271547289,0.30582583784318695,-0.5802970956193156,0.7910170050716991,0.29478131720423684,0.040038835658910754,0.4372870058495608,-0.8549145248709934,-0.16386920696180907,-0.5754603411903974,0.6207026170578301,-0.34475735627147386,-0.5782920785635453,-0.08337622234658437,-0.06525571998435564,-0.12231534521069609,-0.08738576744909121,-0.26041579235904444,0.6847197973820384,0.31811031111664106,0.4804850951915658,-0.5723098386699523,0.8664931968033818,0.3368312782404367,-0.19225573980350952,0.7896945722812463,0.7943876823124887,-0.20653310038727618,-0.10996382603349064,0.022216498228437076,0.7365271984048236,-0.7044341220045409,-0.1740008079223093,-0.4845649604668776,0.0015275114861424965,0.7469989714123242,-0.12634647665648496,-0.28592141619554107,-0.7365070299563189,0.03644341611214552,-0.20197402766807176,-0.8010737517300357,-0.31690564125908927,-0.6721967220539289,-0.4778741750951829,-0.5379888268814481,-0.29729814223309714,0.034718151732837654,0.4150878776340616],[0.5404042582430674,-0.15680677538280455,0.16823339556132755,0.14516349438235232,-0.4473420666496212,0.33425811384287896,0.7422320321262308,0.2424484557321221,-0.24667803017706547,-0.5069962548827862,-0.2966786275316454,-0.5403032106342665,0.1584728502992664,0.7087568250426269,-0.05973210756144165,-0.07798804050236285,-0.46599903874587023,0.39499617148227995,-0.23535980129566647,0.3140210178568994,0.8197267324659754,-0.6493897000805835,0.220727674412324,-0.1471873334500235,-0.3791654273901274,0.31825232865103725,0.7838679224693256,0.7808081203827915,-0.3303760995883063,0.10748335894788019,-0.374319411323843,0.4979487297240382,0.6918848619344979,-0.611048770821344,0.22847831027924503,-0.8626568761389681,0.03743974942263814,-0.4718529398271365,0.06638964750600984,0.22097876064222527,-0.22315305498658788,-0.09002717029612728,0.5359659134245855,-0.16902638663959724,-0.1546176875240981,-0.12395629534528982,-0.613805142633408,0.5986419493593866,-0.24836949533691544,0.45496435773635735,-0.2777298196368224,-0.11989386983214717,-0.3609261166602309,0.9142622251277095,0.2306480913649751,0.016242893544958226,0.1276459898534993,0.39474196156265573,-0.2316440289142375,0.7769542894258239,-0.420813292226988,0.4801295118904316,-0.14579013854202477,0.5377615302544058],[0.4479461135227887,0.12000059511538069,0.2144153691411672,0.0853308149847013,0.5601972776328423,0.13201926711875817,0.34578027403763073,0.26657674136525483,0.578681381414827,0.26570647248724966,0.16177264529203317,0.8256518964698367,0.5946445787414798,0.4928998962373928,0.06381565019889389,0.5710282770081181,-0.21826808225065686,0.010835378398764361,-0.5025866180433574,-0.4351151322400453,0.6921425360403128,0.08672183900384434,0.20992971278620487,0.29481804752270957,0.7199479215665742,-0.38817137800821305,-0.19286741972126084,-0.6974696794529789,-0.14681244812662853,-0.6856700140291802,-0.4298938757330242,-0.6158712831103316,-0.5348879264792721,0.1860336942630032,-0.37403099246024735,0.5625294272849567,-0.17169476692607621,